-2.401827424764633179e-01
4.684944450855255127e-02
-3.244297206401824951e-01
-2.883154749870300293e-01
7.988744974136352539e-02
-1.195677928626537323e-02
1.366597115993499756e-01
-3.068228065967559814e-01
-4.315575063228607178e-01
-1.467112451791763306e-01
-1.430764701217412949e-02
-3.508625179529190063e-02
9.627521783113479614e-02
-6.261039376258850098e-01
2.965064533054828644e-02
-7.984638959169387817e-02
3.907298669219017029e-02
2.433018833398818970e-01
3.948146700859069824e-01
-1.079971566796302795e-01
2.590846419334411621e-01
-2.990781515836715698e-02
-2.005040943622589111e-01
3.730448186397552490e-01
-8.777615427970886230e-02
5.262145027518272400e-02
-1.063502393662929535e-03
3.768547475337982178e-01
2.218416333198547363e-01
-9.799990803003311157e-02
-3.364784717559814453e-01
-1.254088878631591797e-01
9.488640725612640381e-02
-1.382917016744613647e-01
1.421942710876464844e-01
7.058580219745635986e-02
9.566230326890945435e-02
4.692634195089340210e-02
1.206173896789550781e-01
1.969612948596477509e-02
-1.913315951824188232e-01
3.475410491228103638e-02
1.883803904056549072e-01
-3.556605055928230286e-02
1.138685494661331177e-01
-2.399267815053462982e-02
-9.020771831274032593e-02
-1.641641706228256226e-01
-1.165300384163856506e-01
-1.645177453756332397e-01
1.871076039969921112e-02
-2.431555837392807007e-01
4.626810550689697266e-02
-7.993479073047637939e-02
1.711338907480239868e-01
1.594218313694000244e-01
-1.309819668531417847e-01
-2.843462228775024414e-01
7.034204900264739990e-02
-7.114551961421966553e-03
1.386280870065093040e-03
-2.497838735580444336e-01
1.552911754697561264e-02
-3.133361786603927612e-02
