6.760352277979109203e-08
1.621454954147338867e-01
4.770649597048759460e-03
1.306720349703027750e-07
1.242556944489479065e-01
-1.422086507081985474e-01
2.563515622000522853e-08
3.666958150461141486e-07
5.995896401600475656e-08
1.865742802619934082e-01
1.978116184473037720e-01
1.262135072011005832e-07
1.225255429744720459e-01
3.818366825580596924e-01
1.054205966966037522e-07
6.567440927028656006e-02
3.314990401268005371e-01
5.608702450990676880e-02
2.682504057884216309e-01
-1.050042985895061065e-08
-1.065494643626152538e-07
7.732509632596418214e-10
1.594036547203359078e-08
2.805830836296081543e-01
-1.650507783779175952e-07
-7.588514592498540878e-03
2.971321940422058105e-01
2.623111903667449951e-01
-1.952855654963059351e-07
-1.187570575211793766e-07
2.410176545381546021e-01
1.584774851799011230e-01
2.323544323444366455e-01
5.185978224631071498e-08
6.321596913039684296e-03
-3.147190241747921391e-08
2.197661250829696655e-01
2.259614467620849609e-01
6.976780042577956920e-08
2.466133832931518555e-01
-4.576780199272434402e-08
4.998687282204627991e-02
1.644753844232127449e-08
2.832711115479469299e-02
6.015872210264205933e-02
2.215288132429122925e-01
1.867187619209289551e-01
1.328910741449362831e-07
3.057322217614455440e-08
7.097034426806203555e-08
-7.485258635142599815e-08
-1.070390069912718900e-07
2.352127730846405029e-01
-1.597143411636352539e-01
7.208652874624021933e-08
2.447548210620880127e-01
8.812445402145385742e-02
-3.793511638150448562e-08
-1.713228527933097212e-07
3.968266025185585022e-02
2.543255277487332933e-07
2.472250014543533325e-01
-1.086485426071703841e-07
6.026406396131278598e-08
