-9.994527697563171387e-02,-2.218458354473114014e-01,-2.839238941669464111e-01,-1.019191965460777283e-01,-1.667331345379352570e-02,8.142858743667602539e-02,-1.691972464323043823e-01,-1.285160481929779053e-01,2.620361745357513428e-02,1.978234648704528809e-01,2.007540166378021240e-01,-1.093865707516670227e-01,1.685735024511814117e-02,1.109666228294372559e-01,9.040755778551101685e-02,1.672861129045486450e-01,9.203728978945946437e-08,9.674791246652603149e-02,1.812333613634109497e-01,-1.071640980399024556e-07,6.091065704822540283e-02,-1.262596342712640762e-02,4.428018485214124667e-08,3.381775925959118467e-08,-1.297712799441796960e-07,-1.042499393224716187e-01,2.325511574745178223e-01,5.357970067620954069e-08,-6.339899301528930664e-01,1.230544969439506531e-01,8.588490629790612729e-08,1.672002226114273071e-01,-1.495897769927978516e-01,-1.492371503263711929e-02,-2.236415594816207886e-01,-1.188552758435434953e-07,5.125256663518484856e-08,3.549197344909771346e-07,-1.212951445950238849e-07,2.423911690711975098e-01,6.864495816216731328e-08,1.564911454916000366e-01,6.578965485095977783e-02,-1.287749558687210083e-01,6.500009419596608495e-08,1.809965652910250355e-07,-6.375524401664733887e-02,9.990216791629791260e-02,-1.146908383816480637e-02,1.858467015836140490e-07,-1.495533287525177002e-01,3.996497000002818822e-08,-5.251196026802062988e-02,9.201566129922866821e-02,-1.238428097849464393e-07,-8.223911374807357788e-02,-7.586284311855706619e-08,2.734464034438133240e-02,-8.383109673104627291e-08,1.454400867223739624e-01,9.455578774213790894e-02,1.741643846035003662e-01,-2.235503345727920532e-01,-1.463574932358824299e-07,-2.571935908690647921e-08,-2.243769614551638369e-08,-3.407433624147415685e-08,-3.750369614863302559e-07,-4.195546498522162437e-04,5.425465852022171021e-02,2.158813856567576295e-07,-3.806952014565467834e-02,1.380777806043624878e-01,1.593350589246256277e-07,-7.827785708514056751e-08,-1.493653506040573120e-01,2.264713039323851262e-08,-3.075138293206691742e-02,9.634955233650543960e-08,-6.486239811920313514e-08
-2.796148359775543213e-01,-1.150979474186897278e-01,-2.036695033311843872e-01,2.403043061494827271e-01,-7.652695477008819580e-02,-1.745629683136940002e-02,5.575852096080780029e-02,9.307920187711715698e-02,6.033139303326606750e-02,2.724895477294921875e-01,1.783935003913938999e-03,1.174011919647455215e-02,-1.274076253175735474e-01,8.394995331764221191e-02,6.895589828491210938e-02,1.730130165815353394e-01,-3.731854647526233748e-08,1.090592890977859497e-01,-1.117522567510604858e-01,-2.972720665184169775e-07,-3.019986748695373535e-01,-8.597116917371749878e-02,9.721609472990166978e-08,-9.154076252571030636e-08,1.222020244995292160e-07,1.703719645738601685e-01,-2.183612287044525146e-01,-6.028978649652572130e-09,1.563299745321273804e-01,-3.206814825534820557e-01,1.634659128058046917e-07,1.902484446763992310e-01,-1.323853880167007446e-01,-8.884661644697189331e-02,-2.576746344566345215e-01,-3.448896990221328451e-08,-5.600008989858906716e-08,-5.841553729624138214e-08,-1.007347236736677587e-07,-4.850800335407257080e-02,-4.824208232889759529e-08,-2.626686990261077881e-01,1.778469234704971313e-01,7.524059619754552841e-03,1.449937485631380696e-07,7.372284471784951165e-08,-2.667935490608215332e-01,-6.241159886121749878e-02,-3.787083625793457031e-01,2.695756791126768803e-07,5.636618658900260925e-02,-8.580918375855617342e-08,-1.499847024679183960e-01,2.462634816765785217e-03,1.374888256577833090e-07,-1.359734684228897095e-01,-3.482364618889732810e-08,1.141716241836547852e-01,7.654814737634296762e-08,-8.066120743751525879e-02,-3.775626420974731445e-02,1.712308228015899658e-01,4.531458392739295959e-02,3.098889749253430637e-07,-1.765387054319944582e-07,-6.837717592134140432e-08,-9.886628049571299925e-08,-1.475222290991951013e-07,4.481189697980880737e-02,-1.670913994312286377e-01,-1.604722399406455224e-07,-6.286297459155321121e-03,3.819584101438522339e-02,1.199031345322509878e-07,4.431759634826448746e-07,2.584580332040786743e-03,-7.226497178436375179e-09,-1.271157562732696533e-01,-1.369172650811378844e-07,-1.205957000927071476e-09
-4.426020011305809021e-02,3.290484473109245300e-02,1.644782163202762604e-02,1.984598636627197266e-01,-2.400769665837287903e-02,4.652556031942367554e-02,-1.365210115909576416e-01,3.472429886460304260e-02,1.009243652224540710e-01,-1.839801371097564697e-01,-5.754037201404571533e-02,-1.235270649194717407e-01,-1.057475581765174866e-01,1.246246472001075745e-01,-2.042274773120880127e-01,-1.163266003131866455e-01,1.212133042827190366e-07,-7.655330747365951538e-02,-6.016553193330764771e-02,2.564821102168934885e-07,8.861387521028518677e-02,4.101844131946563721e-02,-7.525872547375911381e-08,1.503652811152278446e-07,-7.712358041089828475e-08,-5.142651200294494629e-01,-7.609222084283828735e-02,-2.131636165358941071e-07,-4.884037189185619354e-04,4.473343864083290100e-02,-2.982971025744518556e-08,1.607018411159515381e-01,1.160334143787622452e-02,-1.685851216316223145e-01,2.524440586566925049e-01,-2.002559824632044183e-07,-4.387840135677834041e-08,-1.255395147836679826e-07,4.191976543665987265e-09,8.560840040445327759e-02,-3.242566037897631759e-08,-3.461365699768066406e-01,3.052692301571369171e-02,-6.556243449449539185e-02,-1.015411132954113782e-08,5.115723400450633562e-09,1.097239553928375244e-01,-3.427159413695335388e-02,3.378534018993377686e-01,-8.551543828616559040e-08,3.171657770872116089e-02,4.940853060020344856e-08,1.733401231467723846e-02,-4.320602491497993469e-02,-1.584686870614859799e-08,-5.387732759118080139e-02,1.442664938622328918e-07,-9.823475778102874756e-02,-1.202975852265808498e-07,-1.533936411142349243e-01,-6.121227890253067017e-02,3.895137310028076172e-01,3.333899974822998047e-01,2.262343485881501692e-07,-1.102656455032047234e-07,-1.221982586230296874e-07,1.088257235437595227e-07,1.960924578270351049e-08,-2.306132018566131592e-02,-9.398273378610610962e-02,1.537373890414528432e-07,-1.448880601674318314e-02,6.584727019071578979e-02,-1.203345050271309447e-07,-3.368531409364550200e-08,-2.407356649637222290e-01,-1.916405700796985911e-08,2.767875790596008301e-02,2.151189626431460056e-08,1.020649378347115999e-07
2.077354490756988525e-02,1.757528036832809448e-01,-3.341738134622573853e-02,1.405912190675735474e-01,-6.651613116264343262e-02,9.206293523311614990e-02,3.572661802172660828e-02,1.378736048936843872e-01,7.524416595697402954e-02,-5.776631087064743042e-02,1.297825127840042114e-01,1.436658203601837158e-01,-1.054807901382446289e-01,-2.125551924109458923e-02,-5.167310312390327454e-02,9.028432518243789673e-02,1.420761179815599462e-07,1.936495751142501831e-01,-1.145749539136886597e-01,1.402022888896681252e-07,-1.930273324251174927e-01,7.565585523843765259e-02,1.270937222130896771e-08,-5.590255813814337671e-09,1.893460250812495360e-07,2.329206466674804688e-01,7.362388074398040771e-02,-8.967303699591866462e-08,-4.720976054668426514e-01,5.532191321253776550e-02,5.534318958666517574e-08,2.280879914760589600e-01,-3.205949068069458008e-02,-3.950815200805664062e-01,1.117368414998054504e-01,-1.250841563660287648e-07,5.747848064174831961e-08,-1.050689277803940058e-07,1.496044177429212141e-07,-9.091403335332870483e-02,1.011667336570098996e-07,1.503302454948425293e-01,1.396355926990509033e-01,3.988905251026153564e-02,-1.602793453514550492e-09,-3.045532181999988097e-08,-1.348433792591094971e-01,2.265354394912719727e-01,-1.411138754338026047e-02,-3.835576478650182253e-08,-2.191052073612809181e-03,4.513940865535914782e-08,-8.067167550325393677e-02,4.282180964946746826e-02,1.513002700903598452e-07,-2.936163246631622314e-01,8.100854387294020853e-08,1.764935851097106934e-01,1.067366071083597490e-07,-9.907490760087966919e-02,-3.722627758979797363e-01,-2.708747386932373047e-01,-3.195370137691497803e-01,8.232021286858071107e-08,1.852969546689564595e-07,-7.485310504762310302e-08,1.089544809929066105e-07,-6.558380505339300726e-09,-4.359651822596788406e-03,1.210165992379188538e-01,4.082098215008045372e-08,-2.185163199901580811e-01,1.007586941123008728e-01,1.739688144652973278e-07,-1.385228216577161220e-07,4.788207709789276123e-01,1.390096144859853666e-07,3.370442241430282593e-02,-3.029647288599335297e-08,1.837968710560744512e-07
2.737694978713989258e-02,-1.287903171032667160e-02,1.552027761936187744e-01,-9.187343716621398926e-02,6.729845702648162842e-02,4.817457497119903564e-02,-1.174564659595489502e-01,-2.306604385375976562e-02,8.025715127587318420e-03,-7.425419986248016357e-02,-4.423034563660621643e-02,-2.128112595528364182e-03,-4.674740775953978300e-04,-3.765183314681053162e-02,-1.942739449441432953e-02,-1.699568936601281166e-03,2.503009000065503642e-07,-1.507940590381622314e-01,-6.166749820113182068e-02,-1.635495578966583707e-07,-3.137695789337158203e-02,3.172306418418884277e-01,-1.500930864040128654e-07,-8.609741541931725806e-08,-3.052187835805852956e-08,3.059601485729217529e-01,1.241635605692863464e-01,-2.088723078941256972e-07,1.087492331862449646e-01,1.359156519174575806e-01,2.573877964096027426e-07,2.344779670238494873e-01,5.483454838395118713e-02,6.949967890977859497e-02,2.373536527156829834e-01,2.095338125229773141e-09,-2.045943716666442924e-07,-1.282640198496665107e-07,-4.610284065620362526e-08,9.633349627256393433e-02,-1.032121730304425000e-07,-1.426702588796615601e-01,-2.827814221382141113e-01,6.638315506279468536e-03,-8.057090639113084762e-08,-1.615662803544637427e-08,-1.266961246728897095e-01,1.038332283496856689e-01,5.376391485333442688e-02,1.472385946499343845e-07,2.246528491377830505e-02,-3.536229371547960909e-07,2.790819667279720306e-02,-4.783362615853548050e-03,3.106596224711211107e-08,-1.332116499543190002e-02,-1.390908153098280309e-07,-6.883749272674322128e-03,-7.214072894612399978e-08,-1.191356256604194641e-01,-6.375791039317846298e-03,3.043930791318416595e-02,-4.799515753984451294e-02,-8.337528356605616864e-08,-1.363633259643393103e-07,1.788548615877516568e-07,-1.537101184112543706e-07,-6.209570813098252984e-08,7.223461754620075226e-03,-2.411937266588211060e-01,-3.409928339692669397e-08,3.505023196339607239e-02,-3.315019235014915466e-02,9.973485148861982452e-09,-1.088779555402652477e-07,2.360966354608535767e-01,1.501715551910365321e-08,-2.632285654544830322e-02,3.916954582905418647e-08,-2.840432955508731538e-07
4.560328722000122070e-01,3.282433375716209412e-02,1.044833511114120483e-01,1.614282131195068359e-01,-2.977608442306518555e-01,1.095263883471488953e-01,1.873469650745391846e-01,-2.686179578304290771e-01,9.264933317899703979e-02,-5.895675346255302429e-02,-3.411509841680526733e-02,2.126666754484176636e-01,-1.669303774833679199e-01,1.763008832931518555e-01,1.415499299764633179e-01,2.346430160105228424e-02,5.103018807517401001e-08,1.448009014129638672e-01,-1.389382481575012207e-01,-1.245661280790955061e-07,9.286118298768997192e-02,1.290228962898254395e-01,-1.798660917984307162e-07,2.511945673688842362e-08,-3.740198337709443877e-07,1.720415204763412476e-01,4.386869889572153625e-08,1.409081562542269239e-08,4.565429279068666801e-08,-3.195895552635192871e-01,-6.080559167287447053e-09,2.342162877321243286e-01,-1.611546725034713745e-01,4.295804500579833984e-01,-4.059851542115211487e-02,-1.597360892446886282e-07,-2.343695655326882843e-07,-5.086908672069512249e-08,-3.907917900392021693e-08,-2.154544442892074585e-01,-5.214867826452973532e-08,9.371361642251940793e-08,-6.836558878421783447e-02,-4.782487750053405762e-01,-2.159250023225922632e-08,-9.798671385397028644e-08,-2.235292047262191772e-01,6.890087127685546875e-01,1.519360095262527466e-01,2.366946461052066297e-07,8.067449182271957397e-02,-1.133047931034525391e-07,-9.387432783842086792e-02,1.081825569272041321e-01,9.446599946727474162e-09,5.980283394455909729e-02,-2.915596120089958276e-08,-8.394279330968856812e-02,-7.145749236769916024e-08,-2.802242636680603027e-01,2.505315244197845459e-01,-1.706528663635253906e-01,-2.924407720565795898e-01,-7.339851748611181392e-08,4.737781722496947623e-09,-1.216873215525993146e-07,2.137685761738339352e-08,-2.818522837344517029e-08,-3.564565256237983704e-02,-7.508540153503417969e-01,-3.603711320465663448e-07,-1.403021365404129028e-01,-3.464294672012329102e-01,9.108007503755288781e-08,-1.072322106665524188e-07,-5.021400184546109813e-08,-8.371547721708338941e-08,-7.568923290818929672e-03,-9.058427963282156270e-08,5.096827493389355368e-08
-1.154160648584365845e-01,-7.103805989027023315e-02,1.008556038141250610e-02,-1.543059293180704117e-02,-3.879824280738830566e-02,1.646028012037277222e-01,1.652102172374725342e-01,6.764756143093109131e-02,-1.675943136215209961e-01,-1.048660576343536377e-01,-8.974649826996028423e-04,-1.053469721227884293e-02,2.716122008860111237e-02,-1.883237250149250031e-02,-3.225151821970939636e-02,4.464535787701606750e-02,9.880690043928552768e-08,-1.100404784083366394e-01,-3.083403408527374268e-02,-9.408925905063370010e-08,2.744098305702209473e-01,8.320000022649765015e-02,-9.959902058653824497e-08,2.100594143072953557e-09,5.331750685400038492e-08,3.211443424224853516e-01,1.140034645795822144e-01,-1.253734183137567015e-07,2.269141823053359985e-01,9.061126410961151123e-02,1.177300532617664430e-07,2.075488120317459106e-01,-1.457295715808868408e-01,-2.313690781593322754e-01,-2.002259045839309692e-01,1.337533745982000255e-07,3.029165185353122070e-08,-1.532162201556275249e-07,4.753475391083838986e-09,-1.080033630132675171e-01,-1.258660944358780398e-07,-1.253323435783386230e+00,-3.581575676798820496e-02,4.688477143645286560e-02,-5.960432858387321176e-08,-2.049331015996358474e-07,4.280222207307815552e-02,-1.264357447624206543e+00,5.849527195096015930e-02,-5.356978149961832969e-08,-1.206621155142784119e-02,1.333046100171486614e-07,1.519569605588912964e-01,4.904324188828468323e-02,5.005037095884290466e-08,9.854896366596221924e-02,-4.763841587873685057e-08,-3.625347837805747986e-02,-7.893166298345022369e-08,-1.127973049879074097e-01,-8.463004976511001587e-02,1.644088327884674072e-01,8.704724162817001343e-02,1.553880082383329864e-07,-6.223636883628813621e-11,1.657286041734096216e-08,-1.933680238153101527e-07,-1.278674517379840836e-07,3.343568742275238037e-02,2.965583279728889465e-02,1.593804057620218373e-07,-7.739504426717758179e-02,4.918183386325836182e-02,-2.948996780105517246e-07,-6.681595721147459699e-08,4.264959096908569336e-01,-7.264421242325624917e-08,6.553862988948822021e-02,-1.209267281865322730e-07,3.853192254155146657e-08
1.419116854667663574e-01,2.997393608093261719e-01,7.007699459791183472e-02,2.507619559764862061e-01,-1.987206339836120605e-01,-1.931326687335968018e-01,2.060374617576599121e-01,3.123606741428375244e-01,-2.401344627141952515e-01,4.919973760843276978e-02,-5.837897211313247681e-02,-1.082589626312255859e-01,2.344302088022232056e-01,-4.941193461418151855e-01,3.756637871265411377e-01,-9.785287827253341675e-02,4.859775692978018924e-09,-1.529304832220077515e-01,2.088498473167419434e-01,2.446839530989564082e-08,-1.648510247468948364e-02,1.110126227140426636e-01,-1.253824279956461396e-07,1.968687790565581963e-08,3.769195444647266413e-08,1.308939456939697266e-01,6.987329572439193726e-02,1.693566176186322991e-08,1.456179171800613403e-01,-6.435375194996595383e-03,-3.833083894733135821e-08,1.175837665796279907e-01,-4.043639078736305237e-02,7.180780172348022461e-02,2.839657105505466461e-02,5.675993719478356070e-08,2.953524713689148484e-08,6.665889173973482684e-09,-1.354172667333841673e-07,2.443036064505577087e-02,-7.223686537827234133e-08,-8.026272803544998169e-02,-2.022952586412429810e-01,-1.471496820449829102e-01,-6.703635335725266486e-08,2.475833866810717154e-07,-1.887140721082687378e-01,-1.512940078973770142e-01,-1.095705106854438782e-01,-7.543035707158196601e-08,7.421568036079406738e-02,-5.933381430622830521e-08,-2.278593368828296661e-02,4.029565956443548203e-03,-7.639214771870683762e-08,1.140565332025289536e-02,-5.978601791412074817e-08,-2.861998975276947021e-02,-6.670593677426950308e-08,1.888872496783733368e-02,-3.026332557201385498e-01,-1.758658289909362793e-01,1.817250251770019531e-01,-4.600989100822516775e-08,-7.381351707635985804e-08,-5.166607408568779647e-08,-4.142411569318937836e-08,-1.169040615423000418e-07,-1.705599874258041382e-01,1.213816925883293152e-01,-2.262568301603096188e-07,2.668598666787147522e-02,1.384636908769607544e-01,2.077049998661095742e-07,3.921100777404262772e-09,8.390587568283081055e-02,8.638514970016331063e-08,5.265660583972930908e-02,-9.908942644187845872e-08,-1.554564832417781872e-08
1.373474746942520142e-01,1.679126769304275513e-01,5.404500365257263184e-01,1.178202480077743530e-01,1.671927422285079956e-02,2.594343945384025574e-02,-2.821822166442871094e-01,-4.225597530603408813e-02,1.408135332167148590e-02,-5.328258275985717773e-01,1.111590787768363953e-01,3.398379087448120117e-01,-6.330819427967071533e-02,-1.350927352905273438e-01,-8.734386414289474487e-02,-2.932815253734588623e-01,-1.810705363425313408e-08,7.344061136245727539e-02,-2.810964286327362061e-01,-1.569419509905856103e-07,2.580827176570892334e-01,1.867698878049850464e-01,-2.048687548494854127e-07,1.075865441180212656e-07,2.070180027402557243e-09,-1.019410789012908936e-01,2.340431511402130127e-01,9.388156740897102281e-08,6.690043807029724121e-01,2.003955394029617310e-01,-5.434207039911598258e-08,1.383047252893447876e-01,-9.208845905959606171e-03,-9.814042598009109497e-02,1.295475512742996216e-01,1.782169789521503844e-08,6.926037343646385125e-08,-1.720049596087847021e-07,-1.819646939793528873e-07,7.595606148242950439e-02,-9.682716495262866374e-08,-1.348612159490585327e-01,-6.377428770065307617e-03,3.797480836510658264e-02,-8.080186830738966819e-08,-1.098075799177422596e-07,5.915129557251930237e-02,5.277321115136146545e-02,-1.105691120028495789e-02,-4.497641370448945963e-08,1.409399416297674179e-02,1.278028918250129209e-07,3.566513955593109131e-02,6.295199505984783173e-03,1.542806131737961550e-07,3.719012737274169922e-01,1.105642688514762995e-08,-6.726966798305511475e-02,1.093266348561883206e-07,7.470301538705825806e-02,-1.964350417256355286e-02,-1.723585128784179688e-01,3.383423015475273132e-02,-1.011533541372955369e-07,-1.625604255650614505e-07,2.122890663258658606e-07,-2.237173646335577359e-08,-2.397151277477860276e-08,-1.705100089311599731e-01,-6.309226155281066895e-02,-1.093937829210744894e-08,-3.662781789898872375e-02,8.254474028944969177e-03,-1.425571696245242492e-07,-1.420035857790935552e-07,3.099410608410835266e-02,1.659599746517415042e-07,6.334844511002302170e-03,-3.468750398027964366e-09,8.878828339220490307e-08
-5.610336735844612122e-02,-7.729969918727874756e-02,1.780310422182083130e-01,-1.100437417626380920e-01,-1.489245593547821045e-01,4.031819105148315430e-02,-1.749238818883895874e-01,7.977900095283985138e-03,-1.796713564544916153e-03,1.036103144288063049e-01,-2.032046914100646973e-01,-7.677126675844192505e-02,1.010490488260984421e-02,-1.540761291980743408e-01,1.226116791367530823e-01,-8.227179199457168579e-02,2.376797425540644326e-07,5.061416700482368469e-02,1.808329671621322632e-02,1.506901554648720776e-07,-8.333791792392730713e-02,-1.448796093463897705e-01,-1.518591830063087400e-07,-4.947734311144813546e-08,-8.860767763962940080e-08,2.385464310646057129e-02,-3.370424807071685791e-01,3.320522878880183271e-08,-3.604960069060325623e-02,-2.887863293290138245e-02,-9.306010895215877099e-08,2.792041003704071045e-01,1.313870307058095932e-03,-7.987819612026214600e-02,-5.639601871371269226e-02,-1.184479003768501570e-07,1.521704433571358095e-07,-2.349659666833758820e-08,7.221562015047311434e-08,1.262663602828979492e-01,-2.308842539378019865e-07,1.905023902654647827e-01,-6.350416690111160278e-02,-3.036613166332244873e-01,-5.476602993326196156e-08,-1.833668079598282930e-07,7.853980362415313721e-02,1.258944272994995117e-01,-2.067271620035171509e-01,-8.223294400977465557e-08,3.237661346793174744e-02,-1.753379734736881801e-07,3.587973117828369141e-02,6.060590967535972595e-02,-2.575246504932238167e-08,3.171623125672340393e-02,4.080024851305097400e-08,-1.112196873873472214e-02,1.166196668123120617e-07,-4.680676758289337158e-02,-1.170120760798454285e-01,-2.247880250215530396e-01,-3.767656907439231873e-02,-1.932592041953284934e-08,-5.118226553690874425e-08,4.370673067910502141e-08,-1.829150875209961669e-07,2.197184834074050741e-08,3.661798080429434776e-03,-4.449875652790069580e-02,6.192252754999572062e-08,6.874176859855651855e-02,-5.043618381023406982e-02,1.487973264602260315e-07,5.566850092009190121e-08,2.279415577650070190e-01,-7.821358849469106644e-08,5.477512255311012268e-02,-1.411932970540874521e-07,1.257668902354680540e-08
-1.569667160511016846e-01,-2.681439928710460663e-02,-7.589839398860931396e-02,1.954328268766403198e-01,1.576224267482757568e-01,-7.563249021768569946e-02,1.059343963861465454e-01,1.134162768721580505e-01,1.592970490455627441e-01,2.964344322681427002e-01,2.482219971716403961e-02,1.279147863388061523e-01,1.638662628829479218e-02,-9.601079672574996948e-02,3.136830171570181847e-03,-7.542560249567031860e-02,-4.439336365180679422e-08,3.670486435294151306e-02,-8.160370588302612305e-02,1.103005047298211139e-07,8.518855273723602295e-02,5.304604023694992065e-02,6.173948463583656121e-08,1.674411009844334330e-07,-4.700716971228757757e-08,-1.806802600622177124e-01,-2.107259631156921387e-01,8.067183898674556985e-08,-1.727463304996490479e-01,-1.289221495389938354e-01,6.326895629626960726e-08,3.941192030906677246e-01,-8.707866817712783813e-02,1.574664935469627380e-02,-9.529697149991989136e-02,-9.166425485318541178e-08,7.173289162665241747e-08,6.259749341097631259e-08,-4.999364477953349706e-08,-5.277400836348533630e-02,-6.659942641817906406e-08,2.261465936899185181e-01,9.473004937171936035e-02,-2.625153027474880219e-02,-2.689865929994539329e-08,-2.606034854579775129e-07,-1.235224828124046326e-01,-6.578223314136266708e-03,-9.200709313154220581e-02,1.012280126388986901e-08,3.898755460977554321e-02,4.683465704147238284e-08,-1.334230005741119385e-01,-1.223810296505689621e-02,-6.450154899084736826e-08,-1.413008570671081543e-01,-6.893050397138722474e-08,2.405816875398159027e-02,-7.608848306972504361e-08,3.812382696196436882e-03,-6.344748288393020630e-02,1.732833087444305420e-01,-3.496558964252471924e-01,-3.249292745977072627e-08,8.017074293320547440e-08,-1.564181673074926948e-08,1.149712218762033444e-07,-3.060387498976524512e-08,-1.221270188689231873e-01,7.048967480659484863e-02,7.466530860256170854e-08,-4.100331291556358337e-02,-7.281165570020675659e-02,7.971823201557981520e-09,-3.355248523462250887e-08,6.012660264968872070e-02,1.272708942678946187e-07,-6.980155408382415771e-02,6.147882913865032606e-08,1.239527449570232420e-07
-8.476794511079788208e-02,4.707832261919975281e-02,-2.889048755168914795e-01,1.150037348270416260e-02,-2.546362876892089844e-01,1.091628223657608032e-01,-1.728372573852539062e-01,2.836568057537078857e-01,-2.017524838447570801e-01,-3.384201526641845703e-01,4.053951054811477661e-02,-5.725857615470886230e-02,5.416305065155029297e-01,-4.637174904346466064e-01,6.147642061114311218e-02,-2.851762473583221436e-01,2.370433627163492929e-08,-2.508720755577087402e-01,3.478132188320159912e-02,-2.457325898319595581e-08,-2.816183567047119141e-01,-7.836426375433802605e-04,-4.806450348837643105e-08,-1.241941447460703785e-07,-5.419357407276947924e-08,-4.986098110675811768e-01,1.614508405327796936e-02,7.034104498870874522e-08,4.462043941020965576e-01,-1.483842879533767700e-01,2.226114190762018552e-07,-1.635828681401108042e-07,-1.751247495412826538e-01,-2.681025564670562744e-01,-4.127753898501396179e-02,-1.001966065672377226e-09,-4.556984567471999981e-09,-1.494398276236097445e-07,-5.729259289211086070e-09,-6.722094863653182983e-02,1.374819635913127058e-08,2.039754889437972452e-07,4.663661122322082520e-03,3.902581334114074707e-02,-1.953058870185486740e-07,-2.455909680065815337e-07,7.388994693756103516e-01,-1.491093784570693970e-01,-3.784876412282756064e-08,2.902084474953880999e-07,-1.643087416887283325e-01,1.198451826667223941e-07,-4.650798141956329346e-01,-6.616139411926269531e-01,2.067418733986414736e-07,-2.862295210361480713e-01,-3.156170436113825417e-08,-8.208713680505752563e-02,-2.004780697006935952e-08,-2.992587387561798096e-01,3.180497288703918457e-01,1.909791678190231323e-01,3.739828765392303467e-01,-4.852115154108105344e-08,4.879863979567744536e-08,-3.905424250660871621e-08,-2.776322993724988919e-08,-2.760415718228159676e-08,-7.830642461776733398e-01,2.084915190935134888e-01,1.107340210637630662e-07,1.141608227044343948e-03,-4.065743982791900635e-01,2.416991229381437734e-08,1.527997426364890998e-07,-3.145313858985900879e-01,-1.650912224704370601e-07,1.690234392881393433e-01,-6.237482352844381239e-08,1.994264309246318589e-08
1.754754930734634399e-01,-1.601700484752655029e-01,2.800486609339714050e-02,1.261638253927230835e-01,2.011268436908721924e-01,1.459839046001434326e-01,3.403232619166374207e-02,-7.454453408718109131e-02,7.761692255735397339e-02,-3.529632091522216797e-01,3.384710550308227539e-01,2.334555983543395996e-01,1.204451895318925381e-03,-7.662957906723022461e-02,-1.002613231539726257e-01,-4.499340429902076721e-03,1.035016410355638072e-07,-1.314833164215087891e-01,1.850389540195465088e-01,-8.610096102756870096e-08,-9.897834807634353638e-02,2.959611713886260986e-01,2.965536971544224798e-08,-1.101415492144042219e-08,6.523476514530557324e-08,7.082651853561401367e-01,2.372862696647644043e-01,7.133246526791481301e-08,-1.109505966305732727e-01,2.041245549917221069e-01,5.319045826013280021e-08,1.341997981071472168e-01,3.656337969005107880e-03,-7.304608821868896484e-02,2.449264824390411377e-01,9.709113157896354096e-08,6.455950085637596203e-08,6.262031604364892701e-08,-2.782508978782516351e-08,3.528496623039245605e-01,9.334581108078054967e-09,-5.721715688705444336e-01,-5.314990878105163574e-02,-7.149448245763778687e-02,1.406198748554743361e-07,2.565987244906864362e-07,9.722043573856353760e-02,-8.475610986351966858e-03,7.151334881782531738e-01,4.584613932934189506e-08,-3.699140623211860657e-02,-1.466170260755461641e-07,8.442593365907669067e-02,1.236021369695663452e-01,7.873038043726410251e-08,-2.472837083041667938e-02,-1.953499051410290122e-08,-3.140215873718261719e-01,-1.028480340892201639e-07,1.164564117789268494e-02,1.887129992246627808e-01,9.167943149805068970e-02,-1.078738048672676086e-01,-5.311931516871482017e-08,1.013160968454940303e-07,1.871288191068742890e-07,9.452223004302595655e-09,-1.392860866644696216e-07,-2.309028059244155884e-02,7.175718247890472412e-02,-7.390372758209196036e-08,1.564196199178695679e-01,-1.242489665746688843e-01,1.018144359932193765e-07,9.633940578623878537e-08,-1.924521625041961670e-01,6.677936426058295183e-08,5.653600767254829407e-02,3.486155009113645065e-08,2.127147382680050214e-07
-2.135758996009826660e-01,-1.996624171733856201e-01,-2.299258708953857422e-01,-6.940905749797821045e-02,-2.683278918266296387e-01,-8.021918684244155884e-02,-3.457093238830566406e-02,9.592678397893905640e-02,5.133707448840141296e-02,9.418934583663940430e-01,-4.441202580928802490e-01,-1.271304637193679810e-01,-1.174421701580286026e-02,1.161686554551124573e-01,1.221318244934082031e-01,9.761171787977218628e-02,-4.544362397496115591e-08,1.750623960106167942e-05,-2.049132436513900757e-01,2.548317112882614310e-08,1.023097634315490723e-01,2.726449072360992432e-01,7.021954218089376809e-08,-3.576497320523230883e-08,-7.761288145502476254e-08,8.277072757482528687e-02,-4.673188924789428711e-01,2.951487720892487232e-09,1.610867883528044331e-07,1.875381022691726685e-01,3.669635617598032695e-08,-2.029514610767364502e-01,-5.696365237236022949e-01,-2.594528347253799438e-02,4.517284035682678223e-01,-3.719266601365234237e-07,-9.021065494607682922e-08,-1.461069416563987033e-07,-3.488262336759362370e-07,-2.279726117849349976e-01,-1.526651161043446336e-08,-3.828243166208267212e-02,-3.050257563591003418e-01,-4.738765060901641846e-01,6.897751347878511297e-08,9.166660674964077771e-08,9.814146906137466431e-02,2.404342442750930786e-01,1.003241073340177536e-02,5.635130762016160588e-08,9.624847769737243652e-02,7.486013942070712801e-08,2.732160687446594238e-01,-1.668134331703186035e-02,5.260954338837109390e-08,2.627307772636413574e-01,-1.611612248098026612e-07,1.286687105894088745e-01,-2.952791930965759093e-07,-4.246922433376312256e-01,-5.089779198169708252e-02,-3.566702306270599365e-01,1.848017126321792603e-01,7.242068988944083685e-08,-2.247660120247019222e-07,-9.226644692716945428e-08,-3.236320011978932598e-08,-8.647648286341791390e-08,2.183451689779758453e-02,1.541271954774856567e-01,2.192630788044880319e-08,-1.699736565351486206e-01,3.027818165719509125e-02,1.127973376924273907e-07,1.430071279173716903e-07,3.234849870204925537e-01,-9.880851692400938191e-09,-3.247062563896179199e-01,-1.025855400627051495e-08,1.879528497283899924e-07
-6.466552615165710449e-02,-2.215169966220855713e-01,-1.027852967381477356e-01,-1.010365560650825500e-01,2.044675350189208984e-01,5.851409435272216797e-01,-3.169137537479400635e-01,-2.699378430843353271e-01,3.442572057247161865e-01,1.261233091354370117e-01,5.675147771835327148e-01,1.728527396917343140e-01,-3.608785569667816162e-01,1.862419843673706055e-01,-3.678740262985229492e-01,1.899814754724502563e-01,-5.044638484719143889e-08,1.275099515914916992e-01,-1.014894098043441772e-01,3.681171989455833682e-08,-2.819065237417817116e-03,6.100454833358526230e-03,6.741537816878917511e-08,6.076731118298539513e-09,-1.889294942714059289e-09,3.596590459346771240e-01,8.397768251597881317e-03,-5.294583615977899171e-08,1.893748790025711060e-01,-1.486526727676391602e-01,3.317564676308393246e-07,2.023846507072448730e-01,-7.957790046930313110e-02,5.692888796329498291e-02,-1.904874444007873535e-01,5.337247088732510747e-08,9.961722469142841874e-08,-2.873334494779555826e-07,-1.171043209069466684e-07,-9.173550456762313843e-02,-2.354631476464419393e-07,-2.236288273707032204e-03,1.404179036617279053e-01,2.313024997711181641e-01,2.212773324572481215e-07,-3.953216420882199600e-08,1.592002622783184052e-02,1.505249142646789551e-01,-1.599238067865371704e-02,-1.339602420102892211e-07,-3.310990929603576660e-01,2.787023056782800268e-08,-6.261786818504333496e-02,1.075650528073310852e-01,-2.334550153193504229e-08,-2.120642364025115967e-01,-1.249377987733168993e-07,-1.079159751534461975e-01,-9.863140526533697994e-09,1.271622329950332642e-01,2.761924639344215393e-02,-8.560889214277267456e-02,-3.476415574550628662e-02,7.100146603988832794e-08,-7.652118227952087182e-08,1.424936790783704055e-08,-6.276859210174734471e-08,1.202861881210992578e-07,-5.481015890836715698e-02,-8.331171423196792603e-02,-3.052459973673649074e-08,7.088766247034072876e-02,-1.767766177654266357e-01,-2.062307373762450879e-07,-2.959371556698897621e-07,-2.620423398911952972e-02,2.602985027522208838e-08,5.135723203420639038e-02,1.010288741554177250e-07,7.745029506622813642e-08
-4.019873961806297302e-02,-2.182178758084774017e-02,1.688809692859649658e-01,-3.891278803348541260e-02,2.327384240925312042e-02,4.425176605582237244e-02,-1.459528505802154541e-01,-3.989054821431636810e-03,-1.042832210659980774e-01,-4.490166902542114258e-02,5.990971624851226807e-02,-1.932214945554733276e-02,5.706887319684028625e-02,-7.188328355550765991e-02,-2.174145076423883438e-03,-1.675182953476905823e-02,-8.080637314833438722e-08,8.979187346994876862e-03,4.644975438714027405e-02,-4.153809385343265603e-08,-1.659359633922576904e-01,1.628716289997100830e-01,2.275512223093301145e-08,1.891452328095510893e-08,-3.302636031321526389e-08,7.048523426055908203e-01,1.823664605617523193e-01,-3.423014618419983890e-07,-5.315938219428062439e-02,-9.784238040447235107e-02,1.466051990917094372e-08,3.042691051959991455e-01,-1.018919497728347778e-01,9.036500751972198486e-02,1.764542981982231140e-02,2.070911051532675629e-07,1.199960024678148329e-07,1.647559741968507296e-07,-7.263113843691826332e-08,1.183895766735076904e-01,-1.349750675672112266e-07,2.017845511436462402e-01,-6.449131667613983154e-02,-1.424266770482063293e-02,-4.178907175855783862e-08,4.780758189326661523e-08,2.505354881286621094e-01,6.294916570186614990e-02,-1.538420319557189941e-01,3.910472223811467529e-10,3.417843952775001526e-03,1.498636095220717834e-07,6.439097225666046143e-02,6.297896057367324829e-02,1.101762236999093147e-07,-1.443946957588195801e-01,-1.860584575297252741e-08,-1.616711765527725220e-01,1.388253849654574879e-07,2.950640022754669189e-02,-8.691605925559997559e-02,-8.334689587354660034e-02,-1.110725551843643188e-01,-6.129207719141049893e-08,-3.170380935557659541e-08,-4.019739208160899580e-09,-8.616842350761544367e-09,1.563580269703379599e-07,1.477106958627700806e-01,-1.681511551141738892e-01,-1.380219458724241122e-07,-6.251168437302112579e-03,9.166815876960754395e-02,-1.093767281190594076e-07,9.656287147663533688e-08,3.255904316902160645e-01,-1.666372355657586013e-07,2.447664365172386169e-02,-1.483872154040000169e-07,9.828301017478224821e-08
