-1.023808735567399708e-07
1.619540601968765259e-01
6.302194204181432724e-03
2.847470703670751391e-08
1.255185604095458984e-01
-1.434085667133331299e-01
-3.455294006471376633e-08
-2.190247556654867367e-07
7.311827232570067281e-08
1.886229813098907471e-01
1.988504827022552490e-01
-6.018853326850148733e-08
1.211538910865783691e-01
3.815935552120208740e-01
3.099039602716402442e-08
6.454242765903472900e-02
3.322035372257232666e-01
5.699634179472923279e-02
2.672011256217956543e-01
5.413582826463425590e-08
1.802948901286072214e-07
3.226674394340989238e-08
2.169046808830898954e-08
2.796778082847595215e-01
1.509028351165397908e-07
-9.572923183441162109e-03
2.957648932933807373e-01
2.627480626106262207e-01
-3.486806576802337077e-08
-1.259731590153023717e-07
2.397072762250900269e-01
1.602963060140609741e-01
2.332806885242462158e-01
-5.541242131812396110e-08
5.543068516999483109e-03
-1.030547096547707042e-07
2.181174308061599731e-01
2.252109944820404053e-01
9.467705552879124298e-08
2.466729134321212769e-01
2.183185614512694883e-07
4.829612374305725098e-02
-6.051535450524170301e-08
2.643792144954204559e-02
6.031135097146034241e-02
2.223843485116958618e-01
1.852352470159530640e-01
-1.881188893548824126e-07
1.945359251465106354e-08
9.591190064384136349e-08
1.740114754511523643e-07
1.092326371576746169e-07
2.337908148765563965e-01
-1.598777323961257935e-01
1.286776409870071802e-07
2.443211972713470459e-01
8.896389603614807129e-02
6.705715427379743687e-10
-4.915543527772570087e-08
4.054112359881401062e-02
8.413411478613852523e-08
2.476136535406112671e-01
1.238551021742750891e-07
2.925830813182983547e-07
