1.511160749942064285e-02
1.398833189159631729e-02
1.167307570576667786e-01
4.545302689075469971e-02
1.077463570982217789e-02
1.412830781191587448e-03
2.155422978103160858e-02
9.623280493542551994e-04
4.561380296945571899e-02
1.059380993247032166e-01
-9.806581586599349976e-02
-4.837276786565780640e-02
3.910212963819503784e-02
-4.298238456249237061e-02
7.735941559076309204e-02
-2.475859364494681358e-03
2.536228299140930176e-02
-6.351507455110549927e-02
-2.643466868903487921e-04
-3.133549762424081564e-04
-4.791489802300930023e-03
-1.099342629313468933e-01
6.560309976339340210e-02
4.440380726009607315e-03
3.354884684085845947e-02
2.006161026656627655e-03
6.396262347698211670e-02
1.221930142492055893e-02
3.302177488803863525e-01
-5.395862460136413574e-01
9.308993071317672729e-02
-1.373971551656723022e-01
1.934429444372653961e-02
8.486359566450119019e-02
1.520598530769348145e-01
1.844863221049308777e-02
9.855622798204421997e-02
6.988913286477327347e-03
9.796918369829654694e-03
3.591409325599670410e-02
2.138225138187408447e-01
-6.394372880458831787e-02
2.025096565485000610e-01
-1.920492649078369141e-01
-7.812015923036597087e-08
-1.943599060177803040e-02
-1.360451281070709229e-01
-8.655542135238647461e-02
-8.174022287130355835e-02
3.963648155331611633e-02
1.524952612817287445e-02
-8.459933847188949585e-02
1.198984012007713318e-01
6.499440968036651611e-02
1.035709399729967117e-02
2.602047100663185120e-02
9.962904453277587891e-02
6.695024669170379639e-02
4.488415271043777466e-02
4.694368224591016769e-03
-3.122762143611907959e-01
-6.129498407244682312e-02
2.058638446033000946e-02
4.875061102211475372e-03
