-3.855276154354214668e-03,-3.231410402804613113e-03,-5.916475653648376465e-01,1.045208051800727844e-01,7.246789336204528809e-01,7.830300368368625641e-03,-4.987674057483673096e-01,1.763178408145904541e-01,-1.387973607052117586e-04,-6.094133257865905762e-01,1.703680679202079773e-02,-2.956856333184987307e-04,5.795853585004806519e-02,3.927171602845191956e-02,3.546436429023742676e-01,5.938860774040222168e-02,9.883571416139602661e-02,-2.781128045171499252e-03
1.241345852613449097e-01,-2.983973622322082520e-01,5.890836194157600403e-02,-2.105458229780197144e-01,5.206602066755294800e-02,5.744472742080688477e-01,3.973460793495178223e-01,-2.113199532032012939e-01,-7.556583881378173828e-01,2.614218369126319885e-02,-3.435384929180145264e-01,-5.260695517063140869e-02,-2.210970073938369751e-01,-8.114709705114364624e-02,5.417502522468566895e-01,-2.984241545200347900e-01,-1.687315106391906738e-01,1.091341152787208557e-01
4.708037376403808594e-01,5.667217969894409180e-01,-1.063205674290657043e-01,-1.696118116378784180e-01,4.788701608777046204e-02,7.189982533454895020e-01,-2.249786853790283203e-01,-4.458546638488769531e-01,9.943363070487976074e-02,7.862675935029983521e-02,-2.920670509338378906e-01,1.453636586666107178e-01,-2.001973688602447510e-01,-2.052819728851318359e-02,-1.684708356857299805e+00,7.045923173427581787e-02,-6.659229844808578491e-02,-2.972331421915441751e-04
6.487348079681396484e-01,4.341527819633483887e-02,9.641250222921371460e-02,-1.296448614448308945e-02,-2.860937714576721191e-01,1.153215207159519196e-02,-6.814628839492797852e-01,-4.309958603698760271e-04,2.431971728801727295e-01,1.163595020771026611e-01,-1.005898863077163696e-01,7.502625584602355957e-01,1.929589360952377319e-02,-7.609213888645172119e-02,-3.289649784564971924e-01,-1.269246339797973633e-01,1.546282728668302298e-04,-1.131293550133705139e-01
1.381458714604377747e-02,1.535925716161727905e-01,-2.957417815923690796e-02,-7.891965098679065704e-03,-2.078625112771987915e-01,1.770916627719998360e-03,2.162392949685454369e-03,-1.118710264563560486e-02,1.841813139617443085e-02,-1.943558603525161743e-01,-6.330055743455886841e-02,2.587887346744537354e-01,-4.015986025333404541e-01,-3.801517188549041748e-01,-3.534285128116607666e-01,1.386402249336242676e-01,1.450025103986263275e-02,-4.012802839279174805e-01
5.989156663417816162e-02,-1.198806837201118469e-01,-1.288148462772369385e-01,-3.955002874135971069e-03,-4.752554232254624367e-04,-8.548176847398281097e-03,-3.456172943115234375e-01,-2.490058988332748413e-01,-1.457044109702110291e-02,-9.790533781051635742e-02,1.457525193691253662e-01,-4.387531280517578125e-01,-3.282817304134368896e-01,3.687528194859623909e-03,-1.417821049690246582e-01,-1.347942799329757690e-01,1.826422847807407379e-02,4.309223219752311707e-02
1.009930577129125595e-02,3.643453419208526611e-01,5.987999029457569122e-03,-1.842089146375656128e-01,-8.872367441654205322e-02,5.639847517013549805e-01,-3.606045246124267578e-02,-1.615682542324066162e-01,1.854491978883743286e-02,-2.480289041996002197e-01,1.079408917576074600e-03,-2.138417512178421021e-01,-4.239110946655273438e-01,-2.570943236351013184e-01,-3.319085016846656799e-02,3.222784772515296936e-02,6.289684772491455078e-02,-2.134573180228471756e-03
1.719697713851928711e-01,-8.896677941083908081e-02,2.507126331329345703e-01,-1.618524640798568726e-01,1.440252214670181274e-01,-4.212256371974945068e-01,-2.266862988471984863e-01,-9.422924369573593140e-02,-1.179959177970886230e+00,-5.071578025817871094e-01,-1.332220911979675293e+00,1.732130795717239380e-01,-1.796897151507437229e-03,-4.937786757946014404e-01,-3.173769712448120117e-01,7.772117853164672852e-02,-1.649537831544876099e-01,-1.676999963819980621e-02
-1.213823333382606506e-01,1.032464146614074707e+00,1.507550328969955444e-01,-3.534580767154693604e-01,5.830613081343472004e-04,2.395917922258377075e-01,3.972376289311796427e-04,2.222212404012680054e-02,1.264307275414466858e-02,-3.811356127262115479e-01,7.929498702287673950e-02,4.789205789566040039e-01,1.904321908950805664e-01,2.384336441755294800e-01,-4.402310848236083984e-01,4.889787733554840088e-02,4.271805584430694580e-01,-2.823714613914489746e-01
2.575524151325225830e-03,2.056656777858734131e-01,2.260641902685165405e-01,-2.761724591255187988e-01,-1.075564697384834290e-02,-3.589175466913729906e-04,2.433529645204544067e-01,-1.535303741693496704e-01,-5.334945917129516602e-01,3.242277801036834717e-01,2.958485484123229980e-01,-2.428022271487861872e-04,2.189068198204040527e-01,-1.805550009012222290e-01,9.065647609531879425e-03,-7.475264719687402248e-04,8.615186065435409546e-02,5.810026079416275024e-03
4.822537004947662354e-01,3.728804886341094971e-01,1.997834444046020508e-02,-9.660282731056213379e-02,1.249103397130966187e-01,-2.047620564699172974e-01,1.040530130267143250e-01,-2.435531616210937500e-01,-2.699068188667297363e-01,-4.180555343627929688e-01,1.240355297923088074e-01,-4.483685493469238281e-01,-5.805528536438941956e-02,8.086788654327392578e-02,3.723204135894775391e-02,8.314798772335052490e-02,-3.203029930591583252e-01,1.386210788041353226e-04
5.564641952514648438e-01,7.015818357467651367e-01,1.024860501289367676e+00,-1.756222248077392578e-01,-1.475030779838562012e-01,2.738259546458721161e-02,-1.200667023658752441e-01,1.706430688500404358e-02,-2.317494153976440430e-01,-2.484251111745834351e-01,-6.243684291839599609e-01,3.917402355000376701e-04,-8.438740968704223633e-01,-2.060624063014984131e-01,-3.737472696229815483e-03,2.001186907291412354e-01,1.733057724777609110e-04,5.262786149978637695e-02
4.892669152468442917e-03,1.209660544991493225e-01,-2.439107894897460938e-01,-3.256925567984580994e-02,7.513744756579399109e-03,4.279471933841705322e-01,-2.170940162613987923e-03,9.718067198991775513e-02,4.438256323337554932e-01,-4.898448586463928223e-01,1.640641391277313232e-01,5.322996973991394043e-01,-7.215866446495056152e-01,2.683566510677337646e-01,2.773878276348114014e-01,2.181686758995056152e-01,-2.439070492982864380e-02,-6.221473217010498047e-01
3.131684064865112305e-01,1.401298493146896362e-01,5.126653909683227539e-01,-8.351560682058334351e-02,-3.760228753089904785e-01,-1.762735992670059204e-01,-5.574972182512283325e-02,3.145711421966552734e-01,2.997590415179729462e-02,-4.783758819103240967e-01,9.852348268032073975e-02,-1.651502773165702820e-02,9.825371950864791870e-02,3.241465985774993896e-01,7.830638289451599121e-01,6.628049015998840332e-01,-4.430368542671203613e-01,1.891164183616638184e-01
-2.797388136386871338e-01,1.539573073387145996e-01,-1.492859125137329102e-01,-2.077863924205303192e-02,-1.577004790306091309e-01,4.642390906810760498e-01,5.180301070213317871e-01,3.396717011928558350e-01,-1.484775692224502563e-01,2.572886645793914795e-01,1.696087303571403027e-03,-2.308371067047119141e-01,-5.348407626152038574e-01,2.897161804139614105e-02,2.914170026779174805e-01,-1.186634064652025700e-03,-1.046845018863677979e-01,-3.219584226608276367e-01
-1.070207655429840088e-01,-1.674227118492126465e-01,-1.069734811782836914e+00,-3.353312611579895020e-01,-1.864253729581832886e-01,-1.654011160135269165e-01,3.486115336418151855e-01,-1.906786113977432251e-03,2.620787918567657471e-01,-1.422299724072217941e-02,5.401402711868286133e-02,8.461243472993373871e-03,-7.765232119709253311e-03,7.491106539964675903e-02,-1.315603684633970261e-02,1.281226426362991333e-01,1.972337961196899414e-01,-4.635739326477050781e-01
2.642238438129425049e-01,6.906222701072692871e-01,1.910809278488159180e-01,-6.857637315988540649e-02,-3.524260222911834717e-01,-1.987957861274480820e-03,-4.439767897129058838e-01,4.740654304623603821e-02,2.156663249479606748e-04,-2.452154606580734253e-01,-9.132093787193298340e-01,-4.034431576728820801e-01,2.261148691177368164e-01,6.565660238265991211e-02,2.676238715648651123e-01,-1.699617803096771240e-01,-8.813875913619995117e-02,7.396869063377380371e-01
1.181343317031860352e+00,7.630695402622222900e-02,1.455774307250976562e-01,-2.220887690782546997e-02,-3.212524652481079102e-01,2.886361479759216309e-01,2.741673290729522705e-01,6.609894037246704102e-01,-7.225058972835540771e-02,-3.187634423375129700e-02,-8.051653951406478882e-02,-2.078330516815185547e-01,2.933521568775177002e-01,4.031014442443847656e-01,2.467883378267288208e-01,-3.741815090179443359e-01,6.474994122982025146e-02,-7.663358747959136963e-02
-1.617532521486282349e-01,-1.785290837287902832e-01,-4.626365005970001221e-01,3.408309072256088257e-02,4.331555962562561035e-01,-1.212571933865547180e-01,1.286718156188726425e-02,5.422579646110534668e-01,8.169519901275634766e-02,-1.996998116374015808e-02,1.640429763938300312e-05,-2.250341698527336121e-02,-1.511721406131982803e-02,-8.815765380859375000e-02,2.290274016559123993e-02,2.052221149206161499e-01,1.559675931930541992e-01,8.082745969295501709e-02
1.466213315725326538e-01,-8.278250694274902344e-02,-3.035614192485809326e-01,-2.326206266880035400e-01,-2.495222724974155426e-02,-1.368696242570877075e-01,2.478184103965759277e-01,2.060705050826072693e-02,-3.451427817344665527e-01,1.183890476822853088e-01,-3.337997011840343475e-03,-4.758794605731964111e-01,-9.084360301494598389e-02,-1.413353979587554932e-01,1.287320703268051147e-01,-3.175604045391082764e-01,-2.952096462249755859e-01,-3.134930729866027832e-01
2.485127449035644531e-01,4.997658431529998779e-01,-2.482351213693618774e-01,-3.197919726371765137e-01,1.181666553020477295e-01,9.585598856210708618e-02,-2.189958840608596802e-02,-1.984229534864425659e-01,3.097441792488098145e-01,9.302004575729370117e-01,-2.164578437805175781e-01,1.315861493349075317e-01,5.277073979377746582e-01,4.934029877185821533e-01,-1.387365221977233887e+00,4.250292852520942688e-02,-1.831813715398311615e-03,-3.987178802490234375e-01
1.717690080404281616e-01,1.767344772815704346e-01,6.283736228942871094e-01,8.969322079792618752e-04,1.955537684261798859e-02,2.245244383811950684e-01,-1.197054088115692139e-01,4.868481680750846863e-02,-3.757703602313995361e-01,2.911149756982922554e-03,9.317820519208908081e-02,8.192232847213745117e-01,-9.251371026039123535e-03,1.021794900298118591e-01,-6.928308606147766113e-01,1.354615241289138794e-01,-4.765731282532215118e-03,-6.458215415477752686e-02
3.584137931466102600e-02,5.938728153705596924e-02,-5.058265328407287598e-01,-2.828898467123508453e-02,1.807948648929595947e-01,-3.610464334487915039e-01,-2.016107887029647827e-01,-1.044873595237731934e-01,-3.285616636276245117e-01,4.070090353488922119e-01,1.659449189901351929e-01,3.901734352111816406e-01,4.612036794424057007e-02,2.015087753534317017e-02,-7.130590677261352539e-01,-6.101901829242706299e-02,3.902043029665946960e-02,4.538846611976623535e-01
-2.519336640834808350e-01,-2.445363849401473999e-01,-5.234755277633666992e-01,-2.675924599170684814e-01,-1.043067872524261475e-01,-1.511609181761741638e-02,-2.917227447032928467e-01,9.374635294079780579e-03,9.300547093152999878e-02,-3.228066861629486084e-02,1.506063039414584637e-03,-1.493189930915832520e-01,-7.535192370414733887e-01,7.553316652774810791e-02,-2.509047091007232666e-01,2.610028684139251709e-01,2.580442093312740326e-02,1.009638886898756027e-02
-6.331691984087228775e-03,1.030895742587745190e-03,-2.277905195951461792e-01,-1.302585750818252563e-01,2.824097685515880585e-02,9.048458933830261230e-02,-2.754444777965545654e-01,-8.019001483917236328e-01,-2.400685548782348633e-01,1.658480614423751831e-01,9.738183021545410156e-02,5.441070795059204102e-01,-2.408289164304733276e-01,-1.836297959089279175e-01,-1.853760182857513428e-01,-4.197795316576957703e-02,1.150631606578826904e-01,-2.265993040055036545e-03
3.290573507547378540e-02,-5.933342501521110535e-02,-2.147742658853530884e-01,7.316384580917656422e-04,3.340631127357482910e-01,-7.883250713348388672e-01,1.418739706277847290e-01,-1.541828662157058716e-01,-4.904322326183319092e-01,8.772015571594238281e-02,-4.910607263445854187e-02,-4.981842637062072754e-02,1.867230236530303955e-01,2.909904122352600098e-01,-3.079321980476379395e-01,-5.278449058532714844e-01,-2.317095398902893066e-01,-1.828268021345138550e-01
-1.344629675149917603e-01,1.589418351650238037e-01,1.815423667430877686e-01,-1.180809885263442993e-01,1.128485202789306641e-01,-1.235679228557273746e-04,-1.419829577207565308e-01,-5.140889286994934082e-01,1.372161209583282471e-01,-2.042727321386337280e-01,2.345726825296878815e-02,3.993315100669860840e-01,-2.091058716177940369e-02,-1.492094015702605247e-03,-7.144441455602645874e-02,-3.067491052206605673e-04,3.732568025588989258e-01,-4.226203858852386475e-01
6.519867479801177979e-02,-3.162545263767242432e-01,2.737358736339956522e-04,-2.385674417018890381e-02,1.842013001441955566e-02,-5.522972717881202698e-02,5.769160389900207520e-01,-3.689953684806823730e-02,-3.313458561897277832e-01,6.559723615646362305e-02,7.481006979942321777e-01,-3.759650886058807373e-01,2.572373747825622559e-01,3.868453800678253174e-01,5.579329729080200195e-01,-2.611123919486999512e-01,1.069579832255840302e-02,-2.919009029865264893e-01
-1.671170815825462341e-03,2.045826315879821777e-01,1.954606026411056519e-01,-1.111038848757743835e-01,3.917022943496704102e-01,-5.242088064551353455e-02,-5.026690661907196045e-02,-3.819802999496459961e-01,-6.934887766838073730e-01,-1.829834580421447754e-01,3.279925882816314697e-01,1.361974398605525494e-03,-8.384075760841369629e-02,3.126689791679382324e-01,-2.490144371986389160e-01,5.745107531547546387e-01,7.765006157569587231e-04,-2.931593656539916992e-01
-3.368024900555610657e-02,-3.552123606204986572e-01,1.234711334109306335e-01,-5.100852847099304199e-01,7.870329543948173523e-03,-5.391049012541770935e-02,1.524212062358856201e-01,1.666590422391891479e-01,-5.339595675468444824e-02,3.176631331443786621e-01,-2.511707544326782227e-01,6.381846219301223755e-02,1.250231713056564331e-01,3.282662034034729004e-01,-2.099633216857910156e-02,-1.926031894981861115e-02,3.797314763069152832e-01,-1.437705010175704956e-01
-1.270018219947814941e-01,7.242015749216079712e-02,-3.924794197082519531e-01,-1.175284013152122498e-01,3.637145459651947021e-01,-3.055459856986999512e-01,-5.266100764274597168e-01,-2.310742251574993134e-02,1.810675412416458130e-01,3.917071521282196045e-01,-4.893440380692481995e-02,9.419761896133422852e-01,-1.647070199251174927e-01,-5.260403826832771301e-02,-6.280415058135986328e-01,-1.635715365409851074e-01,4.316599294543266296e-02,8.533586859703063965e-01
-6.452338397502899170e-02,2.511030733585357666e-01,4.970014691352844238e-01,1.672514155507087708e-02,-1.764618209563195705e-03,-9.842331055551767349e-04,-7.480684518814086914e-01,3.110203146934509277e-01,5.523436665534973145e-01,5.434045791625976562e-01,6.805312037467956543e-01,-1.103603094816207886e-01,2.500136792659759521e-01,7.278665900230407715e-01,-6.163589283823966980e-02,1.258709877729415894e-01,-1.207114830613136292e-01,-2.074223607778549194e-01
-6.106273531913757324e-01,7.121248245239257812e-01,3.301867097616195679e-02,-3.069756627082824707e-01,-3.429124355316162109e-01,4.262055158615112305e-01,1.983390748500823975e-01,2.898768782615661621e-01,-1.195633560419082642e-01,4.412152171134948730e-01,6.772330403327941895e-02,1.154894083738327026e-01,7.990489155054092407e-02,2.784416973590850830e-01,1.745970994234085083e-01,-2.889745868742465973e-03,-1.568590402603149414e-01,-3.358394205570220947e-01
3.583016246557235718e-02,-4.285990893840789795e-01,-2.026248723268508911e-01,-6.662195920944213867e-01,-7.012005448341369629e-01,-9.350027143955230713e-02,-4.963080286979675293e-01,-1.090425774455070496e-01,1.749720424413681030e-01,-1.287339255213737488e-02,-2.461321651935577393e-03,-3.063679672777652740e-02,3.731234231963753700e-03,5.914886668324470520e-02,-9.816449135541915894e-03,4.918547272682189941e-01,2.648003101348876953e-01,5.574308633804321289e-01
-9.221454820362851024e-05,1.464551091194152832e-01,6.806582212448120117e-03,-6.414150702767074108e-04,-6.336151063442230225e-02,-3.726968169212341309e-01,-1.884635090827941895e-01,8.506159186363220215e-01,1.346126291900873184e-02,-5.671891570091247559e-02,6.450904160737991333e-02,-4.098491370677947998e-01,6.902562379837036133e-01,8.528467416763305664e-01,1.433012485504150391e-01,-2.363926619291305542e-01,2.322640735656023026e-03,9.168584644794464111e-02
3.863557279109954834e-01,-6.916795670986175537e-02,-1.319733560085296631e-01,-5.010361075401306152e-01,-2.183419764041900635e-01,-1.822342127561569214e-01,-1.157350763678550720e-01,2.177258878946304321e-01,1.540672034025192261e-01,1.254652142524719238e-01,1.604953110218048096e-01,1.642234176397323608e-01,5.359181165695190430e-01,5.794852375984191895e-01,-4.139962792396545410e-01,-2.483657598495483398e-01,4.387965798377990723e-01,-2.594447508454322815e-02
3.304870128631591797e-01,-9.363608062267303467e-02,1.522624213248491287e-02,1.560672819614410400e-01,-4.229829311370849609e-01,-2.233120203018188477e-01,8.844477683305740356e-02,-3.419807851314544678e-01,2.222879827022552490e-01,-6.464651972055435181e-02,-1.750681549310684204e-01,-4.475443661212921143e-01,4.759969115257263184e-01,1.635846644639968872e-01,-1.430436670780181885e-01,-4.508578777313232422e-01,-1.227358654141426086e-01,7.270638644695281982e-02
-1.207266654819250107e-02,4.959582686424255371e-01,8.649980425834655762e-01,1.664969772100448608e-01,2.178335636854171753e-01,3.191052973270416260e-01,-3.906319290399551392e-02,5.856413021683692932e-02,-9.644113481044769287e-02,1.612299382686614990e-01,-9.265763312578201294e-02,2.163700759410858154e-01,-2.953690588474273682e-01,-6.051040887832641602e-01,3.826881349086761475e-01,1.571492105722427368e-01,-3.923571109771728516e-01,-5.591502785682678223e-02
-2.530316114425659180e-01,2.062066495418548584e-01,1.785821169614791870e-01,-7.760502398014068604e-02,-1.339732259511947632e-01,7.252410054206848145e-02,-4.091374203562736511e-02,-6.958794593811035156e-02,1.127821207046508789e-02,1.802414208650588989e-01,-2.012176513671875000e-01,3.085812032222747803e-01,-1.017656549811363220e-01,3.553889691829681396e-02,-2.088373601436614990e-01,2.564399540424346924e-01,-1.117330193519592285e-01,-3.109454363584518433e-02
-3.743049204349517822e-01,1.429279148578643799e-01,2.419385910034179688e-01,1.532741785049438477e-01,2.205498069524765015e-01,3.466890379786491394e-02,-1.704075187444686890e-02,1.987603753805160522e-01,-2.069241851568222046e-01,2.067873068153858185e-02,1.691264510154724121e-01,-1.709572412073612213e-02,-1.435506492853164673e-01,2.958330325782299042e-02,8.018694818019866943e-03,-3.687787055969238281e-01,-1.115749701857566833e-01,1.225614249706268311e-01
1.800734847784042358e-01,8.867603726685047150e-03,1.941229104995727539e-01,4.472288191318511963e-01,1.519105881452560425e-01,-8.115649223327636719e-02,1.692815423011779785e-01,-3.632155805826187134e-02,-2.086304575204849243e-01,-1.363195944577455521e-02,-2.198348194360733032e-01,-7.540376484394073486e-02,4.817355573177337646e-01,-2.816636301577091217e-02,8.510448038578033447e-03,-1.545230150222778320e-01,9.870868176221847534e-02,-1.346042901277542114e-01
3.503443002700805664e-01,7.812239229679107666e-02,-2.248095534741878510e-02,-1.058808043599128723e-01,-2.264576256275177002e-01,-4.263707622885704041e-02,3.030702769756317139e-01,1.488377004861831665e-01,-4.021035730838775635e-01,1.051626428961753845e-01,2.181433513760566711e-02,2.102966792881488800e-02,-5.231001377105712891e-01,1.596224009990692139e-01,-1.627619266510009766e-01,2.079875916242599487e-01,4.771981239318847656e-01,-3.136906772851943970e-03
-4.034662544727325439e-01,-5.069919675588607788e-02,3.696405589580535889e-01,2.274874150753021240e-01,-2.887637615203857422e-01,4.366511479020118713e-02,3.007600605487823486e-01,5.511838793754577637e-01,-3.513018488883972168e-01,1.479671448469161987e-01,-6.069945693016052246e-01,-4.502846300601959229e-02,2.130116373300552368e-01,7.388933748006820679e-02,-2.885890193283557892e-02,-1.034697368741035461e-01,-5.581698417663574219e-01,-5.490541830658912659e-02
4.080687165260314941e-01,1.759367436170578003e-01,3.236331939697265625e-01,-1.908433041535317898e-03,6.916091442108154297e-01,-1.473049074411392212e-01,-1.207424886524677277e-02,6.018221378326416016e-01,9.176497161388397217e-02,-2.362536638975143433e-01,-1.689202189445495605e-01,-2.383004426956176758e-01,-3.212470710277557373e-01,4.507538378238677979e-01,-5.306309834122657776e-02,1.322520822286605835e-01,4.229417741298675537e-01,-2.167619764804840088e-02
4.965922981500625610e-02,4.229309856891632080e-01,-3.361693918704986572e-01,1.622403264045715332e-01,5.158712156116962433e-03,-1.683326214551925659e-01,-2.470873892307281494e-01,6.502986699342727661e-02,2.022666186094284058e-01,1.641451865434646606e-01,1.600710004568099976e-01,-2.439154088497161865e-01,7.743551582098007202e-02,7.952935993671417236e-02,-2.622267603874206543e-01,-4.235435724258422852e-01,1.267127990722656250e-01,-3.389906287193298340e-01
6.321360915899276733e-02,-2.761441171169281006e-01,-1.898609474301338196e-02,2.566002868115901947e-02,-1.533615589141845703e-01,-2.107140570878982544e-01,9.123526513576507568e-02,1.717418879270553589e-01,4.365520924329757690e-02,5.269576907157897949e-01,-3.891079723834991455e-01,1.812514364719390869e-01,-2.814773917198181152e-01,-3.831211924552917480e-01,-3.041229248046875000e-01,-4.037686884403228760e-01,-3.903719037771224976e-02,1.578670293092727661e-01
7.862751185894012451e-02,4.120585620403289795e-01,1.639048606157302856e-01,-4.127685725688934326e-02,-1.085110194981098175e-02,-4.984249919652938843e-02,2.067248821258544922e-01,7.620290666818618774e-02,-5.056445598602294922e-01,1.567032784223556519e-01,3.939608335494995117e-01,-1.305759400129318237e-01,1.755229756236076355e-02,-1.016236320137977600e-01,1.738502085208892822e-01,-4.472404718399047852e-01,-1.118093430995941162e-01,-4.665440917015075684e-01
6.418839842081069946e-02,1.026910319924354553e-01,7.859311103820800781e-01,4.116579890251159668e-02,2.543291151523590088e-01,-7.668317109346389771e-02,-1.017595734447240829e-02,-1.388743221759796143e-01,-1.687920838594436646e-01,-4.156098365783691406e-01,-1.132382899522781372e-01,2.739546597003936768e-01,-1.275875270366668701e-01,-2.618220448493957520e-02,-1.478792577981948853e-01,3.094439804553985596e-01,1.054210215806961060e-01,-2.377541661262512207e-01
1.615942865610122681e-01,1.680260449647903442e-01,6.876159906387329102e-01,-7.689250260591506958e-02,3.034561574459075928e-01,1.985869109630584717e-01,-1.491044014692306519e-01,-1.077644899487495422e-01,-5.098807066679000854e-02,7.213612552732229233e-03,1.639295518398284912e-01,3.185191750526428223e-01,5.814021229743957520e-01,3.077069520950317383e-01,-3.805403709411621094e-01,-6.038167327642440796e-02,2.514556981623172760e-02,7.875341922044754028e-02
-1.356631219387054443e-01,4.844766259193420410e-01,-3.715014159679412842e-01,-4.469512403011322021e-01,2.163561880588531494e-01,5.742710232734680176e-01,2.092970162630081177e-01,1.535777002573013306e-01,3.299932479858398438e-01,-2.599904835224151611e-01,-2.696841396391391754e-02,-1.366498321294784546e-01,1.473046839237213135e-01,7.696929574012756348e-01,-1.685799658298492432e-01,-3.880305588245391846e-01,-4.485978484153747559e-01,2.159328386187553406e-02
4.159560799598693848e-02,-2.123538702726364136e-01,3.024008311331272125e-02,-1.478853728622198105e-02,1.624112948775291443e-02,1.970208436250686646e-01,-3.973308801651000977e-01,2.624080181121826172e-01,1.045234948396682739e-01,1.993830054998397827e-01,-3.156943991780281067e-02,1.358966231346130371e-01,1.635309904813766479e-01,1.941872686147689819e-01,2.940782904624938965e-01,-2.825595140457153320e-01,-1.751254498958587646e-01,-3.123521991074085236e-02
2.304035797715187073e-02,9.485288709402084351e-02,-4.807701408863067627e-01,-1.996024996042251587e-01,-1.818578988313674927e-01,1.522977650165557861e-02,1.049638912081718445e-01,9.675718098878860474e-02,3.932467699050903320e-01,-2.424447983503341675e-01,1.156263798475265503e-01,2.401006035506725311e-02,1.247156132012605667e-02,-2.382101304829120636e-02,4.102788567543029785e-01,1.914856284856796265e-01,4.787216335535049438e-02,1.964663863182067871e-01
-1.097072884440422058e-01,-4.996942821890115738e-03,-3.715867921710014343e-02,-1.809321641921997070e-01,1.717136614024639130e-02,1.181137785315513611e-01,-7.661429047584533691e-02,1.029353812336921692e-01,-2.907178997993469238e-01,1.341827958822250366e-01,-8.785696327686309814e-02,4.734696447849273682e-01,3.311943262815475464e-02,-4.460297524929046631e-02,4.385063052177429199e-02,4.146906733512878418e-01,9.379687905311584473e-01,2.074645608663558960e-01
5.344389677047729492e-01,-1.028267443180084229e-01,-3.281324207782745361e-01,2.098459750413894653e-01,-7.676745057106018066e-01,-1.381051912903785706e-02,7.240460254251956940e-03,-2.530981898307800293e-01,2.992123924195766449e-02,2.087910920381546021e-01,-1.554884165525436401e-01,-9.917992353439331055e-02,-1.684582829475402832e-01,-4.060386866331100464e-02,-1.451841741800308228e-01,-5.665505677461624146e-02,4.293878674507141113e-01,7.612912058830261230e-01
-1.500351786613464355e+00,2.711741328239440918e-01,-3.147964022787164140e-08,-5.419179797172546387e-01,5.792690906673669815e-03,2.904833257198333740e-01,4.682718589901924133e-02,8.722823858261108398e-01,7.450388073921203613e-01,5.480473041534423828e-01,-3.334150016307830811e-01,1.860600113868713379e-01,-5.141273140907287598e-01,5.981481634080410004e-03,2.970549464225769043e-01,1.058637380599975586e+00,-3.044434379262384027e-06,-1.324566364288330078e+00
-1.341380476951599121e-01,2.983399629592895508e-01,9.323532879352569580e-02,6.082032996346242726e-05,3.473601341247558594e-01,3.101783692836761475e-01,3.107061982154846191e-01,-3.903738036751747131e-02,-1.787700504064559937e-01,-1.498679518699645996e-01,1.519489288330078125e-01,4.973598718643188477e-01,8.477482944726943970e-02,3.440780856180936098e-04,2.194228023290634155e-01,1.753655970096588135e-01,-6.429065251722931862e-05,-7.359329462051391602e-01
4.145997762680053711e-01,-2.201390564441680908e-01,-3.734656572341918945e-01,-4.005586262792348862e-03,-1.212512180209159851e-01,5.298481136560440063e-02,1.401486843824386597e-01,-7.311038970947265625e-01,2.616005241870880127e-01,-4.545161426067352295e-01,1.257525011897087097e-02,-7.825702428817749023e-02,-1.185994520783424377e-01,4.586135223507881165e-02,6.368383020162582397e-02,6.202534772455692291e-03,2.722462704696226865e-05,-6.238803267478942871e-01
1.402760297060012817e-01,-3.425523340702056885e-01,1.832124777138233185e-03,-1.834420114755630493e-01,-2.889859378337860107e-01,1.332218199968338013e-01,-4.123643636703491211e-01,-1.075892522931098938e-01,2.259367704391479492e-02,-2.343929260969161987e-01,2.582645118236541748e-01,5.360937714576721191e-01,2.621788680553436279e-01,2.315732687711715698e-01,-3.908404409885406494e-01,9.190962463617324829e-02,7.587683200836181641e-02,-1.525558531284332275e-01
-4.459301233291625977e-01,1.345548927783966064e-01,5.871529579162597656e-01,3.352680802345275879e-01,3.244676291942596436e-01,7.727361749857664108e-03,1.654480695724487305e-01,1.177714467048645020e-01,4.369809292256832123e-03,4.205592721700668335e-02,2.399065345525741577e-01,1.515279769897460938e+00,2.538346052169799805e-01,6.565525382757186890e-02,-2.820650041103363037e-01,1.224029529839754105e-02,5.783159622296807356e-07,-1.273985981941223145e+00
-1.176603254862129688e-03,-1.704034954309463501e-01,-1.943551003932952881e-02,-2.151884604245424271e-03,-2.597887516021728516e-01,-1.179991848766803741e-02,1.287973374128341675e-01,1.708955317735671997e-01,-1.205688193440437317e-01,-2.276526391506195068e-01,3.885986506938934326e-01,-2.083929330110549927e-01,-5.910556316375732422e-01,-6.590697739738970995e-05,-5.468105524778366089e-02,1.726701557636260986e-01,-6.808923929929733276e-02,2.093884907662868500e-02
1.634658426046371460e-01,6.848667981103062630e-04,2.753360942006111145e-02,-6.149442866444587708e-02,8.426986634731292725e-03,1.154243014752864838e-02,9.838438127189874649e-04,-7.467321753501892090e-01,3.548378008417785168e-04,1.229920089244842529e-01,-2.575006484985351562e-01,2.806150223477743566e-05,-5.072434246540069580e-02,-2.839439511299133301e-01,1.436234563589096069e-01,2.312231063842773438e-02,-1.250032186508178711e-01,-4.018066101707518101e-04
5.163031071424484253e-02,-1.428863853216171265e-01,-3.666992783546447754e-01,4.059654101729393005e-02,2.992896437644958496e-01,-1.137594878673553467e-01,1.541833430528640747e-01,2.115816920995712280e-01,-2.670159330591559410e-03,6.222468018531799316e-01,8.028724789619445801e-02,-3.209489583969116211e-02,9.506046772003173828e-02,2.621270716190338135e-01,-6.458408832550048828e-01,-4.237801931594731286e-06,2.396885491907596588e-02,-1.469147354364395142e-01
-3.898904025554656982e-01,1.852691918611526489e-01,-4.081643510289723054e-06,-2.256168723106384277e-01,7.899721822468563914e-05,-3.392437065485864878e-04,3.113801777362823486e-01,9.343896806240081787e-02,5.853870138525962830e-02,5.440106178866699338e-06,-1.078513560059946030e-05,-1.091993726731743664e-05,2.061943113803863525e-01,2.015401571989059448e-01,-1.035310626029968262e-01,2.575365640223026276e-02,-3.732319328264566138e-06,-3.063672184944152832e-01
-4.330261349678039551e-01,4.444511532783508301e-01,8.111225366592407227e-01,-2.974521368741989136e-02,8.807942504063248634e-04,-1.161630600690841675e-01,1.696866601705551147e-01,1.760150045156478882e-01,-1.882072091102600098e-01,7.635352611541748047e-01,1.214356943964958191e-01,9.247203916311264038e-02,2.268867641687393188e-01,-9.642460197210311890e-02,-1.185821145772933960e-01,-2.448325417935848236e-02,6.185327220009639859e-05,-1.433575619012117386e-02
-2.746520750224590302e-02,2.610417306423187256e-01,5.171926692128181458e-02,-6.791755004087463021e-05,2.028089463710784912e-01,-4.639505967497825623e-02,-1.465608775615692139e-01,3.195166587829589844e-02,1.433692159480415285e-05,-4.924673140048980713e-01,2.746745944023132324e-01,5.647832294926047325e-04,1.400169730186462402e-01,-1.128633469343185425e-01,-5.494137803907506168e-05,2.212703675031661987e-01,-4.481370374560356140e-02,-2.068773955106735229e-01
-1.135239452123641968e-01,3.800325840711593628e-02,1.073795184493064880e-01,1.925550550222396851e-01,6.317932605743408203e-01,-8.298806846141815186e-02,-3.337685763835906982e-01,1.523479223251342773e-01,3.115937411785125732e-01,5.297011509537696838e-02,1.602450162172317505e-01,2.323003858327865601e-01,-3.153839409351348877e-01,1.348299626260995865e-02,-4.784795269370079041e-02,-6.961723417043685913e-02,-1.478972584009170532e-01,-4.395053982734680176e-01
-6.465914249420166016e-01,-5.604850873351097107e-02,-4.161366522312164307e-01,-6.645171642303466797e-01,-7.910176515579223633e-01,-2.690123859792947769e-03,-2.303712256252765656e-02,1.402377635240554810e-01,-9.858374251052737236e-04,-3.675761632621288300e-03,-8.119314163923263550e-02,-1.552419364452362061e-01,-2.980834543704986572e-01,5.895982980728149414e-01,7.579100131988525391e-02,5.876468420028686523e-01,8.638704195618629456e-03,-1.828525066375732422e-01
-2.596079707145690918e-01,7.138931155204772949e-01,2.837783396244049072e-01,-9.899553842842578888e-04,6.393787860870361328e-01,2.269654572010040283e-01,-4.220358133316040039e-01,-1.566569209098815918e-01,8.112603425979614258e-02,1.202774979174137115e-02,6.709492206573486328e-01,5.838565230369567871e-01,6.111872792243957520e-01,9.666491150856018066e-01,5.049584060907363892e-02,-3.161241114139556885e-01,-1.791348755359649658e-01,-2.871825695037841797e-01
-3.714545071125030518e-01,-1.069498248398303986e-04,8.260714821517467499e-06,-1.844148933887481689e-01,-7.594711184501647949e-01,1.964220553636550903e-01,9.274606108665466309e-01,5.288932323455810547e-01,-2.859900891780853271e-01,5.297223925590515137e-01,4.016847015009261668e-05,-2.279638692925800569e-06,-4.158169403672218323e-02,3.055394291877746582e-01,1.708641052246093750e-01,5.128471180796623230e-02,-1.414844300597906113e-04,-2.804053947329521179e-02
-4.512599110603332520e-01,-6.969912648200988770e-01,-9.118752479553222656e-01,-3.642543554306030273e-01,-6.088486909866333008e-01,-2.858222424983978271e-01,-1.091821789741516113e-01,1.558630075305700302e-02,3.159744739532470703e-01,-9.714770130813121796e-04,-4.234726354479789734e-02,-2.592355906963348389e-01,-4.942327439785003662e-01,8.800698816776275635e-02,2.006409317255020142e-02,4.058654308319091797e-01,1.367487460374832153e-01,3.138204046990722418e-04
5.543172359466552734e-02,2.539464831352233887e-01,1.868497878313064575e-01,-8.880229666829109192e-03,-5.117493215948343277e-03,3.733669291250407696e-05,-1.935809850692749023e-01,-5.674244021065533161e-04,-1.109960285248234868e-04,-1.848819553852081299e-01,-1.123891100287437439e-01,1.828642189502716064e-02,3.259932696819305420e-01,2.865350544452667236e-01,2.932649552822113037e-01,5.051304469816386700e-06,-3.965385258197784424e-01,2.619074285030364990e-01
4.967983961105346680e-01,-3.963847830891609192e-02,1.312554180622100830e-01,1.755486708134412766e-03,1.354740560054779053e-01,-1.460129469633102417e-01,5.243091285228729248e-02,2.983638346195220947e-01,-9.226872026920318604e-02,3.212140202522277832e-01,-2.131348103284835815e-01,3.315012156963348389e-01,1.611660569906234741e-01,7.150252908468246460e-02,-1.918640583753585815e-01,-1.818877756595611572e-01,7.275052070617675781e-01,4.240579605102539062e-01
