5.795378754669400223e-08,-1.033492438295979809e-07,8.308700927273093839e-08,1.386551495841104042e-08,-6.151264386744514923e-08,-6.410446218296783627e-08,3.104041823576153547e-08,-2.864312342865105165e-08,-1.554698343397831195e-07,-4.109145379516121466e-08,5.798312585625353677e-08,5.776240286081701925e-08,-1.403536309396713477e-08,1.587823561521872762e-07,-2.546261157476692460e-08,-6.744712521822293638e-08,5.783106971080087533e-08,-5.776587030936752853e-08,1.566415193110515247e-07,-2.450584091207019810e-08,2.244376351434596017e-10,1.778199276714076404e-07,-2.871916393587525818e-08,1.222611256679329017e-08,-1.882913664985608193e-07,-3.622531963287656254e-08,-8.857589506305885152e-08,-1.881993370034251711e-07,3.419756211542335222e-08,-8.258330552735060337e-08,-1.633094939279544633e-07,2.868160642321981868e-08
2.864006809488728322e-08,1.594992937725692173e-07,1.397914495271379565e-08,-1.635409034861368127e-07,1.368384339173189801e-08,1.629868506825005170e-07,-1.386727710439572547e-08,2.870796578235967900e-08,-1.567380394362771767e-07,-4.102472672684598365e-08,-3.633304501704515133e-08,2.247621608830741025e-07,-1.744791262581202318e-07,-5.226818089454354777e-08,6.184966139244352235e-08,-6.112974659799874644e-08,1.022001541173267469e-07,4.141408282976044575e-08,-3.454393748825168586e-08,5.794481339194135217e-08,-1.871747770110232523e-07,2.870006454713802668e-08,-1.729642984393819916e-09,1.306145502866229435e-08,-2.857516889775979507e-08,-4.948742571286857128e-08,-6.101628713395257364e-08,1.629899770705378614e-07,2.869051485276941094e-08,-2.920818786833478953e-08,-2.246566026542495820e-07,-3.620127486669844075e-08
1.629815784554011771e-07,3.632209200077340938e-08,7.707387794653186575e-08,-5.769114963527499640e-08,-6.528085094714697334e-08,-1.367822761721981806e-07,8.966779319052875508e-08,3.319322772199484461e-08,-1.399565263682234217e-08,1.395077031673963575e-08,7.492213427440219675e-08,1.914000336000754032e-07,-8.017662977977124683e-09,1.033427832197730822e-08,1.551202188920797198e-07,-3.727354425109297154e-08,-4.099632278098397364e-08,-5.793499369133314758e-08,4.418921548676735256e-07,1.942068763582938118e-07,5.789713242165817064e-08,-2.374491003820367041e-07,-9.818085544566201861e-08,-1.879503486179601168e-07,-1.784329350940083714e-10,-1.008891317155757861e-07,-1.643716984744969523e-07,-1.350209970496507594e-07,1.415959189898785553e-07,1.955647803697502241e-07,2.628204676113909954e-08,-8.122244565811342909e-08
4.088569482973980485e-08,-6.149894460349969449e-08,-5.813631887008341437e-08,-1.587962259463893133e-07,2.984264568794969819e-08,5.572135108877773746e-08,3.406511694947766955e-08,2.863463954838607606e-08,-4.090058780548133655e-08,2.857062142425093043e-08,-1.395589599439972517e-08,-1.628066570447117556e-07,2.860876335830653261e-08,1.394259463438629609e-08,2.014357036728142702e-08,2.536502563543763245e-08,1.882922191498437314e-07,6.243699601782282116e-08,-6.485695536184721277e-08,-7.935214263454781758e-09,-3.624095157306328474e-08,-4.098691874787618872e-08,-4.273104181606868224e-08,-8.311992161225134623e-08,-2.375210925720239175e-07,-2.872371140938412282e-08,-1.374210789606422622e-08,-1.873642361260863254e-07,-5.806890257531449606e-08,2.867502679748668015e-08,1.535532732077626861e-07,1.088356853529148793e-07
-1.630095880500448402e-07,1.841443548755705706e-07,1.079842704143629817e-07,-6.130826335493111401e-08,-8.155670627729705302e-08,1.402662253013886584e-08,1.113425440735227312e-07,-1.663466093759780051e-07,2.534562004719020933e-10,-5.298083394222885545e-08,8.057533307237463305e-08,-1.404420544304230134e-07,7.930889722729261848e-08,1.200222925490379566e-07,9.366232234242488630e-08,-8.417172381314230734e-08,1.382153236306749022e-08,-1.874485207054021885e-07,-2.300812127487006364e-07,9.633485120730256313e-09,-2.921565034341710998e-08,-1.604092005891288863e-07,1.414177717151687830e-07,3.070176646247091412e-08,4.042518497726632631e-08,1.024961377993349743e-07,-2.604289583985064382e-08,2.350469827661072486e-07,-8.190965417043116759e-08,4.846710588424230082e-09,6.933262142183593824e-08,3.746174925822742807e-08
-2.889186845322910813e-08,3.014447003124587354e-08,1.393537240801379085e-04,5.107299116957619844e-08,-2.019704368194652488e-07,-1.375046093016862869e-03,1.488714711740612984e-03,-2.720473730732919648e-07,4.099506512034167827e-08,-1.652624916914646747e-07,-1.333840657025575638e-03,1.189858025441026257e-07,1.062000053934752941e-03,-9.240746730938553810e-04,-1.139472033173660748e-06,-1.472386065870523453e-03,1.488586036657579825e-07,-5.268676162017982278e-08,-6.328535382635891438e-04,1.465175766497850418e-03,-1.595092840034340043e-07,-5.196047681010895758e-08,-8.920845575630664825e-04,4.118374263839541527e-08,2.603642279552786931e-08,-1.204143629252030223e-08,-2.281159794392806361e-07,5.891372722999221878e-08,-1.336662215180695057e-03,-1.041984767653048038e-03,1.976941857719793916e-04,1.463121152482926846e-03
5.579068940164688684e-08,9.917737742171084392e-08,2.899443245496513555e-07,6.197167579102824675e-08,-2.540653021299021930e-08,-4.723390816252504010e-07,4.449022981134476140e-06,2.022052285610698164e-07,-1.527486261920785182e-07,-2.764621065409755829e-08,-5.472147604450583458e-04,1.287119602011443931e-07,3.835028792309458368e-07,-2.561722567406832241e-07,2.981311990879476070e-04,-5.541182472370564938e-04,2.842315716122811864e-08,-4.061525160636847431e-08,1.466932957328026532e-07,5.795299075543880463e-04,6.126202833911520429e-08,-2.139907984144429065e-08,-4.509520579176751198e-07,-4.923823571090224505e-10,4.076964188470810768e-08,-3.637963263969368199e-09,1.386942560799298008e-08,-4.262017228029435501e-07,-5.315857706591486931e-04,1.459197296327374715e-08,-1.027162738864717539e-06,5.828372086398303509e-04
3.619937061216660368e-08,1.612455946542468155e-07,-8.525694283889606595e-08,-5.177418316293369571e-08,-1.850454651730615296e-07,4.074272297316383629e-08,6.093456761391280452e-08,-1.086387424464874130e-08,-5.798767332976240141e-08,-1.387303072419854288e-08,-3.019978578322479734e-07,1.228068526870629285e-07,7.592857009797171486e-09,1.403220721840625629e-07,6.748464898009842727e-08,-3.056403485857117630e-08,-6.414608577642866294e-08,1.503351332310387534e-10,-2.104317644580078195e-07,1.095744934787035163e-07,1.630428556609331281e-07,3.623081212822398811e-08,-1.219363667814832297e-07,6.141596742281762999e-08,6.420354026204222464e-08,3.533415693368624488e-08,1.683323347378973267e-08,-7.274821456348945503e-08,2.043977360699500423e-07,-1.299776783980632899e-07,-1.232175179666228360e-07,-7.384372668894911840e-09
1.479471620768890716e-07,5.806648673001291172e-08,1.940662214261479335e-10,2.870887527706145192e-08,4.873647796443947300e-08,1.636446711472672177e-07,1.872051957896303520e-10,1.721230158402420329e-09,1.567048428796624648e-07,-1.566028089428073145e-07,4.098299655197479296e-08,1.085722942661959678e-07,-5.145328785260971927e-08,1.085186340787913650e-07,3.617859434257297835e-08,-1.103134437130393053e-07,2.254613633567714714e-07,2.374980425656758598e-07,3.619047461711488722e-08,1.637275204302568454e-07,-1.608591730928310426e-07,2.046403935196394741e-08,5.806921521411823051e-08,-6.734964586030400824e-08,-1.492337919906105981e-10,1.923275705362215149e-10,3.169751039422408212e-08,2.745735305786922709e-10,1.372511171382484463e-08,-4.146882304212340387e-08,6.458547119336799369e-08,-2.868126358634981443e-08
-1.567266707525050151e-07,2.926253017676572199e-08,2.922143238492935780e-08,4.145171317304630065e-08,-1.627913661650381982e-07,-1.623763807856448693e-07,1.882300892930288683e-07,-1.777026739091525087e-07,-1.809140282027499325e-09,-6.416249931362472125e-08,-1.303678498487670367e-08,7.060023676785931457e-08,1.566859708646006766e-07,2.847694346996831882e-08,3.617893540308614320e-08,-1.577603048197318003e-10,8.854616595499464893e-08,-5.805318536999948265e-08,-9.931227396009489894e-08,2.845426294584285642e-08,4.107144491172221024e-08,-1.629278472137229983e-07,-2.863760961702155328e-08,5.795674340447476425e-08,1.567271823432747624e-07,-1.882395821439786232e-07,1.015475774579499557e-07,6.179099898417916847e-08,-4.053940472203976242e-08,-1.878480304640106624e-07,-1.942367516827303575e-10,-5.812409753502834064e-08
-4.116389362707195687e-08,1.629426691351909540e-07,6.836176424940276775e-08,-1.085084875285247108e-07,8.971633036480852752e-08,1.485384188981697662e-07,-1.804380950209960588e-10,8.580801846846952685e-09,5.182631568345641426e-08,4.079567617054635775e-08,-8.458467704031136236e-08,7.877130059341652668e-08,4.685523435909999534e-08,2.140529176131167333e-07,-6.929501950025951373e-08,-2.526870090946431446e-08,-1.403654614762217534e-08,1.612605728951166384e-07,2.851095928235736210e-07,2.798986287189109134e-08,-2.651367736472565184e-10,5.783807566217546992e-08,9.972376346922828816e-08,7.418110214985063067e-08,-1.590607752177675138e-07,-9.664084643645765027e-08,-2.785135961858031806e-07,-3.076584675909543876e-07,-1.560504436781684490e-08,-2.294144962888822192e-08,2.317184311095843441e-07,-1.436715812985767116e-08
5.784316314816351223e-08,-2.872322935054683057e-10,6.239325500700942939e-08,-5.975761752097241697e-08,4.535841924280248350e-08,-7.716618455333446036e-08,-1.323911291706281190e-08,-1.729467946631757513e-08,-4.119424090731627075e-08,-1.610154214404246886e-07,1.071290824938841979e-07,4.000724729280591419e-08,1.857421665363290231e-07,-6.496335913652728777e-08,-1.430252609679882880e-07,3.122521974319170113e-08,1.629544215120404260e-07,3.635336653928789019e-08,1.557041571231820853e-07,5.293506077919118979e-08,-1.033044227938262338e-07,-5.794888480181725754e-08,-1.169918135701664141e-07,2.849519376013631700e-08,1.375847169526878133e-08,-8.662362915856647305e-08,1.135993485945618886e-07,-5.945845416022166319e-08,-1.698230249758125865e-07,4.844397238912279136e-08,5.612025333334713650e-08,6.508940941785112955e-08
1.882378484197033686e-07,2.501866731563495705e-07,1.885764255860067351e-08,1.208050814938133044e-08,1.804503710900462465e-07,4.621616866984368244e-09,-1.796727246983209625e-07,4.241204010213550646e-08,-8.863280243076587794e-08,-1.634144695117356605e-07,4.127549135812813574e-10,-1.183209832333886879e-07,-4.047628010539483512e-08,-1.241744840285718965e-08,7.401089163749929867e-08,1.535517952788723051e-07,3.478186627603463421e-08,-5.798890256869526638e-08,1.498617119288780941e-09,-1.482267748542653862e-07,-1.631589157113921829e-07,3.455999575407986413e-08,2.824068978668492491e-08,2.258237401520091225e-07,-5.808183445310532989e-08,-6.969604982032251428e-08,2.024429619496004307e-07,-2.111376318225666182e-08,1.910510860625436180e-07,-3.917004391951195430e-07,1.250839005706438911e-07,1.362938650828482423e-08
3.108837631771166343e-08,-9.629458119775335945e-09,8.112449734198889928e-08,-4.136973785762165789e-08,-2.148567830317915650e-07,-2.989943936881900299e-07,-1.131176471935724237e-10,1.200998696049282444e-07,1.778036136101945885e-07,-2.085835948406611351e-09,1.275642631526352488e-07,-2.013535720379877603e-07,2.045323377330987569e-08,-2.051399263791608973e-07,-1.160271665412437869e-07,-7.305587956807357841e-08,-1.601053583044631523e-07,-1.871003547648797394e-07,-9.723638072500762064e-08,2.552559976720658597e-07,6.712718203516487847e-08,-6.409504038629165734e-08,-2.372428582475549774e-07,1.612080922086533974e-07,5.795527258101174084e-08,1.221654883920564316e-07,1.745391813301466755e-07,6.929494844598593772e-08,-2.185829828249552520e-07,-8.080847635483223712e-08,-9.930086264375859173e-08,-8.955574770652674488e-08
4.830311084447203029e-08,1.613142899259401020e-07,-2.011529858236826840e-07,-5.669020453069606447e-08,-9.536889677974613733e-08,-5.428145399832828844e-08,-1.939053007049551525e-08,-1.859759493072488112e-07,-1.599090637682820670e-07,-1.632368480386503506e-07,-4.801723108016631159e-08,-1.228645629680613638e-07,4.588961743934305559e-08,-7.453134998058885685e-08,1.621642264915124088e-09,7.285569836312788539e-08,-5.811058656490786234e-08,4.720634994015426855e-11,-5.202706461204797961e-07,3.637150669533184555e-08,-1.633593171845859615e-07,2.241521634971377352e-08,-9.459733441019579914e-09,-5.787297396864232724e-08,-6.910484984246068052e-08,-7.583797412280546268e-08,-7.321252581959925010e-08,1.957377548933436628e-07,1.944529657293969649e-07,-7.133515111945598619e-08,-2.969765233729049214e-08,-2.375445120605945704e-07
5.805874181419312663e-08,2.867126269734399102e-08,-1.356352754555700812e-07,5.204115183232715935e-08,-4.046102475285806577e-08,2.725190881847083801e-07,1.430491636256192578e-07,-7.259233569811840425e-08,6.116041362247415236e-08,1.596961425320841954e-07,-2.642258891683013644e-07,9.474938877929162118e-08,-1.534289140181499533e-07,-2.506056659967725864e-07,6.657594298076219275e-08,-4.084201776777263149e-08,-1.566835123867349466e-07,-4.907781558927126753e-08,-1.661240958128473721e-07,-8.057998002186650410e-08,6.791324125288156210e-08,2.829916923019482056e-08,-1.073682156516042596e-07,-1.637153559386206325e-07,8.834393128154260921e-08,-2.203151865387553698e-07,-2.449055784836673411e-07,1.888949299200248788e-07,2.563288887813541805e-07,-6.689506193424676894e-08,7.876811736196032143e-08,-2.948217456832935568e-07
1.389682857677598804e-08,3.458583108795210137e-08,1.786739431963724201e-07,-1.631264581192226615e-07,-2.866320159000679269e-08,-5.770104039015677699e-08,5.345149034496898821e-08,-5.574289474452598370e-08,-2.872274507126348908e-08,-1.558276285784643278e-10,-2.871762916356601636e-08,-1.102872957403633336e-07,-5.785767243082773348e-08,-9.540035250665823696e-08,-1.880578470725424722e-10,1.503979518702180940e-07,-5.803866187648054620e-08,4.906713613195279322e-08,5.790672830130461080e-08,-5.794952429027944163e-08,1.628815766707703006e-07,-1.938956911695655094e-10,-1.595579561808335711e-07,1.585342630505692796e-07,1.630177166589419357e-07,-1.358367001103033544e-07,1.611744266938330838e-07,3.464970532718325558e-08,2.870074666816435638e-08,-7.419462377811214537e-08,1.611723234873352339e-07,-4.157554656103457091e-08
6.103874028440259281e-08,-5.788762891256737930e-08,-2.246588195475851535e-07,-5.565689065178958117e-08,-8.846942733953255811e-08,-1.567361636034547701e-07,-2.793668940626048425e-08,1.631569830351509154e-07,-6.164475507830502465e-08,-2.993572612020045653e-10,1.085662688637967221e-07,-2.865137993524058402e-08,5.806026237564765324e-08,-1.636987008168944158e-07,-1.394731263815174316e-08,1.635466730931511847e-07,1.566476015568696312e-07,-1.750504519115736457e-09,-5.762617760751709284e-08,-5.565319582956362865e-08,5.793293311739944329e-08,-1.567340603969569202e-07,-2.208671645576032461e-08,1.566917120499056182e-07,-5.578279882456627092e-08,2.864055126394760009e-08,-2.869369808422561618e-08,-3.101188283949340985e-08,2.726976977562856064e-10,-6.123985230033213156e-08,-8.306285081971509499e-08,-1.085335838979517575e-07
-1.681094090599799529e-07,1.615578213431945187e-07,-4.892398137599229813e-04,-2.438291168971318257e-08,3.152129065711051226e-04,-5.677886656485497952e-04,4.793141037225723267e-02,3.781088162213563919e-04,1.804962224127848458e-08,1.628325634328575688e-07,-3.448475152254104614e-02,3.817264805547893047e-04,4.347641079220920801e-04,-3.092650731559842825e-04,-1.145424023270606995e-01,-1.139491982758045197e-02,-1.631332651186312432e-07,-3.138485027420756523e-08,-2.233767807483673096e-01,1.633815653622150421e-02,-8.871594303627716727e-08,-7.042164185122601339e-08,-3.475573321338742971e-04,9.887480167947160226e-09,9.267418477065803017e-08,3.817104443442076445e-04,3.224302490707486868e-04,-2.642028266564011574e-03,-3.429096937179565430e-02,-5.019125342369079590e-02,6.626322865486145020e-02,1.727183163166046143e-02
1.402013349860453673e-08,1.631538566471135709e-07,6.814889985662375693e-08,1.383546077704522759e-08,1.753897436174156610e-07,6.243101324798772112e-08,-9.832088210259826155e-08,-4.347813842286996078e-08,-2.272367005673459062e-08,1.630152155485120602e-07,2.776806411475263303e-07,9.916362841977388598e-08,1.131667914933132124e-07,1.582987074755237700e-08,-6.727699997099989560e-08,2.573204653799621155e-07,2.207070437520997075e-08,1.399292060000334459e-08,-2.642175722655792924e-08,8.474339097119809594e-08,-1.370206170747678698e-08,1.322426335104154305e-10,1.885640088516993274e-08,1.609988800055361935e-07,-2.133183407693195477e-08,5.524550772406655597e-08,1.783901204532867268e-08,-4.196398251110622368e-08,1.114794088152848417e-07,-9.976339754302898655e-09,-2.126582998585035966e-08,-1.921857375464242068e-07
-1.638907747292250860e-07,5.181862050562813238e-08,2.868124937549509923e-08,5.796765734089603939e-08,3.446330509859762969e-08,1.605730233222857350e-07,1.417873041198447481e-10,5.802874269988933520e-08,3.101637346958341368e-08,-1.776202083192401915e-07,1.644743292672501411e-07,1.882927307406134787e-07,-3.616370136683144665e-08,5.778059275485247781e-08,2.928866393858697847e-08,1.630967290111584589e-07,-2.873002102887767251e-08,-1.594930978399133892e-07,-1.037325816355405550e-07,-2.866642745402714354e-08,-1.874325694650735841e-10,-2.682193667169485707e-08,-1.636757929190935101e-07,1.944641253581735896e-10,-3.245957391762033240e-10,-1.675082899055269081e-07,-8.251327443531408790e-08,1.717705866433050232e-09,-2.553144895500736311e-08,-2.082694408045426826e-07,-2.038406066162679053e-08,-1.611704476545128273e-07
-6.412879116624026210e-08,-2.200855675482671359e-08,5.786989376588280720e-08,7.937601687046935695e-09,-5.806921521411823051e-08,-1.086833094632311258e-07,1.630248789297183976e-07,-8.268897744301284547e-08,-1.373727620546105754e-08,-5.806316139000955445e-08,-1.631544250813021790e-07,-2.925917641505293432e-08,-1.567338898667003377e-07,1.778404339347616769e-07,4.103506512365129311e-08,2.448319662562425947e-07,2.657884579093661159e-08,1.882019518006927683e-07,1.505754312347562518e-07,-3.582887586617289344e-08,1.567380394362771767e-07,-2.207102767215474159e-08,-2.638608975757961161e-08,-2.917146701975070755e-08,-4.104558115614054259e-08,2.629485607030801475e-08,-1.033562355701178603e-07,1.635728210658271564e-07,-1.382220027323910472e-08,9.773520659450696257e-09,3.623560829169036879e-08,-5.786403889374014398e-08
-1.532450113472805242e-07,8.849007571143374662e-08,5.914450795785342052e-08,-1.553617892113834387e-07,2.065755069224906038e-07,-1.388758903431153158e-07,3.181050942657748237e-07,-3.354068667249521241e-07,1.015429518247401575e-07,-5.190831586787680862e-08,8.242018623150215717e-08,2.500738105482014362e-08,-1.657557469059156574e-08,7.538884716495886096e-08,-3.347289521116181277e-07,-3.554371730274397123e-08,6.363864435421362487e-10,-5.779994793897458294e-08,-4.442101442236889852e-08,1.696411402463127160e-07,-4.871311887200135970e-08,1.629742456543681328e-07,-9.840276504746725550e-08,-6.422700238317702315e-08,1.227215395971370526e-08,-1.116870951278770008e-08,-1.048073485776512825e-07,-1.092896724230740801e-07,-2.645533072609396186e-07,2.938910768079949776e-07,1.389589527889256715e-07,2.921024986335396534e-07
1.386318437823774730e-08,-1.972792595950068062e-09,1.381924441545834270e-08,-3.620877819798806740e-08,1.587729769880752428e-07,1.902747404081139848e-10,-1.368475288643367094e-08,5.181486883998331905e-08,-2.247344212946700281e-07,5.797130242513048870e-08,-8.486532721008188673e-08,4.149400467667874182e-08,-2.859733783111551020e-08,3.469317277904337971e-08,-1.567220095921584289e-07,-2.023507406079261273e-08,1.873815165254200110e-07,-6.422821030582781532e-08,1.972565222274624830e-09,1.567239422683996963e-07,-2.865294312925925624e-08,6.746896019649284426e-08,4.111691964681085665e-08,1.401637739206762490e-08,-1.502408508713415358e-07,-1.623990328880609013e-07,1.683649628603234305e-07,2.554583033997914754e-08,-3.169218776299942419e-10,1.533758933192075347e-07,1.085414353951819066e-07,8.855031552457148791e-08
-1.756529921514982107e-09,-7.060103257572336588e-08,-1.624285062007402303e-07,-2.864079284847775853e-08,2.146423128124297364e-08,-2.860091896650374110e-08,-2.870273618782448466e-08,-2.871308169005715172e-08,2.140369304015621310e-08,9.282670632160261448e-09,2.868208781592329615e-08,5.206536712876186357e-08,8.851058197478778311e-08,-2.850928737530011858e-08,5.799506297421430645e-08,-2.867627557634477853e-08,-4.882054938093460805e-08,-1.882017812704361859e-07,-1.640397595537024245e-09,-2.546214905585486576e-10,-5.778519707178020326e-08,-2.660482323335600086e-08,-1.509959379752956465e-10,-6.241988614874571795e-08,1.882191185131887323e-07,1.379758707287237485e-08,6.483751491259681643e-08,6.416477305037915357e-08,-2.207358562600347796e-08,2.205050719794598990e-08,1.389682857677598804e-08,-1.778373501792884781e-07
-3.644064960894866090e-08,-2.918553043684823933e-08,-1.254218489066261100e-07,-2.703458013009196748e-10,8.067600987260448164e-08,1.292681020004238235e-07,-1.071851016831715242e-07,-7.917579480931635771e-09,2.122077470342875749e-12,-2.869415283157650265e-08,-1.386675023695715936e-07,1.893079115689033642e-07,-1.199883001845591934e-07,5.627731169965954905e-08,1.747512783367710654e-07,1.299548699762453907e-07,-2.868239690201335179e-08,-1.207835431671355764e-08,-3.658631797520683904e-08,-1.662824189452294377e-07,1.255649237918987637e-07,1.400156257602702681e-08,4.175909840142821849e-09,1.598828731630419497e-07,-1.400003490914514259e-08,8.554668973204115900e-09,1.748742164409122779e-07,2.211911365179730637e-08,-1.365382900075928774e-07,7.238259769337673788e-09,-2.091793760428117821e-07,2.616157246393413516e-08
1.785597447678810568e-07,2.919048114335964783e-08,8.453331190594326472e-08,-2.781566799114898458e-08,4.347336357568565290e-08,-1.147745152252355183e-07,8.094706061001488706e-08,-8.150628616476751631e-08,8.202658818845520727e-08,-5.780267642307990172e-08,-3.602838560823329317e-08,3.437236983927505207e-08,6.428500398669712013e-08,2.129313969589929911e-07,-6.216312442575144814e-08,-2.129213214629999129e-07,-1.628870336389809381e-07,4.093145022920907650e-08,-3.030165629525072291e-08,-3.837920914406822703e-08,-5.791684642986183462e-08,4.110448514893505489e-08,1.108705447450120118e-07,1.872101051958452445e-07,3.447123475552871241e-08,4.360241234735440230e-08,1.287942268390906975e-07,-1.496927666266856249e-07,3.932881327273207717e-07,2.503537110953857336e-08,1.277789181131083751e-07,-8.168962750687569496e-08
1.488746477207314456e-07,1.808525240676317480e-07,-3.670429869089275599e-04,-4.113067220146149339e-08,2.198237325501395389e-07,4.520370566751807928e-07,4.206298399367369711e-06,1.429261970997686149e-07,4.319310420441979659e-08,1.082554703657478967e-07,-4.071824660059064627e-04,4.654100962397933472e-07,1.027269576070466428e-07,3.965613723266869783e-05,1.305693527683615685e-03,-4.157241492066532373e-04,7.980180072308939998e-09,-1.545651855394680751e-07,6.975445785428746603e-07,4.452191642485558987e-04,-5.153089333020943741e-08,6.974685362592936144e-08,6.893201316415797919e-07,-3.554361782676096482e-08,-1.593052019188689883e-07,-3.693246242164605064e-08,-2.351729904148669448e-07,-6.466154009103775024e-04,-3.899741277564316988e-04,6.364908185787498951e-04,-1.184083172120153904e-03,4.339601146057248116e-04
4.133937636652262881e-08,3.089317246462996991e-08,1.603243902081885608e-07,-1.744057271935162134e-07,-1.053274019113814575e-07,1.506331592793230811e-08,-2.387090347610865138e-08,1.550933426130995940e-08,-6.464918556048360188e-08,-2.237962348772271071e-08,7.796566592332965229e-08,1.522234356343687978e-07,2.440994535390927922e-07,-1.720772928592850803e-07,3.182686043601279380e-07,-4.085840430434473092e-07,1.032419802982076362e-07,7.090453379987593507e-08,-1.531468107884847996e-08,-1.999584675616006280e-08,-7.419618697213081759e-08,1.630920252182477270e-07,9.182717519706784515e-08,-2.655685094055115769e-08,6.325157642095291521e-08,3.681165949842579721e-08,5.694174376458249753e-08,-2.294278260706050787e-07,-3.069119429710553959e-07,-4.888276095016408362e-08,2.484291172777375323e-08,2.037561017687039566e-07
6.237485905558060040e-08,-7.011643532450761995e-08,-5.030164516028889921e-07,1.891011436327971751e-07,6.504337193291576114e-07,-4.384503408800810575e-04,5.283296923153102398e-04,-2.055473231621363084e-07,-6.403733010529322200e-08,3.400014847443344479e-08,-1.137667451985180378e-03,-5.361915000889894145e-08,3.123411152046173811e-04,-8.478348900098353624e-05,2.212600084021687508e-03,-1.409888500347733498e-03,-6.180832201607699972e-08,-5.315050799481468857e-08,1.489482428951305337e-06,1.488801557570695877e-03,-1.826647491043331684e-07,4.114088270057436603e-08,-1.057120825862511992e-04,4.128807162828707078e-08,1.607095612143893959e-07,1.744820110616274178e-07,-3.954085059376666322e-07,-9.318461593466054182e-07,-1.105249975807964802e-03,1.239353423443390056e-06,-6.244104588404297829e-04,1.494091702625155449e-03
2.708940272100335278e-08,-1.847059394322059234e-07,-3.144112997688353062e-04,8.953089936092339940e-10,1.630746919545345008e-05,-3.696917701745405793e-05,-1.284730096813291311e-04,3.699832450365647674e-05,-1.627724373065575492e-07,-1.748029205828061095e-07,-4.732317756861448288e-03,3.817553442786447704e-05,1.264355814782902598e-04,-6.520743772853165865e-05,-6.692767143249511719e-02,-3.067909041419625282e-03,2.620449812695824221e-08,2.280414008737352560e-07,-1.296795606613159180e-01,3.784646280109882355e-03,-4.891994009881273087e-08,-1.627790879865642637e-07,-5.367090125218965113e-05,-6.827406906495525618e-08,-1.107732998661958845e-07,3.793152063735760748e-05,2.473679160175379366e-05,-2.263644128106534481e-04,-3.707122290506958961e-03,7.441605557687580585e-04,5.779378116130828857e-04,4.165937192738056183e-03
6.157049314836626763e-10,2.395360354512376944e-07,1.954928592340365867e-07,-6.439263700031006010e-08,5.862613861040699703e-08,8.970020282106361265e-09,6.139485719813819742e-08,-2.699849055431968736e-08,-5.803300595630389580e-08,-1.399132898427524196e-08,-6.561506893376645166e-08,-4.654920005009444139e-08,-1.533578455337192281e-07,2.382984263249454671e-07,4.011016301319614286e-07,1.609210329434063169e-07,5.796861657358931552e-08,1.032182694871153217e-07,6.472929925394055317e-08,-8.423993591577527695e-08,1.566362755056616152e-07,2.830720935431685348e-10,-1.180555884161549329e-07,-1.386945225334557108e-08,-6.220467696493869880e-08,-4.769347583533090074e-08,6.096301774505263893e-08,2.151546141249127686e-07,1.028128835400821117e-07,-3.539227009241585620e-07,-3.275027182780831936e-08,-9.402358358556739404e-08
-2.861018444377805281e-08,-1.684256147882479127e-07,2.864296710924918443e-08,-5.801166125252166239e-08,-4.110299300918995868e-08,-2.870944371125006001e-08,-6.945990804752000258e-08,4.090195204753399594e-08,-2.199860915652607218e-08,1.598800452029536245e-07,6.706308397497195983e-08,5.788097823256066476e-08,-1.925882925357669251e-10,-2.780728891593753360e-08,1.382640668623480451e-08,-2.871177429142335313e-08,5.797180691047287837e-08,1.535163818289220217e-07,2.209133431740895048e-10,-2.863275128106579359e-08,1.630975816624413710e-07,2.218829564526458853e-08,2.848353730655617255e-08,-3.578492524525245244e-08,4.089257288342196262e-08,1.567295129234480555e-07,-5.204336872566273087e-08,3.628853662007713865e-08,5.806665726026949415e-08,1.532662992076438968e-07,2.928248221678586560e-08,-1.393975246344325569e-08
-6.698863330711901654e-08,1.372204216920636100e-08,-5.798278479574037192e-08,-1.566751706150171231e-07,2.866755011154964450e-08,3.169841988892585505e-08,2.866749326813078369e-08,2.919986386018535995e-08,1.795694686279603047e-07,-6.480880898607210838e-08,1.533821460952822235e-07,-1.016177435531062656e-07,-2.867420079155635904e-08,-4.114380658393201884e-08,1.629659891477786005e-07,-4.149832477651216323e-08,2.862155135119337501e-08,-1.970959506714109466e-10,-1.882440159306497662e-07,-4.137696407724433811e-08,-5.681967607529259112e-08,2.220502115513056651e-10,-2.567246970563985542e-10,-6.417165110406131134e-08,-3.439713935904364916e-08,-2.215954642004192010e-10,2.871052373620841536e-08,1.453115960892148451e-10,-8.849085730844308273e-08,1.626571872748172609e-07,-1.387215853299039736e-08,5.790394297378043120e-08
-4.936009290190668253e-08,2.853134617453179089e-08,-6.337520375154781505e-08,-5.564980654071405297e-08,1.054009501899599854e-08,5.692456994665917591e-08,-1.940670983913150849e-07,-1.739736461559004965e-07,-2.833904488852567738e-08,-5.809086900399051956e-08,-3.280879568023920001e-08,-5.071190045669027313e-08,6.483912073917963426e-08,-6.191122281506977743e-08,7.447982142139153439e-08,-1.026811915494363348e-07,1.392651061138394653e-08,-1.404156169115822195e-08,-3.144095046536676819e-07,-2.301137840277078794e-07,-2.828557299494605104e-08,-1.551202899463532958e-07,3.369125920471560676e-07,-1.529419364487694111e-07,-5.303138195245082898e-08,-3.417092031554602727e-08,-1.475934219286045845e-08,-9.898769093297232757e-08,-1.389448414101934759e-07,-2.568243218092902680e-08,-4.265627069344191113e-07,1.963477913591304969e-08
3.628950295819777239e-08,3.450127650239664945e-08,5.788200141410015931e-08,1.566222493920577108e-07,-2.846045887849868450e-08,-1.085180656446027569e-07,-1.567478733477400965e-07,-2.883296379430078105e-10,1.629025518923299387e-07,1.201971411290969627e-08,2.869926873927397537e-08,6.100406579889749992e-08,4.095610961485363077e-08,-2.246410275574817206e-07,2.863697012855936919e-08,5.804065139614067448e-08,5.801643609970597026e-08,2.605332061200726912e-10,-4.141789133882411988e-08,-1.532322499997462728e-07,-2.837751011952605040e-08,-1.610408446595101850e-07,-6.110507655421315576e-08,5.789740598061143828e-08,-1.386591286234306608e-08,2.871194482167993556e-08,3.615443588955713494e-08,5.782470324788846483e-08,5.204291397831184440e-08,-1.633676447454490699e-07,1.085235226128133945e-07,-1.629489929655392189e-07
-6.147763542685424909e-08,1.634761304103449220e-07,5.829938487522667856e-08,9.843030390754847758e-09,-8.389057448709991149e-09,-1.532774547285953304e-07,8.257826422664038546e-09,-6.583705669527262216e-08,-7.059745144033513498e-08,-1.032849539228664071e-07,-9.158982017254402308e-09,1.637896573924990662e-08,-6.787121265006135218e-08,1.211842288739717333e-07,6.801982976867293473e-08,1.237336704207336879e-07,1.636284139294730267e-07,-1.623015464247146156e-07,-1.087094432250523823e-07,-1.554286086502543185e-07,-3.642034940298799484e-08,1.086087877411046065e-07,1.161350695610963157e-07,2.615432670438622154e-08,1.389431325549139729e-08,-6.517783646131647401e-08,1.711545927207680506e-08,-1.579385013883438660e-07,1.553812438714885502e-07,2.118325426181399962e-07,-8.329408274221350439e-08,4.666226161020858854e-08
2.256167519476548478e-08,1.615275664335058536e-07,-8.007614127336637466e-08,-5.784536227793068974e-08,1.674849370303377327e-09,3.871172964409197448e-07,-2.507508156668336596e-08,4.285568522277571901e-08,-1.566346128356599365e-07,-1.373240987589952056e-08,2.402163978842963843e-08,6.733116464374688803e-08,1.148629351632735052e-07,1.092994708074002119e-07,-2.572850732462939050e-08,-1.719022577617579373e-07,8.311783972203556914e-08,1.841028449689474655e-07,6.831885457359021530e-08,4.350560800503444625e-07,1.533711753154420876e-07,-5.343042985828105884e-08,-2.027752827871154295e-07,5.031403560451508383e-08,1.643122686800779775e-07,3.190440622802270809e-07,7.241789035106194206e-08,-4.737112035968493728e-08,-7.753028796742000850e-08,7.113560940297247726e-08,-1.520737527016535751e-07,2.787257358249917161e-07
1.072620392505996278e-07,5.270281278058064345e-08,1.608247839612886310e-04,-1.886969442921326845e-07,-1.255557208423851989e-06,8.217072172556072474e-05,3.464435285422950983e-04,-1.416133363818516955e-05,2.844904933851921669e-08,1.619314105028024642e-07,6.222025695024058223e-05,-4.347251524450257421e-05,5.126163014210760593e-04,-5.048108869232237339e-04,6.622930186495068483e-07,-3.764515276998281479e-04,1.867260124299718882e-07,1.552900812384905294e-07,2.407730335107771680e-07,3.306692815385758877e-04,-1.551770907326499582e-07,-3.079649957271612948e-08,-4.627737798728048801e-04,-1.898303594316530507e-07,5.370058531184440653e-08,-3.399456181796267629e-05,-1.056012365552305710e-06,-2.631258103065192699e-04,7.671510684303939342e-05,1.021800635498948395e-04,-8.927325689001008868e-05,3.497246361803263426e-04
-5.785053858176070207e-08,1.382876568811752804e-08,-1.134037290739797754e-07,3.462839970325148897e-08,-1.022833302499748243e-07,-3.676087345638734405e-08,-8.144473184756861883e-08,-3.993316255446188734e-08,-5.628307420124656346e-08,5.808453451550121827e-08,-1.066315959974417638e-07,-1.282332959817722440e-07,1.137453651267605892e-07,-1.502069757464141730e-08,-2.901590505643980578e-07,2.202588831323737395e-07,-8.405592666349548381e-08,-1.039726313933897472e-07,1.600802335133266752e-07,1.448809285875540809e-07,6.356338388968651998e-08,1.306645724952204546e-08,-8.586819433276104974e-08,-1.844476571477571269e-07,-6.826108034374556155e-08,-1.323497826888342388e-07,-1.957722339795964217e-08,7.306341842649999307e-08,1.155726536694601236e-07,-1.036409358334822173e-07,-1.566930585283898836e-08,-1.478373405916499905e-07
-6.179099898417916847e-08,4.097378791811934207e-08,-1.386534442815445800e-08,-1.080904183936581830e-07,-1.746785045497745159e-07,1.599272252406080952e-07,2.247175956426872290e-07,1.882907980643722112e-07,-1.032593743843790435e-07,-1.579904136406184989e-07,5.185755824754778587e-08,-1.378462677337211062e-08,-1.626350751848804066e-07,-2.869818871431562002e-08,-1.015709685248111782e-07,-3.583819818686606595e-08,-1.598379100187230506e-07,-1.870827475158876041e-07,-2.919806973977756570e-08,-2.835453116745156876e-08,-2.160179235488612903e-08,7.059904305606323760e-08,-1.641209621539019281e-07,-4.936672937105868186e-08,5.789882706608295848e-08,1.358481824809132377e-07,-1.567293992366103339e-07,-3.559265238095576933e-08,2.869443704867080669e-08,-2.864435977301127423e-08,1.405583383018438326e-08,4.099101147403416689e-08
-1.567380394362771767e-07,-4.153100974235712783e-08,1.491201051528889820e-10,2.246751336087982054e-07,-1.403547678080485639e-08,-5.790951362882879039e-08,8.853809418951641419e-08,2.551928446337115020e-08,-2.700829004886884377e-10,2.717882030545126781e-10,-2.862467951558755885e-08,3.469243381459818920e-08,2.080935956882967730e-07,1.778287810338952113e-07,1.640778179989865748e-07,2.843458091206230165e-08,1.397624593835189444e-08,4.132347442009631777e-08,2.869750659328929032e-08,-8.246635019304449088e-08,-1.594426777273838525e-07,2.551899247471567378e-10,1.503977244965426507e-07,2.873542115366944927e-08,5.799585878207835776e-08,-1.609741673291864572e-07,6.740671665284025948e-08,-1.585343767374070012e-07,-1.145104988609091379e-07,-2.163361045859346632e-08,-1.633989654692413751e-07,-7.612815267066253000e-09
-1.425908209284898476e-07,1.847811859079229180e-08,-1.074574328958988190e-02,1.679511996144356090e-07,-7.955761248013004661e-05,-6.098783109337091446e-03,1.970368437469005585e-02,-2.288070274516940117e-03,8.954285846130005666e-08,-2.226231998747607577e-08,-5.290738493204116821e-02,-2.744598081335425377e-03,1.572385226609185338e-04,7.076582871377468109e-03,-9.466833034821320325e-06,-1.927795074880123138e-02,-1.791132433481834596e-07,-1.537780320859383210e-07,-8.057118393480777740e-04,1.953960023820400238e-02,-7.346510244587989291e-08,7.724091233285435010e-08,4.872627556324005127e-03,2.489940520433719939e-08,-2.494409123698915209e-08,-2.284450922161340714e-03,-7.924381061457097530e-04,-1.052531693130731583e-02,-5.385775491595268250e-02,6.815360393375158310e-03,-1.069087069481611252e-02,1.935132779181003571e-02
8.302795606596191647e-08,-5.813948789068490441e-08,2.050515348628323409e-07,1.369168423082101071e-08,6.961764853485874482e-08,1.317885356399983721e-08,-5.149627213540952653e-08,-6.320554746253037592e-08,-2.378301502403701306e-07,1.566467631164414342e-07,1.238295510574971559e-07,-2.079961802792240633e-07,-2.185208245464309584e-07,-6.076349023942384520e-08,-1.034915158015792258e-07,-6.233148219791928568e-09,3.624143474212360161e-08,-5.192027074940597231e-08,-2.282146596144229989e-07,-8.776184756698057754e-08,6.571514177267090417e-08,-1.875403228268623934e-07,1.361498505048075458e-07,6.412555109136519604e-08,-3.625157418696289824e-08,4.472361325724705239e-08,9.206196693867241265e-08,-1.442989940869665588e-07,7.001236923542819568e-09,-1.526384174610484479e-08,8.009334351299912669e-08,-2.262433795863216801e-09
2.214633809671795461e-08,7.447870586929639103e-08,2.878320870536299481e-08,-2.131698012552973864e-10,-2.442376683120528469e-07,-1.622290994873765158e-07,1.218660088397882646e-07,-1.016961448385700351e-07,-6.438990851620474132e-08,-5.807045155847845308e-08,-3.946001925214659423e-08,1.066269419425225351e-07,4.553834287435165606e-08,5.687624593520013150e-08,-5.647337530945151229e-08,5.102572941950711538e-08,-1.554969202288702945e-07,6.198520452471711906e-08,-4.631010597222484648e-08,3.296193540336389560e-07,-1.627934267389719025e-07,-8.269590523468650645e-08,-2.451433545047621010e-08,-1.086558043539298524e-07,-3.644014867631995003e-08,2.144213624433177756e-07,-1.655077142004302004e-07,1.817286765515291336e-08,-3.024317152267030906e-07,1.422932527361808752e-08,-6.863760404485219624e-08,2.270912062840579893e-07
5.804857039493072079e-08,5.802314007041786681e-08,-4.508963868943283160e-08,-1.566737921621097485e-07,1.241890288383729057e-07,2.008551192034246924e-08,9.300553927005239530e-08,6.330879642746367608e-08,1.220608236707221295e-08,1.631032233717633062e-07,5.560297111628642597e-08,7.002801538646963309e-08,-1.860952210108735017e-07,2.400135485913779121e-07,2.257064437571898452e-07,-1.642659412937064189e-07,5.802122515774499334e-08,1.382229442015159293e-08,4.958228672080622346e-08,-1.578198123297624988e-07,-2.586721414843395905e-08,1.588870617297288845e-07,-3.532516075210878626e-07,-6.411210051737725735e-08,-7.573445204300810474e-10,-4.397086073026912345e-08,1.575138384168894845e-07,-2.867589046218199655e-07,-1.444728638944070553e-07,-1.459132192849210696e-07,1.690471265192172723e-07,-4.868467229357520409e-08
7.820527003765676000e-10,-1.673134732982362038e-07,1.736515550874173641e-03,-1.706021350855735363e-07,8.019554661586880684e-04,1.487931143492460251e-02,-3.798263892531394958e-02,8.923565619625151157e-04,-2.644099339477179456e-08,9.075445461803610669e-08,6.330149620771408081e-02,9.015931864269077778e-04,-6.323947309283539653e-05,-1.845943741500377655e-03,-1.842022407799959183e-03,9.456942230463027954e-02,-1.478052240599936340e-07,3.944741067130053125e-08,2.883205190300941467e-02,-2.193136215209960938e-01,-1.637894655459604110e-07,2.348484144931717310e-07,-1.093965256586670876e-03,5.373260059116091725e-09,3.420025096456669189e-10,8.976993849501013756e-04,8.600278524681925774e-04,1.541133038699626923e-03,7.145340740680694580e-02,9.801104897633194923e-04,3.852439578622579575e-03,-2.186845391988754272e-01
-1.607747890375321731e-07,3.361143541269484558e-08,2.666161513786846626e-08,1.589466904761138721e-07,1.845651667053971323e-07,1.650204417558143177e-08,1.712068069537053816e-07,2.803437126885910402e-08,-4.091734595590423851e-08,-2.350453720545431224e-10,-1.448326081288087153e-08,-5.972419359068226186e-08,2.123985893831559224e-07,-1.648197809345219866e-07,3.975279128098918591e-08,-3.117138192010315834e-08,1.632007666785284528e-07,-1.083221974340631277e-07,-1.179339079726560158e-07,6.865383852527884301e-07,-2.183755931639552728e-08,-1.501215223242979846e-07,-1.084903118453439674e-07,-2.374981988850777270e-07,-1.632581927424325841e-07,1.784353713674136088e-07,-3.140991395866876701e-07,-8.524128958242727094e-09,-1.127005546663895075e-07,1.325850149669349776e-07,-4.360621801424713340e-07,5.772524787062138785e-07
-3.630064426829449076e-08,1.602147960966249229e-07,3.339973631000248133e-08,-1.371112823278508586e-08,5.573175343442926533e-08,1.614192797205760144e-07,-2.922848096886809799e-08,8.405400109268157394e-08,1.567048428796624648e-07,-2.655292519193608314e-08,-1.787284986676240806e-07,-5.800603375405444240e-08,-2.848791424980845477e-08,-2.864355153064934711e-08,-1.631577219995961059e-07,-1.623598961941752350e-07,1.833552687457995489e-07,-2.857812475554055709e-08,-2.246714387865722529e-07,-2.867334814027344692e-08,-2.918113040095704491e-08,1.032920025068051473e-07,5.802834479595730954e-08,2.964014034212425486e-10,2.920119612781491014e-08,-1.085650183085817844e-07,1.791334303113956139e-10,-8.211245017264445778e-08,1.725891318749006587e-09,-1.598383647660739371e-07,1.628786208129895385e-07,-5.808595560097273847e-08
1.598425711790696369e-07,-1.354613576864949209e-08,-8.306950149972180952e-08,-1.384959880113001418e-08,1.778393112772391760e-07,3.639088319573602348e-08,1.608018180832004873e-07,1.626785604003089247e-07,1.555562363364515477e-07,-1.404327143461614469e-08,-6.158063570183003321e-08,3.502294276813699980e-08,-5.781572198770845716e-08,-1.567555472092863056e-07,-8.255698702441804926e-08,1.078817959410116600e-07,-1.085380745280417614e-07,3.632488798643862538e-08,-2.276208665996648506e-10,1.584916589081331040e-07,5.793708268697628228e-08,2.873604643127691816e-08,5.970688476963914582e-08,-5.629003752005701244e-08,1.970220792069099502e-10,3.619689792344615853e-08,-3.415343741153265000e-08,1.085199983208440244e-07,3.636547418750524230e-08,-2.868761583840750973e-08,-5.807600800267209706e-08,-1.882041118506094790e-07
-6.306570554670543061e-08,1.139740319899829046e-07,1.854007568908855319e-04,-7.556953107723529683e-08,2.629885275382548571e-04,1.126783639192581177e-01,-1.403763145208358765e-01,4.083506646566092968e-04,1.113291361320989381e-07,-1.603913659664613078e-07,2.596315741539001465e-01,4.318568098824471235e-04,-8.732344955205917358e-03,8.719294331967830658e-03,-3.322773554828017950e-04,1.988849341869354248e-01,1.483437159777167835e-07,1.054471638894938224e-07,4.559983313083648682e-02,-1.914612054824829102e-01,1.851304460842584376e-07,2.177942981518299348e-08,5.485490430146455765e-03,-1.846102009039896075e-07,-2.488511370302148862e-07,4.224240256007760763e-04,6.566689698956906796e-04,1.804028172045946121e-03,2.616029381752014160e-01,6.093174219131469727e-02,9.524179040454328060e-04,-1.949070394039154053e-01
-1.881238773648874485e-07,-3.649645208270158037e-08,1.864810315055365209e-07,-3.241719559454736554e-09,2.007561050731965224e-07,3.367467726889117330e-08,-1.968654146367043722e-07,-3.308529130663373508e-07,-2.865019155251502525e-08,8.262445305717847077e-08,-1.280811261494818609e-07,-5.974803229946701322e-08,-3.053763464322400978e-07,4.253699614764627768e-08,3.405259860755904811e-07,-4.191931282093719346e-07,3.091128064625081606e-08,-1.403607718941657367e-08,-2.818367583756753447e-08,7.386267952824709937e-07,1.085865974914668186e-07,5.208301701031814446e-08,-8.810973639583608019e-08,5.792196233755930734e-08,4.165741884776252846e-08,5.841277683771295415e-08,-8.925926664460348547e-08,-7.552549163847288582e-08,-1.222308583237463608e-07,1.107665781319155940e-08,4.200761694050925144e-08,7.925676186459895689e-07
1.567381531231148983e-07,-1.069960262611857615e-07,6.102566629806460696e-08,1.567510565791963018e-07,1.224720147519064994e-08,-1.630480710446136072e-07,1.635520447962335311e-07,-2.400695753301818058e-10,8.413103813609268400e-08,-5.683513748522273090e-08,-2.236986706982690976e-10,6.483518433242352330e-08,6.147796938194005634e-08,5.786187884382343327e-08,2.194354142837084964e-10,-8.257841699332857388e-08,-5.618544207663944690e-08,-1.399210525221405987e-08,5.785727452689570782e-08,1.882041118506094790e-07,1.608084687632072018e-07,3.340110055205514072e-08,6.130914442792345653e-08,4.912997653150341648e-08,-5.564807992186615593e-08,-4.940549658272175293e-08,-6.103248750832790392e-08,5.803124381031921075e-08,1.358486372282641241e-07,-5.789570067804561404e-08,3.474452014984308335e-08,1.370078273055241880e-08
1.308549979484041614e-08,-5.802209201988262066e-08,1.532511220148080611e-07,5.816670167746451625e-08,3.092974409923954227e-08,1.930430398866533892e-10,-1.631498207643744536e-07,-1.886262812611505524e-10,5.688862714237075124e-08,6.419148945724373334e-08,2.865804482610201376e-08,-2.869420967499536346e-08,1.633992496863356791e-07,3.617006782974385715e-08,-8.311577204267450725e-08,4.114193075110961217e-08,2.103352869653463131e-08,-2.851099267786594282e-08,-5.802777636176870146e-08,1.567442353689330048e-07,4.089831406872690422e-08,5.566496241726781591e-08,5.793929958031185379e-08,3.052186003937862324e-10,1.567380394362771767e-07,3.628484179785118613e-08,1.635756916584796272e-07,-2.840615920263189764e-08,1.629548478376818821e-07,1.778409739472408546e-07,6.251310935567744309e-08,3.454359642773852102e-08
-3.649020641205424909e-08,2.857235692488302448e-08,7.126941170554346172e-08,-1.747975204580143327e-07,7.912102972795764799e-08,2.038992050756860408e-07,-3.653141078530097730e-08,1.851615252235205844e-07,-1.394978887958586711e-08,2.939258081369189313e-08,-7.785703104445929057e-08,-1.787278876008713269e-07,1.892367293976349174e-07,-6.537988639365721610e-08,2.503444136436883127e-07,-2.965857675008010119e-07,-1.612933786532266822e-09,-6.145306485905166483e-08,8.991882793907279847e-09,1.788472658859063813e-08,-1.588823153042540071e-07,-1.628324497460198472e-07,1.282875530250748852e-07,4.033775624634472479e-08,-6.146182585098358686e-08,-2.011648803090793081e-08,3.166029571843864687e-08,-8.736392231867284863e-08,1.502185966728575295e-07,2.486090444620003836e-08,-4.036385448102919327e-08,1.143745222975667275e-07
-1.086355609913880471e-07,-1.636192337173270062e-07,7.368942789298671414e-08,-1.633021611269214191e-07,-1.881972337969273212e-07,1.925882925357669251e-10,2.246643333592146519e-07,-2.866709536419875803e-08,1.567493512766304775e-07,-2.866191017858454870e-08,4.109452333977969829e-08,2.196627879591517285e-10,3.585180152754219307e-08,-4.104154527340142522e-08,-6.101077332232307526e-08,-1.614919824532989878e-07,-1.393935455951123004e-08,-2.877612037543997303e-10,-5.789967971736587060e-08,-1.640774769384734100e-07,-3.110101620684702084e-10,-1.634817863305215724e-07,5.206013753422666923e-08,-6.141777220136646065e-08,3.134115189595831907e-08,6.483126213652212755e-08,5.797391722239808587e-08,-1.387478043568535213e-08,2.709923951904613659e-10,-1.392446158376969834e-08,-2.854271130559027370e-08,-1.611753930319537176e-07
2.842326907170900085e-08,3.630945499821791600e-08,1.566513532225144445e-07,-1.594656073855560408e-10,1.031794738537428202e-07,5.354243981514628103e-08,2.862695325234199117e-08,-1.747608706637038267e-07,-6.480284042709172354e-08,-1.628150698707031552e-07,3.462375630647329672e-08,1.505715090388548560e-07,1.384755243805102509e-08,2.916225838589525665e-08,2.757672423747692392e-10,2.848694791168782103e-08,4.095520012015185785e-08,8.405348950191182666e-08,-1.586305842238289188e-07,-3.621241617679515912e-08,2.866516268795749056e-08,1.391314974341639754e-08,2.664449216815967247e-10,-5.073547626466279326e-08,2.986182967568140612e-10,-1.755522949231647090e-10,-1.630459678381157573e-07,-1.629882717679720372e-07,1.358432371034723474e-07,2.837165524738338718e-08,-1.978747304898220705e-10,1.567371867849942646e-07
2.866731385609000426e-08,-1.078703704138206376e-07,1.759695500425095815e-09,5.815644144036014040e-08,-2.955739653032196657e-08,-1.030497909226824049e-09,-1.969273988322584046e-08,-1.095791830607595330e-07,-2.866642212495662534e-08,6.409329955658904510e-08,3.815263127648904629e-08,-1.027672951181557437e-07,3.436922568766931363e-08,-3.983559082598731038e-08,-1.670582605584058911e-07,-1.756789345108700218e-07,-1.255659611842929735e-07,-4.151276300490280846e-08,1.746669795466004871e-07,1.584846671676132246e-07,3.545721583009253663e-08,-3.641661905362525431e-08,-1.235985251923921169e-07,-1.405508776031183515e-08,1.385100567574681918e-08,1.027772924544478883e-07,9.960949398646334885e-08,-1.232331356959548430e-07,-1.931601474325361778e-07,-1.393156168205678114e-07,-1.382362313506746432e-08,1.741763639984128531e-07
-5.777263467621196469e-08,1.398279714237560256e-08,6.587959688886257936e-08,5.799736513267816918e-08,2.353188577330911357e-08,-1.685904322812348255e-07,-2.383882957701644045e-07,-1.949254091471175343e-09,4.103365114360713051e-08,4.140498077731535886e-08,-2.226897066748279030e-07,1.397828128801847924e-07,-1.321188136671480606e-07,2.050799530195490661e-08,5.954963633314491744e-09,1.343382507457135944e-07,-8.843362309107760666e-08,-1.455402798278271348e-09,-1.019075384078860225e-07,2.020230169819114963e-07,1.534656490775887505e-07,1.874992534567354596e-07,1.343651092611253262e-07,-1.505514717337064212e-07,5.804936975550845091e-08,-4.472294889978911669e-08,6.100277971654577414e-08,-5.399848745923918614e-08,-1.312529178676413721e-07,2.196534722997967037e-07,1.677222769558284199e-07,5.143544612451478315e-08
1.673860055007025949e-07,6.971114174803005881e-08,5.558245466090738773e-04,1.690863342673765146e-07,-2.369954017922282219e-05,2.165619051083922386e-03,1.319061615504324436e-03,-7.836534496163949370e-05,-1.726400995494259405e-07,4.809383469250860799e-08,2.820033405441790819e-04,-8.412303577642887831e-05,-5.327015605871565640e-05,-2.819242072291672230e-04,2.182612888645962812e-06,1.237625489011406898e-03,1.630577628475293750e-07,-2.541265153865879256e-08,8.688707748660817742e-05,-1.314280321821570396e-03,-1.085057022010005312e-07,-1.678407528515890590e-07,-6.215509492903947830e-04,1.444610262524292921e-07,4.274332354725629557e-08,-7.961362280184403062e-05,-1.122276353271445259e-05,2.048319402092602104e-05,2.906291920226067305e-04,-9.147489327006042004e-04,5.148302298039197922e-04,-1.292472588829696178e-03
4.613497084360318468e-10,1.310907009610673413e-07,-1.142879668623209000e-02,-1.041385218059076578e-07,-9.660499199526384473e-05,-1.364517840556800365e-03,1.486903242766857147e-02,-2.160609234124422073e-03,-5.147044390696464689e-08,-1.503793640722506098e-07,-4.609559848904609680e-02,-2.632384886965155602e-03,-2.280625747516751289e-03,8.759062737226486206e-03,-6.620101089538366068e-07,-1.779170893132686615e-02,1.420214168490474549e-08,1.674027316767023876e-07,-7.604106795042753220e-04,1.808363944292068481e-02,-6.859954737592488527e-08,1.427663391950773075e-07,6.644910201430320740e-03,-1.808724761076518917e-07,-1.528286759366892511e-07,-2.194834407418966293e-03,-6.834096857346594334e-04,-1.206337474286556244e-02,-4.734523966908454895e-02,7.705476600676774979e-03,-1.103159226477146149e-02,1.795775070786476135e-02
2.261894422872501309e-07,-1.072943405233672820e-07,-2.639470039866864681e-04,-2.285323006390171940e-07,-1.019505070871673524e-04,1.019213465042412281e-03,1.137232058681547642e-03,-9.550221147947013378e-05,4.414720677914374392e-08,-1.586494278171812766e-07,1.696208782959729433e-04,-9.666367259342223406e-05,-3.708178701344877481e-04,4.143457626923918724e-04,5.893326715522562154e-07,1.902153529226779938e-02,-3.597022768531132897e-08,1.738162467290749191e-07,5.847758147865533829e-04,-7.552073802798986435e-03,-5.011240844510211900e-08,1.444049217980136746e-07,1.636453089304268360e-04,-5.295706984043135890e-08,5.519243728713263408e-08,-9.928726649377495050e-05,-1.999552296183537692e-05,-8.217980212066322565e-05,1.643890864215791225e-04,-5.484775756485760212e-04,1.125636263168416917e-04,-1.284815557301044464e-02
-8.781128713053476531e-08,-2.450830471900644625e-08,-1.995396800339221954e-03,-7.069311891427787486e-08,-1.819323370000347495e-05,2.202469622716307640e-03,1.638139830902218819e-03,2.966953325085341930e-04,1.012288208812606172e-07,-9.550142721082011121e-08,3.591881599277257919e-03,3.599333576858043671e-04,-1.314569846726953983e-03,1.719549880363047123e-03,-2.859619826267589815e-06,3.413812257349491119e-03,1.645358196356028202e-07,3.442527685137974913e-08,4.867653187830001116e-04,-2.169151790440082550e-03,3.486163535626474186e-08,2.470194182535578875e-08,1.143720000982284546e-03,1.624335652650188422e-07,9.504384479441796429e-08,3.334663633722811937e-04,6.665652035735547543e-04,6.800375995226204395e-04,3.637562971562147141e-03,-1.269935863092541695e-03,2.439302916172891855e-04,-2.190070226788520813e-03
-2.192748951301837224e-07,3.436212381302539143e-08,1.741496191698388429e-07,1.085127365740845562e-07,-1.115682550789642846e-07,9.169696113531244919e-08,1.738163746267673559e-07,-2.277091937230579788e-07,-9.011060342345444951e-08,5.814322889818868134e-08,1.444461616983971908e-07,2.471193170094920788e-07,-3.443631726440798957e-07,2.394856579712723033e-08,4.296035172046686057e-08,-2.797605134219338652e-07,-1.531663684772865963e-07,-5.819633130954571243e-08,-6.456372148022637703e-07,-6.751670156290856539e-08,-1.567386931355940760e-07,-3.626086453323296155e-08,3.181820318332029274e-08,-6.216519921053986764e-08,2.830442902279628470e-08,1.411685133234641398e-07,-5.992393425913178362e-08,-1.240484550635301275e-07,1.467737575922001270e-07,-1.169726218108735338e-07,2.390981705957528902e-07,-1.496438528647558996e-07
-2.613361971270933282e-08,-1.633695489999809070e-07,-1.459542042780981319e-09,1.369858715349892009e-08,-2.816783428727376304e-08,2.834631196435566380e-09,1.797479427523285267e-07,2.862289738558843055e-09,2.855294134462837974e-08,-6.480517100726501667e-08,-1.035825292206027370e-07,6.616208736431872239e-08,2.601450610484334902e-08,-9.123544586486787011e-09,-1.797718311991047813e-07,8.078080426798806002e-09,-1.591167659853454097e-07,-2.870113213759850623e-08,-1.052859417427498556e-07,6.599105972782126628e-08,-1.554837041339851567e-07,-1.625853940367960604e-07,2.224683326446097453e-09,1.752494038775864738e-09,1.369091329195271101e-08,5.161606608794500062e-08,2.959268030622297374e-08,2.159902123821666464e-08,1.065407246869654045e-07,-1.903626696275750874e-07,-1.101961899507841736e-07,1.413428947216743836e-07
6.133068808367170277e-08,-6.198619217911982560e-08,-2.386799202724887436e-08,4.915088069878947863e-08,-1.362872552590488340e-07,-1.327980481136137314e-08,-1.999658820750482846e-07,1.523183499330116319e-07,-3.628151645784782886e-08,-3.004177173693278746e-08,-1.550121737636800390e-07,-1.626228254281159025e-07,1.519809558203633060e-07,-1.590767197967579705e-07,-1.659445274526660796e-07,-8.469897494478573208e-08,2.680936006527190330e-08,-5.812463754750751832e-08,1.720769660096266307e-07,-1.569695626812972478e-07,1.644988287807791494e-07,1.396437276923734316e-08,-2.415762025975709548e-07,1.397477511488887103e-08,1.882366547079072916e-07,2.269185870318324305e-07,-1.575355383920395980e-07,1.611658433375851018e-07,-6.631193372186316992e-08,2.867237780534992453e-09,-1.680990777686020010e-07,-2.532145693123766250e-08
-1.040980635025334777e-07,-9.071086992662458215e-08,4.426137078553438187e-03,-1.539085587864974514e-07,1.196134369820356369e-03,-4.901616834104061127e-03,6.924960296601057053e-03,1.063460134901106358e-03,-1.638596387465440785e-07,1.705698196019511670e-07,1.398214604705572128e-02,1.043011900037527084e-03,1.928939367644488811e-03,-5.150245968252420425e-03,-2.628934453241527081e-04,-2.437114948406815529e-03,1.853948106145253405e-07,1.656398893601362943e-07,-3.105686046183109283e-03,1.188254682347178459e-03,-1.815192689491595956e-07,-9.469688677654630737e-08,-2.914035227149724960e-03,-1.447447601776730153e-07,1.153104562945372891e-07,1.049028127454221249e-03,8.258270681835711002e-04,6.402290426194667816e-03,1.249892171472311020e-02,-8.485327474772930145e-03,1.314232032746076584e-02,1.346315490081906319e-03
5.804497149597409589e-08,1.566652798601353425e-07,1.621627205850018072e-07,3.617586585846765956e-08,-2.655099962112217327e-08,-7.493792253399078618e-08,-1.469967543243910768e-07,3.353655841920044622e-08,1.033361698432599951e-07,1.615369740193273174e-07,1.710490238338024938e-07,-1.626379741992423078e-07,-4.523780461340720649e-08,-8.559193531709752278e-08,2.230015638815530110e-07,-6.446030198503649444e-08,-5.815337189574165677e-08,2.922150343920293381e-08,-6.174325761776344734e-08,-1.774011622046600678e-07,1.764617896249376372e-10,1.605810382443451090e-07,-4.102058781541018107e-08,5.182487328170282126e-08,1.085837197933869902e-07,2.073770133392827120e-08,-4.075246096135742846e-08,-1.554584088125920971e-07,-1.354353997840007651e-07,1.067582289238089288e-07,-6.340107461255684029e-08,-7.273526847484390601e-08
-1.854996822814314328e-09,5.524647761490086850e-08,3.667685746222559828e-07,6.430590815398318227e-08,-1.795610984345330507e-07,2.478424221408204176e-07,1.442325446987524629e-04,6.330847668323258404e-07,3.542416848745233438e-08,5.543306613731147081e-08,-1.160623196483356878e-05,4.022342068310535979e-07,1.534404390213239822e-07,3.787808395827596541e-07,8.891827292245579883e-07,-4.530208243522793055e-04,-2.628473438903711212e-08,1.635408040101538063e-07,6.000176426823600195e-07,4.685749590862542391e-04,1.601739398893187172e-07,1.879436126728251111e-07,-7.814794003024871927e-07,-5.237152933545985434e-08,-1.630309753863912192e-07,-2.192273207413109049e-08,3.350127144585712813e-07,-1.764638000167906284e-07,-1.052640163834439591e-05,-2.059093020534419338e-07,-1.467071086835858296e-07,4.660712438635528088e-04
1.549281165580396191e-07,-9.775448006621445529e-08,-2.875358331948518753e-04,-1.211891209607074416e-08,-7.076941546984016895e-04,8.275677682831883430e-04,4.847421776503324509e-03,-5.240504397079348564e-04,1.862759688719961559e-07,-3.824414673836429301e-10,-2.511761337518692017e-02,-4.959324724040925503e-04,-9.555104770697653294e-04,1.364213298074901104e-03,-2.991534129250794649e-04,-2.163085341453552246e-02,7.453301975601789309e-09,-5.599793406751985003e-10,2.169861400034278631e-04,2.229163423180580139e-02,-6.250810713481769199e-08,-1.262043891614439417e-08,1.380930654704570770e-03,6.604995661518842098e-08,6.095443438880465692e-08,-5.037571536377072334e-04,-2.279883628943935037e-04,-9.942450560629367828e-04,-2.525504119694232941e-02,1.434010686352849007e-03,-1.986576477065682411e-03,2.268620207905769348e-02
1.435071617095218244e-08,1.674935390383325284e-08,-6.764903082512319088e-04,-1.060086844972829567e-07,3.642116498667746782e-04,-5.396241787821054459e-03,2.483614720404148102e-02,4.199730756226927042e-04,-1.497713242315512616e-07,-1.671883893550329958e-07,-1.724264584481716156e-02,4.199098329991102219e-04,7.109054131433367729e-04,-2.462756237946450710e-04,-6.537086516618728638e-02,1.384407281875610352e-02,1.409003829166977084e-07,8.920549987578851869e-08,-3.622248768806457520e-02,9.743073023855686188e-03,8.338378876260321704e-08,-2.514873074233037187e-07,-3.803455620072782040e-04,2.749784577815717057e-08,1.886543685714059393e-07,4.220890696160495281e-04,3.513244155328720808e-04,-1.416785060428082943e-03,-1.687408238649368286e-02,-4.988560976926237345e-05,-3.707504598423838615e-03,1.171816978603601456e-02
1.613115188092706376e-07,2.393389877397567034e-07,-3.025292727443229523e-08,1.404507372626540018e-07,-2.282910855910813552e-07,-1.356610795482993126e-03,1.587236416526138783e-03,-2.684404876163171139e-07,-5.076513431845341984e-08,-2.201130797629957669e-07,-1.491586910560727119e-03,1.233251509802357759e-07,7.652966305613517761e-04,-4.351248207967728376e-04,5.439424626274558250e-07,-1.752136042341589928e-03,6.408296826521109324e-08,4.078828297338077391e-08,3.078472730067005614e-07,1.763977226801216602e-03,1.751555203099997016e-07,-6.904766536308670766e-08,-3.889295621775090694e-04,-5.144601189499553584e-08,-2.287033424863693654e-07,-3.005997655236569699e-07,-4.714114965054250206e-08,-3.764673124351247679e-07,-1.498143188655376434e-03,-5.971451173536479473e-04,5.552468564928858541e-07,1.756451092660427094e-03
-4.091182859156106133e-08,-1.358432228926176322e-07,-9.366140751865259517e-09,-1.633434294490143657e-07,1.919068459699246887e-08,-2.215050329823498032e-07,1.336905199877946870e-07,2.393085907215208863e-08,4.857271207470148511e-08,-1.882077782511260011e-07,-1.731685017603012966e-08,-7.999013007520261453e-08,-6.099526217440143228e-08,-3.638976764364088012e-08,-2.572366213371424237e-07,6.485345949158727308e-08,-1.397242321843350510e-08,1.637697550904704258e-07,-1.057423215655717286e-08,-9.156009639355033869e-08,4.091749161716506933e-08,7.438490712274870020e-08,2.288514338033564854e-07,6.816655684360739542e-08,-5.796151825165907212e-08,-3.938345116694108583e-08,6.312884437420507311e-08,1.419663249180302955e-07,-1.193879199945513392e-07,-5.306405537197633748e-09,-1.163688807537255343e-07,-2.475087796938169049e-07
-1.628414167953451397e-07,6.416556885824320489e-08,7.128180357085511787e-08,1.473295374587735296e-10,4.339870240954724068e-09,2.220043029410589952e-07,-4.315794654985438683e-08,2.142970023655266232e-09,5.802146674227515177e-08,1.358602190748570138e-07,2.683880850895548065e-08,-7.255701595099139922e-10,-1.053746530033095041e-07,4.370472339587649913e-08,-8.111065596949629253e-09,1.072529842716107851e-09,-1.623520802240818739e-07,-6.124530926854276913e-08,-6.795594487130074413e-08,-1.496915018606159720e-07,-2.448350358008610783e-07,-1.635937110222585034e-07,-4.840801981487174999e-09,5.783158130157062260e-08,-1.311649233670664216e-09,1.629726682494947454e-07,1.583451734177288017e-07,5.279799708546306647e-08,2.332540383065406786e-08,9.878525730755427503e-08,-6.345494796278217109e-08,-7.319196981825371040e-08
-1.453593370115413563e-07,1.643738443135589478e-07,-1.044654527504462749e-05,5.584960760529611434e-08,-1.004061047638060700e-07,-2.776103610813152045e-05,-4.384324420243501663e-04,3.407868476301700866e-08,1.746495286170102190e-07,1.659159067912696628e-07,3.584925783798098564e-03,2.324798202835154370e-07,7.226820453070104122e-04,-3.862348676193505526e-04,-2.130173146724700928e-03,4.313095472753047943e-03,-1.624091794383275555e-07,1.762863077736653850e-09,3.704559640027582645e-04,-4.732286557555198669e-03,-9.879760654030178557e-08,2.732193493670820317e-08,-4.808648664038628340e-04,1.096714967729894852e-07,-1.642446534333430463e-07,8.668179418691579485e-08,2.188815955150857917e-07,-1.792466355254873633e-04,3.535943804308772087e-03,1.413244899595156312e-04,8.712004637345671654e-04,-4.642114508897066116e-03
-1.532045157404127167e-09,1.816999741777181043e-07,8.545187301933765411e-05,-1.583629654078322346e-07,-2.036261150806240039e-07,-1.658189692534506321e-03,1.799754681997001171e-03,-1.432860301520122448e-07,3.538536930136615410e-08,-2.312258260417365818e-07,-1.724363653920590878e-03,3.358044011747551849e-07,1.283604186028242111e-03,-1.064686570316553116e-03,1.091862486646277830e-06,-1.884669531136751175e-03,4.094304628665668133e-08,-2.976629076556491782e-08,-3.554178110789507627e-04,1.889841980300843716e-03,4.169650225094301277e-08,-1.632838007026293781e-07,-1.031660474836826324e-03,6.290095910799209378e-08,-2.518486326152924448e-07,5.505643230208079331e-07,-3.223651035000330012e-08,-7.376756911980919540e-07,-1.728990231640636921e-03,-1.132804318331182003e-03,2.933052019216120243e-04,1.885979785583913326e-03
-6.991363932229432976e-08,-1.392939168454176979e-07,1.652523205848410726e-04,1.012901851282776988e-08,-7.669049182368326001e-07,2.928196045104414225e-04,1.186600784421898425e-04,-9.622582410884206183e-07,1.072247535205406166e-08,1.173849795144121799e-09,-1.414666301570832729e-03,-7.347314294747775421e-07,-8.984841406345367432e-05,-6.833197403466328979e-07,-1.850416156230494380e-04,5.042339325882494450e-04,2.903963647327145736e-08,-1.773813522731870762e-07,-3.013599780388176441e-04,-5.217630532570183277e-04,1.648954395250257221e-07,1.639207880543835927e-07,-1.154738669129073969e-07,5.683904191755573265e-08,-6.902556748400456854e-08,-8.626667522548814304e-07,-8.001034643712046091e-07,1.599146198714151978e-04,-1.375191262923181057e-03,9.238381608156487346e-05,2.133832276740577072e-05,-5.337299662642180920e-04
8.147792840418333071e-08,2.638081575412343227e-08,-7.501703221350908279e-04,-8.604448709093048819e-08,-1.093093538656830788e-03,1.331226783804595470e-03,-1.606690697371959686e-03,-1.179691404104232788e-03,-1.084355005787074333e-07,3.133871828708834073e-08,3.896655689459294081e-04,-1.187195302918553352e-03,-7.729145581834018230e-04,6.252276361919939518e-04,9.584028739482164383e-04,1.371984952129423618e-03,4.290852473332051886e-08,-6.172285083039241727e-08,1.258337753824889660e-03,-1.724333153106272221e-03,1.622703109660506016e-07,-1.445248045683911187e-07,6.668099085800349712e-04,-8.570018650289057405e-08,-3.753464383748905675e-08,-1.184001215733587742e-03,-1.119758468121290207e-03,-5.590005312114953995e-04,7.553968462161719799e-04,8.964122389443218708e-04,-1.019643852487206459e-03,-1.545136794447898865e-03
-3.196575448782823514e-09,1.590126998962659854e-07,-2.887771988753229380e-04,-5.413183501445928414e-08,1.976599008912671707e-07,7.692094368394464254e-05,-7.671735365875065327e-04,8.038682040023559239e-07,1.595107903540338157e-07,-9.031685976879089139e-08,1.472784671932458878e-03,2.234197040706931148e-07,-3.185028617735952139e-06,1.087518830900080502e-05,-1.232266309671103954e-03,1.394562888890504837e-03,2.266449712351459311e-07,2.928560327575269184e-08,2.004958130419254303e-02,1.170640971395187080e-04,-1.516105214705021353e-07,2.395709373104182305e-07,5.371362590267381165e-07,4.162429334542139259e-08,1.375377536305677495e-07,8.911932241062459070e-07,-3.361150646696842159e-08,-2.654786476341541857e-05,1.353599363937973976e-03,6.128144916146993637e-03,-1.145455520600080490e-02,-6.233339663594961166e-04
-5.220603682687396940e-08,-1.552328825482618413e-07,-2.499330148566514254e-04,1.887829057523049414e-07,8.128656077133200597e-07,-3.805276064667850733e-04,5.522687933989800513e-05,1.146312479249900207e-05,-5.884117371124375495e-08,-5.394494095867230499e-08,-1.777699915692210197e-03,1.188562691822880879e-05,3.421716392040252686e-04,-1.728541246848180890e-04,3.289361950010061264e-03,-2.155553083866834641e-03,-1.515910841298762080e-09,2.401540655228018295e-08,-1.461040345020592213e-03,2.423184923827648163e-03,3.079232513414353889e-08,-1.317254305632786782e-08,-2.119429118465632200e-04,-1.780476139856546069e-07,-1.646099434537973139e-07,1.228429573529865593e-05,3.668242243293207139e-06,-1.877372269518673420e-03,-1.714076381176710129e-03,1.975543564185500145e-03,-2.967827953398227692e-03,2.469538245350122452e-03
1.493759005377626181e-10,3.101165546581796661e-08,1.663498920834172168e-07,-1.086263452521052386e-07,1.858596334614048828e-07,-2.445397626615886111e-07,-9.844877979503507959e-08,-6.068577107498640544e-08,-3.614605148527516576e-08,-5.806557723531113879e-08,1.664277675672565238e-07,-6.395921303692375659e-08,1.354428604827262461e-07,7.070514840279429336e-08,1.880821685062983306e-07,-5.644222511591578950e-08,1.636045112718420569e-07,6.593275259092479246e-08,8.461201161935605342e-08,-8.275944196611817461e-08,5.137693293022493890e-08,5.170476313764993392e-08,1.594117975400877185e-07,2.213324989952525357e-08,2.831542289527533285e-08,1.624325278726246324e-07,5.493263088851563225e-08,1.630296964094668510e-08,-1.406419585237017600e-07,-1.088211298849728337e-08,1.078959641631627164e-07,1.816888612893308164e-07
-5.784240997286360653e-08,-2.845720281641206384e-08,-5.382907275475190545e-08,3.616787935811771604e-08,-6.700238941448333208e-08,7.519104627817796427e-08,-1.822250936811542488e-07,-1.861146472492691828e-07,5.804869473990947881e-08,2.830861589586675109e-08,-1.480500486650271341e-07,1.623707817088870797e-07,3.273705928563686030e-08,-1.478270519328361843e-07,-2.317015246333653522e-09,1.001870697514561925e-09,3.084683797283105378e-08,6.148439268827132764e-08,2.050209388926305110e-07,1.721214175631757826e-07,1.223347378953576481e-08,-8.754987135262126685e-08,1.730192735749369604e-07,6.409255348671649699e-08,-2.527456577361419932e-10,2.746562088873361063e-08,-6.912078021059642197e-08,1.452611098073930407e-08,-1.529621016516102827e-07,5.411475356709161133e-08,5.144476489249427686e-08,-2.503096823147643590e-07
6.940080510275947745e-08,-2.140033217301606783e-07,2.277401043102145195e-03,-1.006611114462430123e-07,-3.127853560727089643e-04,5.693758837878704071e-03,-3.784122318029403687e-02,-3.327567246742546558e-04,1.651348071618485847e-07,-2.990404368574672844e-08,-9.262794256210327148e-02,-3.297330404166132212e-04,-1.239311182871460915e-03,2.559686254244297743e-04,3.950620591640472412e-01,-2.417035698890686035e-01,-1.385187715641222894e-07,2.394686191564687761e-07,2.911410331726074219e-01,2.017887234687805176e-01,-1.653638861398576410e-07,-1.620810365920988261e-07,3.082152106799185276e-04,3.253651925660960842e-08,1.007055843160742370e-07,-3.324520075693726540e-04,-2.784433308988809586e-04,3.186448477208614349e-03,-9.199681878089904785e-02,5.807260423898696899e-02,-1.592008024454116821e-01,1.905340552330017090e-01
1.629233707944877096e-07,1.981842601139760518e-08,1.318354974500834942e-03,1.672660516760515748e-07,1.225178891672840109e-07,4.355424607638269663e-04,-2.635966229718178511e-04,-1.378695401399454568e-06,-5.727945762146191555e-08,-1.686191808403236791e-07,2.157372655346989632e-03,-1.302742589359695558e-06,-4.085067193955183029e-04,1.160355823230929673e-04,1.283087860792875290e-02,2.804845804348587990e-03,-5.181286866218215437e-08,-3.521332914147023985e-08,1.967701688408851624e-02,5.448103765957057476e-04,-3.465386200218745216e-08,-3.099781764603903866e-08,1.653700164752081037e-04,-3.461343212052270246e-08,-2.826336142902619031e-08,-2.722209444527834421e-07,-4.010057637060526758e-07,2.026389818638563156e-03,2.094927476719021797e-03,-1.759349601343274117e-03,-1.015928387641906738e-02,-7.289279892574995756e-05
2.873627380495236139e-08,-1.636525155390700093e-07,7.742462782012182743e-10,-1.980452607464044945e-10,-2.930616993523926794e-08,1.108999896359819104e-07,2.188935468439012766e-07,2.405487720125165652e-08,-3.469208209594398795e-08,-5.811960690493833681e-08,1.016909134676780013e-08,1.866364698344114004e-07,2.065541210294341568e-10,-1.531489033368416131e-07,5.756108123478043126e-08,-2.398073490894603310e-07,2.872649851326514181e-08,-1.778180234168758034e-07,-1.865821133151257527e-07,1.808320746476965724e-07,1.598449586026617908e-07,1.634589068544300972e-07,-1.789777286376192933e-07,3.632406375686514366e-08,-1.618087139831914101e-07,-1.131579026036888536e-07,-5.187521079363932586e-09,1.456402856092608999e-07,-1.312656507934661931e-07,-8.908423154707634239e-08,1.605863246822991641e-07,8.271073426158181974e-08
5.779420675366964133e-08,1.394332649340412900e-08,1.865042946747053065e-07,6.140056285630635102e-08,9.075888129927989212e-08,-1.521133299320354126e-07,-3.185569497077267442e-08,1.550677382056164788e-07,2.865440684729492204e-08,4.129703512489868444e-08,-1.379275715862604557e-07,1.587206668318685843e-07,-1.445190633830861771e-07,1.829869233915815130e-07,8.902649284436847665e-08,-9.086722485562859219e-08,3.634373157979098323e-08,-5.814285586325240729e-08,1.500407051935326308e-07,7.487086861601710552e-08,-1.595582403979278752e-07,1.631606494356674375e-07,-1.549861821104059345e-07,-3.635237177945782605e-08,-1.529849527059923275e-07,-1.019020672288206697e-07,-1.662203743535428657e-07,4.529039188128081150e-08,-2.005694810236491321e-08,-1.498897148621836095e-07,2.247268042765426799e-07,5.749798148713125556e-08
2.026062162485686713e-07,-5.508278277943645662e-08,-6.222716183401644230e-04,1.750414497792007751e-07,-5.761829670518636703e-04,6.952401599846780300e-04,-1.095116953365504742e-03,-7.026009843684732914e-04,1.672719491807583836e-07,-4.789848517816608364e-09,3.030132735148072243e-03,-7.159517845138907433e-04,-2.760843781288713217e-04,2.777798508759588003e-04,7.026761304587125778e-04,1.485006418079137802e-03,2.271562493660894688e-08,-1.659491033478843747e-07,1.429362921044230461e-03,-1.621833536773920059e-03,-5.921511103679222288e-08,1.502596234104203177e-07,2.800570218823850155e-04,-8.885260527335958614e-09,1.440638044414299657e-07,-7.110115257091820240e-04,-6.624984671361744404e-04,-3.901537857018411160e-04,3.018936840817332268e-03,1.477087353123351932e-04,-4.743097524624317884e-04,-1.566084683872759342e-03
-4.125686103861880838e-08,-1.882220459492600639e-07,-2.267778711484425003e-07,1.634731745525641600e-07,2.481496608197630849e-07,9.438588932653146912e-08,-8.587714006580426940e-08,1.021252913346870628e-07,5.779162037811147457e-08,-2.167637735972505197e-10,-2.086068207063362934e-07,2.761871620293732121e-08,-1.563561369266608381e-07,-1.444561235075525474e-07,-1.590473601709163631e-07,-1.502843076650606235e-07,-1.675082330621080473e-07,-1.636044828501326265e-07,2.492726309810677776e-07,8.802056328249818762e-08,-5.151473558839825273e-08,-1.405600436044096568e-08,1.593623579765335307e-07,-3.634404421859471768e-08,3.606352549923030892e-08,-2.506194896056967991e-08,9.712368864711606875e-08,1.516635705911539844e-07,2.366290487998412573e-07,-2.185973642099270364e-07,-2.236882608031010022e-07,-9.991624239091834170e-08
1.402045590737088787e-08,2.850547886623644445e-08,1.572404499938784284e-07,1.594556948703029775e-07,2.024898719810153125e-07,-1.874476254215551307e-07,5.343526865431158512e-08,1.629362031962955371e-07,-1.587457205687314854e-07,-5.192379504137534241e-08,4.470928871569412877e-08,-1.554636241962725762e-07,4.837056866158206958e-10,7.243207988949507126e-08,2.909525953498359740e-08,-6.833948162920933100e-08,-6.108916039693212952e-08,4.109574547328520566e-08,7.120629419432589202e-08,1.908665581140667200e-07,-1.800105451366107445e-07,5.565529903606147855e-08,2.662292430954948941e-08,-1.626235928142705234e-07,8.856779487587118638e-08,-4.938240749652322847e-08,8.018666619591385825e-08,1.495661621220278903e-07,-2.400787195711018285e-07,1.028940630476427032e-07,1.553918309582513757e-07,-1.516173995241842931e-07
1.501862811892351601e-07,-1.396175690615564235e-07,8.784422789176460356e-08,-1.738602009027090389e-07,-3.409445810120814713e-07,-1.365495147183537483e-03,1.597227994352579117e-03,-2.266128262817801442e-08,3.348780097667258815e-08,4.351764104626454355e-08,-1.515519572421908379e-03,1.108299407803770009e-08,7.461055065505206585e-04,-4.090796282980591059e-04,-1.016294731925881933e-06,-1.776868477463722229e-03,1.006269130243708787e-07,5.504964661895428435e-08,6.370482878992334008e-07,1.787011395208537579e-03,7.051582429085101467e-08,2.637855445186687575e-08,-3.598066105041652918e-04,-1.465736403361006523e-07,1.603622052925857133e-07,3.304861095898559142e-08,4.426495614495706832e-09,-6.659320206381380558e-07,-1.518861274234950542e-03,-5.727046518586575985e-04,-2.521864530535822269e-07,1.783145475201308727e-03
2.250970112527284073e-07,1.873287658327171812e-07,-1.004369210022559855e-07,-1.442670480855667847e-07,8.862842015844307753e-09,6.751512415803517797e-08,-9.696908091427758336e-05,-2.303187187635558075e-07,7.001051471888786182e-08,5.848691131404848420e-08,4.047574293508660048e-07,2.563631795737819630e-08,-1.293134133106832451e-08,-1.319648674780182773e-07,-3.605494782732421299e-07,2.695994044188410044e-04,-4.878504000771499705e-08,-5.276721637414993893e-08,4.813426812688703649e-08,-2.722985227592289448e-04,-6.240159677872725297e-08,-1.600478185537212994e-07,3.658053344679501606e-07,-5.006896586223774648e-08,-3.144826621337415418e-08,4.202073000669770408e-08,-1.067018615685810801e-07,-7.707520666144773713e-08,1.802041111886865110e-07,-2.298175587611694937e-07,-7.011446001570220687e-08,-2.741881762631237507e-04
-1.575083672378241317e-07,-2.456893177793517680e-08,1.299299183301627636e-03,4.583574853000982330e-09,7.148290137592994142e-07,-1.196986180730164051e-03,-3.440467698965221643e-04,9.724246774567291141e-05,1.484971789977862500e-07,1.561929110494020279e-07,1.268110796809196472e-02,1.301198644796386361e-04,1.105297007597982883e-03,-9.569925023242831230e-04,-3.483079746365547180e-02,4.560764878988265991e-02,-2.130093790242426621e-08,-2.800469189878640464e-08,2.677923534065485001e-03,-1.244230009615421295e-02,-1.687294997054777923e-07,1.886606071366259130e-08,-9.817488025873899460e-04,5.614008102838852210e-08,1.669344698029817664e-07,1.194582000607624650e-04,2.625588967930525541e-04,2.482417039573192596e-03,1.514875143766403198e-02,-7.238288526423275471e-04,2.977170515805482864e-03,-3.903895150870084763e-03
1.473402875262763700e-07,-1.520815544608922210e-07,-5.042343673267168924e-06,1.677709065006638411e-07,-1.576525243685011901e-09,6.881001809233566746e-06,-7.499377825297415257e-04,-2.635507883042009780e-07,1.629861259289100417e-07,2.399300456090713851e-07,3.718139138072729111e-03,-4.696713773455485352e-08,4.468818078748881817e-04,-4.451073764357715845e-04,-2.093381481245160103e-03,4.443576093763113022e-03,1.658577275520656258e-07,1.023555711299195536e-07,3.237841301597654819e-04,-4.752012435346841812e-03,1.062586392208686448e-07,5.624816878935234854e-08,-5.253712297417223454e-04,-2.858308079112248379e-08,-1.049367099881237664e-07,4.920014617937340518e-08,-1.675068084239228483e-08,-1.362028415314853191e-04,3.673594910651445389e-03,1.143512199632823467e-04,9.751509060151875019e-04,-4.689189139753580093e-03
-1.053751930157886818e-07,-2.511040122499252902e-07,2.483378048054873943e-04,3.056874575690926576e-08,-3.617716356529854238e-05,-5.083134965389035642e-05,-3.177255392074584961e-02,-8.462891855742782354e-05,1.506569304865479353e-07,1.389682040553452680e-07,4.094154108315706253e-03,-9.500762098468840122e-05,-1.690746139502152801e-04,-1.181037150672636926e-04,1.810444295406341553e-01,-5.167514551430940628e-03,-5.528867674797766085e-08,-1.995898770701387548e-07,1.678826212882995605e-01,-7.984144613146781921e-04,5.774685618575858825e-08,-1.090582202323275851e-07,-1.362478506052866578e-04,-2.869202875288578980e-09,9.864854177976667415e-08,-9.314462658949196339e-05,-7.239124533953145146e-05,3.248244465794414282e-04,2.916221274062991142e-03,4.665430262684822083e-02,-6.928963214159011841e-02,-1.553085516206920147e-03
5.927143664763434572e-09,-1.622790932742645964e-07,-2.423608530079945922e-04,7.091226450484100496e-08,6.401939754141494632e-05,6.149534601718187332e-04,2.453940687701106071e-04,9.440603025723248720e-05,-1.488528766913077561e-07,3.367248524455135339e-08,1.185427978634834290e-01,9.587180102244019508e-05,2.528895674913655967e-05,1.388562086503952742e-04,-2.948028147220611572e-01,2.427476793527603149e-01,-2.277020350049951958e-09,8.257669747990803444e-08,-1.182309165596961975e-01,-1.826486289501190186e-01,-2.585333191973404610e-08,5.491969545801111963e-08,8.879890083335340023e-05,-1.757656775680516148e-07,1.965606202247727197e-07,9.555145516060292721e-05,9.903717727866023779e-05,-1.406147493980824947e-04,1.204313412308692932e-01,-5.395082407630980015e-04,4.256234690546989441e-02,-1.707622408866882324e-01
1.578263919554956374e-07,-1.641473232893986278e-07,1.199482358060777187e-03,1.873847850220045075e-07,-3.557328511760715628e-07,4.648887552320957184e-04,-2.710475528147071600e-04,-2.904993436914082849e-07,1.787051502333270037e-07,5.405438230354775442e-08,1.875651651062071323e-03,-3.043947174319328042e-07,-4.030674172099679708e-04,8.457517105853185058e-05,7.498727180063724518e-03,2.516480162739753723e-03,6.885153425173484720e-08,9.013121626821885002e-08,1.199310179799795151e-02,-2.495326567441225052e-03,6.471645264127801056e-08,4.638854278482540394e-08,1.307754428125917912e-04,-1.004149936534304288e-07,-1.630874635338841472e-07,-4.252894996170653030e-07,-1.714754631620962755e-07,1.928513520397245884e-03,1.801096717827022076e-03,-1.868251478299498558e-03,-2.912549301981925964e-03,-2.462747506797313690e-03
