1.175930833596794400e-06,-2.928060496287798742e-07,1.947654482137295417e-07,-1.113489929593924899e-06,1.747647644378957921e-07,-2.150477200757450191e-07,-2.310835043317638338e-07,-3.805945993917703163e-07,-1.130896635004319251e-06,3.375180597231519641e-07,-2.600986590550746769e-07,-2.108408736489764124e-08,-6.628137043662718497e-07,-9.347582476948446129e-07,-5.143086809766828083e-07,-2.174952896893955767e-06,9.542600309941917658e-07,-1.391767057157267118e-07,-9.391163189320650417e-07,-1.198787487055597012e-07,-8.688689945302030537e-07,-6.864813428819616092e-08,-1.267660877601883840e-06,3.035708687093574554e-06,2.279573294572401210e-07,2.329991502847406082e-06,1.051278786690090783e-06,1.687658937044034246e-06,-2.281154678485108889e-07,-1.488352410206061904e-07,2.445096640713018132e-07,-4.002881155429349747e-07,-1.464491532487954828e-07,-1.483896539866691455e-06,-1.770457856764551252e-06,3.420214852667413652e-06,-1.065277215093374252e-02,1.202329620718955994e-02,-3.558818949386477470e-03,-2.110508643090724945e-02,1.887151598930358887e-02,2.041348069906234741e-02,-3.325482457876205444e-02,1.037200260907411575e-02,-2.613869030028581619e-03,-2.002997882664203644e-02,-1.623733192682266235e-01,1.042108517140150070e-02,5.597172677516937256e-02,5.357379093766212463e-03,-1.863325946033000946e-02,5.786919500678777695e-03,-2.642584405839443207e-02,-2.044164948165416718e-02,1.827448233962059021e-02,4.710090346634387970e-03,4.077171906828880310e-03,2.154711633920669556e-02,8.298764005303382874e-03,5.287124309688806534e-03,2.839753776788711548e-02,2.658159472048282623e-02,-4.132661502808332443e-03,-1.983580738306045532e-02,-6.355900317430496216e-03,8.221490308642387390e-03,-6.738122552633285522e-02,-2.113957656547427177e-03,-6.394433323293924332e-03,-3.433713456615805626e-03,6.596720218658447266e-02,-3.793926443904638290e-03
1.663494572312629316e-06,-2.254815569813217735e-07,-5.655760446643398609e-07,-3.920091273812431609e-07,4.994410218728262407e-09,4.890108016297745053e-07,-2.749646625943569234e-07,-1.192192371490818914e-06,1.792315345028328011e-07,-5.278842536426964216e-07,-1.315232367460339447e-07,2.994185933857806958e-06,1.144692873822350521e-06,-8.780277767073130235e-07,1.287493432755582035e-06,-1.022159153762913775e-06,2.504131089153815992e-06,-3.999689397460315377e-07,-6.929711844350094907e-07,-5.299109488987596706e-07,9.480985454501933418e-07,-1.208340904668148141e-06,-4.423719417445681756e-07,4.499744576946795860e-08,1.557796309725745232e-07,-4.470551857593818568e-07,3.414064053686161060e-07,2.186181689012300922e-07,-4.349188884589239024e-07,3.880072199535788968e-06,1.081595883078989573e-06,-4.164717459786970721e-09,-4.474012200716970256e-07,1.649889469490517513e-07,3.039473313037888147e-07,1.245581756847968791e-06,1.202362123876810074e-03,3.912530094385147095e-02,1.013529472402296960e-04,2.607491333037614822e-03,8.498693816363811493e-03,1.687886007130146027e-02,-2.822533808648586273e-02,3.600050881505012512e-02,2.542136062402278185e-04,-7.477280683815479279e-03,-4.863325506448745728e-02,9.721056558191776276e-04,3.559936955571174622e-02,-4.988591535948216915e-04,-1.467101182788610458e-02,-4.848498501814901829e-04,-3.428692743182182312e-02,-1.520582754164934158e-02,2.030883170664310455e-02,-2.719275944400578737e-04,-1.874678273452445865e-04,1.124364323914051056e-02,2.194057591259479523e-02,-3.812219074461609125e-04,-2.548403851687908173e-02,3.533086553215980530e-02,1.873249129857867956e-04,-1.234876178205013275e-02,-1.301057729870080948e-02,4.329118877649307251e-02,-4.208211600780487061e-02,1.444240682758390903e-03,4.262230545282363892e-02,-1.413550635334104300e-04,4.058323428034782410e-02,1.252977028798341053e-07
-7.233054333255495294e-08,-1.856349172157933936e-07,-1.114448195949080400e-06,3.560132100233204255e-08,1.644114888676995179e-07,4.093025381735060364e-06,-1.708928152766020503e-06,1.611464881534629967e-06,-1.889299596768978518e-06,-8.695799351698951796e-07,-1.419575852423804463e-07,-2.334881855858839117e-06,-5.523396566786686890e-07,-8.569371061639685649e-07,-7.552260967713664286e-07,-2.920664599059819011e-07,-5.911000471314764582e-07,-8.818514629638229962e-07,-1.287519921788771171e-06,6.139813194749876857e-06,1.516183232297407812e-07,8.914407771953847259e-07,-5.968439040771045256e-07,1.724386606838379521e-06,4.412109433360456023e-07,4.689948411851219134e-07,-5.974266059638466686e-08,7.398885486509243492e-07,-2.389675444192107534e-07,-1.232803583661734592e-06,-2.552536216171574779e-06,9.173070907309011091e-07,1.607214699106407352e-07,-1.269484187105263118e-06,-4.800863262488519467e-09,2.610571982586407103e-06,-3.923121839761734009e-03,-5.504345521330833435e-03,-1.890744664706289768e-03,3.138836007565259933e-03,-5.284810438752174377e-03,-2.195111592300236225e-04,1.703604706563055515e-03,-3.796165343374013901e-03,5.437870044261217117e-03,5.209036171436309814e-03,-6.473556160926818848e-02,1.170472009107470512e-03,1.440037786960601807e-02,3.938706126064062119e-03,4.225893877446651459e-03,3.415059763938188553e-03,2.629132475703954697e-03,4.048783332109451294e-03,-1.033822889439761639e-03,1.873999019153416157e-03,6.582554779015481472e-04,-3.884281730279326439e-03,-1.243882812559604645e-03,3.125242423266172409e-03,1.068497896194458008e-01,-1.638657762669026852e-03,-3.686479176394641399e-04,4.500199574977159500e-03,7.513669319450855255e-03,3.902443870902061462e-02,-2.412493526935577393e-02,1.265094801783561707e-02,2.037542685866355896e-02,-1.976882806047797203e-03,2.059138566255569458e-02,-2.954795723780989647e-03
1.310078573624195997e-06,-1.118898111940325180e-07,-9.544896784063894302e-08,1.847018360479069088e-08,8.254460226453375071e-08,-4.627193845863075694e-07,-9.029993464082508581e-08,-2.468866000526759308e-07,6.981977773712344515e-10,-1.345878501979314024e-07,-4.065501286731887376e-07,-8.012919749944558134e-08,-7.582293903851677896e-08,8.624647875876689795e-07,5.555089614972530399e-07,3.877021583775785984e-07,7.499117771203600569e-08,9.219410124217120028e-09,5.762788646279659588e-07,-1.240108957745178486e-07,-4.938810320709308144e-07,6.312089340099191759e-08,-4.261892172507941723e-07,-1.400215943192506529e-08,-6.030368382425876916e-08,-1.356616223802120658e-07,3.000377191142433730e-08,-9.553881454849033616e-07,8.640497384249101742e-08,-4.105442599211528432e-07,1.968507064020741382e-07,-2.139539532208800665e-07,2.099333897831456852e-07,1.967677754066698981e-08,-1.042868476019975787e-07,2.873437665584788192e-07,1.936412998475134373e-03,3.062835021410137415e-04,2.182455034926533699e-03,3.425349295139312744e-02,1.698900759220123291e-01,-4.811353981494903564e-02,-8.292019367218017578e-03,4.380304599180817604e-04,1.888289931230247021e-03,-1.724942028522491455e-01,-1.771816797554492950e-02,-2.685822313651442528e-03,1.284960657358169556e-02,-1.349227852188050747e-03,-1.472673416137695312e-01,-1.971655292436480522e-03,6.092034163884818554e-04,-1.605783402919769287e-01,1.287162750959396362e-01,-1.143740839324891567e-03,-1.254754490219056606e-03,1.666628569364547729e-01,2.004652778850868344e-04,-1.148000126704573631e-03,-1.101775839924812317e-01,-5.301741766743361950e-04,1.387661090120673180e-03,-1.656216979026794434e-01,-6.484376732259988785e-03,2.918452024459838867e-02,-2.303564175963401794e-02,1.779582817107439041e-03,1.088800560683012009e-02,1.603613025508821011e-03,1.829334534704685211e-02,1.438576495274901390e-03
-4.990104116586735472e-07,2.147250910411457880e-07,1.325418992337290547e-07,-3.149892791043384932e-08,1.027634581873826392e-07,-1.188803295804063964e-07,-3.288095342668384546e-07,-1.338669051165197743e-07,2.194484522988204844e-07,-3.740038678756718582e-08,1.970970799902715953e-07,6.004343617860286031e-07,1.800608941948667052e-07,-3.012314380157476990e-07,1.017945265857633785e-07,2.861344512439245591e-07,1.259226820593539742e-07,-1.887351714913165779e-07,-2.742106346431683050e-07,4.470356884667125996e-08,8.592346745217582793e-08,-4.386916074849978031e-08,5.482377787302539218e-07,4.392925347929121926e-07,-7.256068101924029179e-08,-1.356566485810617451e-07,-2.199605297903417522e-08,6.756048378520063125e-07,-1.578387696099525783e-07,2.461245571794279385e-07,-5.880744993191910908e-07,-1.524593216117864358e-07,3.592638364580125199e-08,1.868502508273195417e-08,3.910276404894830193e-07,1.276605132716213120e-07,-7.743177004158496857e-03,-1.433320267096860334e-05,-4.737041424959897995e-03,-1.657856814563274384e-02,-1.049828752875328064e-01,1.233849208801984787e-03,7.543615065515041351e-03,-1.409639226039871573e-04,-4.543876275420188904e-03,1.138822659850120544e-01,3.396447980776429176e-03,7.663906086236238480e-03,8.943825378082692623e-05,5.537825170904397964e-03,8.023397624492645264e-02,5.643450189381837845e-03,2.042114501819014549e-03,8.404756337404251099e-02,-4.570016264915466309e-02,4.947505891323089600e-03,4.680393729358911514e-03,-9.368719905614852905e-02,3.976926091127097607e-04,4.921632818877696991e-03,4.405184462666511536e-02,-2.366902539506554604e-03,-4.551587160676717758e-03,1.007921248674392700e-01,1.851576939225196838e-02,-4.419466946274042130e-03,3.879788346239365637e-05,-5.472307559102773666e-03,-9.570948779582977295e-03,-5.523993633687496185e-03,-3.149687108816578984e-05,-5.145152565091848373e-03
-2.547298265653807903e-07,-1.291974740524892695e-07,-9.086783592238134588e-08,3.157728656333347317e-08,-2.562340171152754920e-07,8.857471129886107519e-07,3.531844754434132483e-07,-3.582022998216416454e-07,9.091098718272405677e-07,-2.558492440130066825e-07,3.571649074274318991e-07,1.940397623911849223e-06,6.716384746141557116e-07,-1.561803514960047323e-06,-1.156052235273818951e-06,-3.728761299726102152e-08,-3.108209867264122295e-08,1.149824356616591103e-06,3.256543266161315842e-07,-1.685345552004946512e-07,9.362910446952810162e-08,-1.873305244259881874e-08,-5.160792397873592563e-07,9.797598750083125196e-07,5.625857824043123401e-08,6.230714006960624829e-07,-2.089843462727003498e-07,2.191036969634296838e-07,1.682478512066154508e-07,-1.901669151038731798e-07,-4.866643976697559992e-08,-2.318132352741031355e-08,-1.094911539212262142e-07,-5.879830382582440507e-07,-2.087683469653711654e-06,2.499067619510242366e-08,-7.912514731287956238e-03,3.112734295427799225e-02,1.607068348675966263e-03,-5.286799743771553040e-03,4.362028837203979492e-02,7.734060753136873245e-03,-4.252022504806518555e-02,3.018983639776706696e-02,3.325200174003839493e-03,-4.401239380240440369e-02,-7.758550345897674561e-02,8.286830969154834747e-03,6.984836608171463013e-02,6.697470234939828515e-05,-4.525107890367507935e-02,-3.610301937442272902e-04,-4.651724919676780701e-02,-4.436668381094932556e-02,4.521253705024719238e-02,-1.153877703472971916e-03,-1.753848977386951447e-03,4.409195482730865479e-02,2.747878246009349823e-02,-8.376002660952508450e-04,-4.132393747568130493e-02,4.669105261564254761e-02,1.871377346105873585e-03,-4.466632753610610962e-02,-2.228116430342197418e-02,6.665845215320587158e-02,-7.929600030183792114e-02,5.291202105581760406e-03,6.623420864343643188e-02,1.490055234171450138e-03,8.367519080638885498e-02,1.510952832177281380e-03
-1.716321094136219472e-06,-1.479704906159895472e-06,2.749885084085690323e-07,3.815530646988918306e-07,-1.266005824618332554e-07,8.972029945653048344e-07,-5.743846713812672533e-07,7.958950050124258269e-07,-1.121311811402847525e-06,-2.054405968010541983e-06,-9.981254578406151268e-08,-2.450612441862176638e-07,-5.852540994055743795e-07,8.185307933672447689e-07,-1.076384137377317529e-06,1.287156351281737443e-06,-3.149908991417760262e-07,-3.598176476771186572e-07,-3.599994897740543820e-07,7.873845788708422333e-07,-1.822156718844780698e-06,1.532459691588883288e-06,-9.307733535024453886e-07,7.321102089008491021e-07,3.640499812718189787e-07,5.038944550506130327e-07,-1.208123450169296120e-07,6.754241326234478038e-07,-3.540185957717767451e-07,1.439615402887284290e-06,-3.584956118629634148e-07,-1.273633870368939824e-06,3.763531140066334046e-07,3.182567525072954595e-06,8.467295629088766873e-07,1.038258830021732138e-07,4.791210219264030457e-02,-2.270585112273693085e-02,7.655620574951171875e-03,8.395633101463317871e-02,-2.531176805496215820e-02,-6.432406604290008545e-02,9.495685808360576630e-03,-1.989501900970935822e-02,6.970906164497137070e-03,2.487003989517688751e-02,7.580415811389684677e-03,-4.776523262262344360e-02,-2.225739508867263794e-02,-2.738654799759387970e-02,1.967653073370456696e-02,-3.027484007179737091e-02,8.999572135508060455e-03,2.212155424058437347e-02,-1.393486559391021729e-02,-1.507230941206216812e-02,-7.455150596797466278e-03,-2.485524676740169525e-02,-2.946830168366432190e-02,-1.739309169352054596e-02,2.362585812807083130e-02,-1.445844676345586777e-02,6.825445219874382019e-03,1.962097175419330597e-02,5.808137357234954834e-03,-1.410847604274749756e-01,3.602056577801704407e-02,6.847598124295473099e-03,-9.186433255672454834e-02,1.360020693391561508e-02,-4.141290485858917236e-02,1.427084952592849731e-02
-1.196486181243017199e-07,5.936462343925086316e-07,4.443739953785552643e-08,-1.130796718484816665e-07,-6.444748805733979680e-07,3.163899293667782331e-07,-2.565350314398529008e-07,-2.097657585409251624e-07,-2.298467052241903730e-07,7.046086381023997092e-09,4.398593205223733094e-07,-1.797353661459055729e-07,8.040112930984832929e-08,-2.300482009331972222e-07,-1.956301360905854381e-07,-1.570191159316891572e-07,-6.320452428099088138e-08,5.100961288917460479e-07,1.418543718045839341e-07,-9.300158865244156914e-08,-1.926182022771172342e-07,1.262073539010089007e-07,1.620968674842515611e-07,-2.341653271287214011e-07,-4.443799994646724372e-08,2.104438436845157412e-07,-1.593443812453188002e-07,-3.767607097415748285e-07,3.844301090794033371e-07,2.661615150501006610e-09,5.445810913329296454e-08,-2.609162379485496785e-07,-1.892799161851144163e-07,-1.189992957506547100e-07,2.030651700124508352e-07,4.525582042447240383e-08,6.147760432213544846e-03,-1.796621829271316528e-02,5.119957495480775833e-03,2.652644179761409760e-03,1.557820290327072144e-01,-6.600103341042995453e-03,-2.125081373378634453e-03,-1.806371100246906281e-02,7.179878186434507370e-03,-1.493389010429382324e-01,3.703122586011886597e-02,-6.782649084925651550e-03,3.866812912747263908e-03,-6.268615834414958954e-03,-1.418287605047225952e-01,-6.180710624903440475e-03,-3.491021343506872654e-04,-1.358551979064941406e-01,8.554043620824813843e-02,-6.799186579883098602e-03,-7.145388517528772354e-03,1.436810791492462158e-01,-1.132853608578443527e-02,-6.327265407890081406e-03,8.499794639647006989e-03,3.896401962265372276e-03,6.719281896948814392e-03,-1.319546550512313843e-01,3.533263690769672394e-03,-2.102879434823989868e-02,-5.034164059907197952e-03,5.368601996451616287e-03,3.228228539228439331e-03,7.675295230001211166e-03,5.289620719850063324e-03,6.920379586517810822e-03
3.130491677438840270e-06,-8.328298406468093162e-08,-9.297751546455401694e-08,4.990212687516759615e-07,4.287289812054950744e-07,-1.779125824441507575e-07,-1.254999347111152019e-06,1.115345412472379394e-06,2.131977367980653071e-07,-1.377358330501010641e-06,6.998320714046712965e-07,-1.134297235694248229e-06,-2.255133750850291108e-07,9.534702485325396992e-07,-1.103398176383052487e-06,1.059032570083218161e-06,-3.112376703029440250e-07,-1.306470267081749626e-06,-1.272406393582059536e-06,3.159310153932892717e-06,-7.483243393835437018e-07,4.848490107178804465e-07,-3.629193940923869377e-07,-2.197123336600270704e-07,6.370276395273322123e-08,2.526519153889239533e-07,1.204288992084912024e-06,1.230778252647724003e-06,2.168734738461353118e-07,-1.897245056170504540e-06,-1.352461254100489896e-07,-8.824904398352373391e-07,1.479691036365693435e-06,2.343210326216649264e-06,-2.545652080243598903e-07,-7.601352649544423912e-07,5.138835683465003967e-02,1.639179512858390808e-02,2.748019061982631683e-02,9.982621669769287109e-02,-2.366343140602111816e-02,-7.517082989215850830e-02,-6.556282285600900650e-03,4.479308612644672394e-03,2.159698493778705597e-02,2.807545848190784454e-02,1.731637679040431976e-02,-5.260150134563446045e-02,-9.516198188066482544e-03,-3.952478617429733276e-02,9.921569377183914185e-03,-4.281634092330932617e-02,-7.193221896886825562e-02,1.474341377615928650e-02,-8.602932095527648926e-03,-2.925765886902809143e-02,-2.403385564684867859e-02,-2.274328656494617462e-02,-6.021191831678152084e-03,-3.172319009900093079e-02,3.294221758842468262e-01,4.866446554660797119e-02,2.486730925738811493e-02,2.212905138731002808e-02,-2.329753339290618896e-02,-3.649319335818290710e-02,2.101629972457885742e-02,1.332049444317817688e-02,-9.967004880309104919e-03,3.486214578151702881e-02,-1.158735528588294983e-02,3.261648863554000854e-02
-7.452311479028139729e-08,1.944133600773056969e-07,1.814145207390538417e-07,-4.157853652486664942e-07,1.885597669115668396e-07,-1.295515232868638122e-07,-1.070790531798593292e-07,-6.361254918374470435e-07,-1.561354338264209218e-06,-2.072346489967458183e-07,1.060485828929813579e-06,-4.130179718231374864e-07,-3.851181418212945573e-07,-3.786566082908393582e-07,1.657568837742928736e-08,8.069607133620593231e-07,-3.169748197251465172e-07,-8.075953132902213838e-07,9.046504345633366029e-08,2.307031081727473065e-07,-1.734252009555348195e-06,2.561508551934821298e-07,4.176819174972479232e-07,-6.649447072959446814e-07,-2.837031729541195091e-07,-1.657974593172184541e-07,-1.491049914648101549e-07,6.457154313466162421e-07,-3.413983336031378713e-07,-1.698266345329102478e-07,1.267879845556763030e-08,-2.420698876903770724e-07,2.573466417743475176e-07,3.375346011580404593e-07,1.023443132908141706e-06,-4.451973438790446380e-07,-8.719026111066341400e-03,2.224469743669033051e-02,-2.272263518534600735e-04,-4.536211956292390823e-03,-9.609256684780120850e-02,1.520193181931972504e-02,-1.535749901086091995e-02,2.060981467366218567e-02,-4.396959266159683466e-04,9.711484611034393311e-02,5.094750970602035522e-02,9.816247038543224335e-03,1.403864100575447083e-02,2.645430853590369225e-03,7.105581462383270264e-02,2.316467929631471634e-03,-1.966552250087261200e-02,7.580150663852691650e-02,-4.017561301589012146e-02,2.460041316226124763e-03,1.708398340269923210e-03,-9.302104264497756958e-02,1.710042729973793030e-02,2.666583983227610588e-03,3.020977973937988281e-01,2.165942825376987457e-02,-1.138758030720055103e-03,7.786215841770172119e-02,-1.607366092503070831e-02,-6.977441906929016113e-02,-4.066257737576961517e-03,-1.304297358728945255e-03,-7.146103680133819580e-02,-6.378185935318470001e-04,-1.316034048795700073e-02,-8.814314496703445911e-04
-1.548980662846588530e-06,-8.215462798943917733e-07,2.213954530816408806e-06,5.180981474950385746e-07,-1.857510341096713091e-07,-1.289566569084854564e-07,-1.478246758779278025e-06,-1.736399184437686927e-07,-3.709990323841338977e-07,3.470584033493651077e-07,8.297300269077823032e-07,-2.374262066950905137e-06,-9.615467888579587452e-07,1.978362007548639667e-07,4.685902297296706820e-07,-1.261723348022769642e-08,-1.389181647937220987e-06,-1.273532461709692143e-06,2.137485068942623911e-07,-7.451700980709574651e-07,-9.950587127605103888e-07,-5.314556119628832676e-07,-1.255754000339948107e-06,-8.119734502542996779e-07,-4.954051746608456597e-07,-3.848209928491996834e-07,-3.915575916835223325e-07,-1.500034159107599407e-07,-8.137716918099613395e-07,-2.236033367353229551e-07,-1.178866000373091083e-06,9.215060572387301363e-07,-2.244645855853377725e-07,2.107611180690582842e-06,4.163976882409770042e-06,-3.515041498758364469e-06,-1.419461518526077271e-02,6.013627862557768822e-04,-8.925329893827438354e-03,-6.892396509647369385e-02,8.850572630763053894e-03,2.447303570806980133e-02,6.163537874817848206e-02,5.566397216171026230e-03,-1.303896680474281311e-02,-3.717785002663731575e-03,-1.778715476393699646e-02,1.474925875663757324e-02,-7.221893221139907837e-02,1.298133097589015961e-02,1.475202385336160660e-03,1.380512956529855728e-02,1.629793643951416016e-02,2.318052807822823524e-03,-2.406778559088706970e-02,1.128157041966915131e-02,1.101980730891227722e-02,-9.257236961275339127e-04,-1.532139722257852554e-04,1.105879526585340500e-02,-2.009007334709167480e-02,-1.667305082082748413e-02,-1.018814928829669952e-02,5.160172469913959503e-03,6.425602734088897705e-02,-2.975060790777206421e-02,7.112921029329299927e-02,-1.524071302264928818e-02,-3.630853816866874695e-02,-1.328502688556909561e-02,-6.498263031244277954e-02,-1.147452462464570999e-02
1.438561980648955796e-06,-8.162078302120789886e-07,3.452944667969859438e-07,-9.422527114111289848e-07,3.028615083167096600e-07,-9.962145668396260589e-07,1.591071097095664300e-08,2.124118964275112376e-06,1.263023705178056844e-06,-6.592989620912703685e-08,-1.441005565538944211e-06,8.467379331023039413e-08,-1.965347337318235077e-06,-7.357692766163381748e-07,-1.279338903259485960e-06,3.206657765986165032e-06,1.903145857795607299e-06,-1.732355599415313918e-06,-8.363584242943034042e-07,-1.424256055315709091e-07,9.745924671733519062e-07,5.415388315554992005e-08,-1.131956196331884712e-06,2.554058085024735192e-07,2.718157077197247418e-07,-2.801885727876651799e-07,1.840797523300352623e-07,1.899702397167857271e-06,1.525984316685935482e-06,-9.363399300355013111e-08,-3.816083165020245360e-07,7.457607011929212604e-07,1.836679928146622842e-07,-8.786046805653313641e-07,-2.128108917531790212e-06,1.284377049159957096e-06,5.866795545443892479e-04,2.763697318732738495e-02,5.925805307924747467e-03,-4.459725460037589073e-04,-9.521207772195339203e-03,-4.558240529149770737e-03,1.182629913091659546e-02,2.412997744977474213e-02,9.463765658438205719e-03,9.157953783869743347e-03,-1.076630353927612305e-01,-2.626186236739158630e-03,4.221743438392877579e-03,-3.261563600972294807e-03,9.281249716877937317e-03,-2.524930750951170921e-03,-3.519054502248764038e-02,9.197333827614784241e-03,-1.454817102057859302e-04,-3.452260047197341919e-03,-4.743799101561307907e-03,-7.934826426208019257e-03,1.843992434442043304e-02,-3.612652653828263283e-03,9.577056765556335449e-02,5.745032802224159241e-02,4.711047280579805374e-03,9.147255681455135345e-03,1.361329946666955948e-02,2.441814169287681580e-02,-1.458267029374837875e-02,3.424655273556709290e-02,2.385447174310684204e-02,3.099735826253890991e-03,6.501638796180486679e-03,3.237555501982569695e-03
6.744992901985824574e-07,1.425186866299554822e-07,3.590546100440406008e-07,1.953649189090356231e-07,1.183122719794482691e-07,-1.218531764379804372e-07,1.410200134444039577e-08,2.593557439922733465e-07,-1.582371709218932665e-07,3.304141955595696345e-07,1.348516605048644124e-07,4.442479166755219921e-07,-1.227832768790904083e-07,-4.731794334134065139e-08,-2.854280012343224371e-07,9.136034861967345932e-08,-1.360333072852881742e-07,2.234568370340639376e-07,-3.267768704517948208e-07,5.036253369894438947e-08,-2.712928335313335992e-07,-9.399093983120110352e-07,9.183249005673133070e-08,-3.154993635234859539e-07,-7.823095415915304329e-07,-3.767826228795456700e-07,5.638424340759229381e-07,-3.299417983271268895e-07,1.839819390170305269e-07,3.443942659941967577e-07,-7.693666503882923280e-08,5.319262186276318971e-07,1.007225236548947578e-07,2.237400167359737679e-07,-5.470262749440735206e-07,-6.783216690564586315e-07,2.337078191339969635e-02,-4.008514061570167542e-02,3.868222469463944435e-03,2.618986554443836212e-02,1.274247616529464722e-01,-5.141955986618995667e-02,1.090035308152437210e-02,-4.043849185109138489e-02,6.331996992230415344e-03,-1.239211857318878174e-01,6.396816670894622803e-02,-3.320027887821197510e-02,-1.790990866720676422e-02,-1.120264176279306412e-02,-1.125009953975677490e-01,-1.068530231714248657e-02,2.908152528107166290e-02,-1.059827730059623718e-01,4.833085089921951294e-02,-9.978299029171466827e-03,-7.931533269584178925e-03,1.136250719428062439e-01,-3.576441109180450439e-02,-1.026288792490959167e-02,3.173101320862770081e-02,-2.542686462402343750e-02,6.530262529850006104e-03,-1.105040088295936584e-01,2.586545236408710480e-02,-2.623387426137924194e-02,1.406333781778812408e-02,8.296671323478221893e-03,-2.303110435605049133e-02,7.454079110175371170e-03,-1.216755900532007217e-02,6.915983743965625763e-03
-1.282731773244449869e-06,4.654123131331289187e-07,-4.281181631426989043e-08,8.290821824630256742e-07,-8.951631258469205932e-08,-6.931246616659336723e-07,-4.108310633910150500e-07,6.688495659545878880e-07,-8.182865371963998768e-07,2.977981523599737557e-07,-7.068784668717853492e-08,-2.930160860614705598e-07,-3.080156929513577779e-08,7.845112008908472490e-07,1.341002302979177330e-06,2.141853627790624159e-07,-4.520435936683497857e-07,-1.029198756441473961e-06,-5.976772285976039711e-07,9.718603450892260298e-07,1.710133119559031911e-07,-7.596413098553966847e-08,2.733280837219353998e-07,-1.766441187101008836e-06,-6.865625437058042735e-07,5.565691196807165397e-08,-1.623762813096618629e-07,3.539301189903198974e-07,-5.266239213597145863e-07,2.348589021039515501e-07,-6.957606615287659224e-07,1.420352617742537404e-07,-4.471918657600326696e-07,1.794854398440293153e-07,-2.588981260487344116e-07,-3.362526967976009473e-06,3.227037563920021057e-02,-9.220080450177192688e-03,3.933617845177650452e-03,3.235729783773422241e-02,-4.527520015835762024e-02,-4.001247882843017578e-02,2.732148952782154083e-02,-9.147105738520622253e-03,3.922778647392988205e-03,4.715895652770996094e-02,7.409971207380294800e-02,-3.577642142772674561e-02,-3.786417096853256226e-02,-1.510593295097351074e-02,2.739954553544521332e-02,-1.619349792599678040e-02,2.345813810825347900e-02,3.197286278009414673e-02,-2.264075540006160736e-02,-1.021482422947883606e-02,-4.917885642498731613e-03,-5.018083378672599792e-02,-1.593267731368541718e-02,-1.168080419301986694e-02,5.073549225926399231e-02,-2.032585814595222473e-02,3.727257484570145607e-03,3.719112277030944824e-02,1.754498109221458435e-02,-1.071143224835395813e-01,4.971444979310035706e-02,-3.337151429150253534e-05,-1.200602203607559204e-01,9.534389711916446686e-03,-7.395188510417938232e-02,7.777649443596601486e-03
1.097672452488041017e-06,-3.369202374869928462e-07,-1.570782160342787392e-06,2.914852757385233417e-06,-7.213675985440204386e-07,2.283692737137243967e-07,3.591532617974735331e-07,-3.503593916320824064e-06,-9.176499702334695030e-07,2.045976543740835041e-06,5.761838792750495486e-07,1.745755184856534470e-06,8.357935143976646941e-07,-1.164665945907472633e-07,1.886213112811674364e-06,-2.147164877897012047e-06,-1.574235284351743758e-06,3.334636744511954021e-07,-1.788984718587016687e-06,-5.806761009807814844e-07,-2.141912176512050792e-07,1.208878302350058220e-06,1.606512455509800930e-06,5.912176561650994699e-07,-1.308550849898892920e-07,-4.140977125643985346e-06,-1.035738932841923088e-06,-3.024254056072095409e-06,-1.194855371977610048e-06,-3.050545842597784940e-07,1.096520122700894717e-06,-1.591235445630445611e-06,-2.735775694873154862e-07,-1.732957116473698989e-06,-2.874955384868371766e-08,-5.202019792704959400e-07,-3.814299032092094421e-02,4.780930653214454651e-02,-2.942711301147937775e-02,-2.924279682338237762e-02,-5.388367548584938049e-02,4.715726897120475769e-02,-7.899685204029083252e-02,4.327499493956565857e-02,-3.409055992960929871e-02,6.034846231341362000e-02,4.633214697241783142e-02,3.980179876089096069e-02,5.624739080667495728e-02,3.282562643289566040e-02,2.468337304890155792e-02,3.231242299079895020e-02,-5.367014929652214050e-02,3.329581022262573242e-02,-5.375746171921491623e-03,3.348903357982635498e-02,3.419041261076927185e-02,-4.921049624681472778e-02,4.058460891246795654e-02,3.362243622541427612e-02,4.134905338287353516e-02,4.899874329566955566e-02,-3.325431793928146362e-02,4.409268125891685486e-02,-5.895410478115081787e-02,1.754108257591724396e-02,-4.872635006904602051e-02,-4.105929657816886902e-02,1.525288634002208710e-02,-3.017197735607624054e-02,4.829106479883193970e-02,-3.032450936734676361e-02
-1.586632038197421934e-06,1.270444442980078747e-07,-5.186846578908443917e-07,-3.051335681902855868e-07,5.316055649018380791e-07,9.973058467949158512e-07,-3.691130245897511486e-07,-2.638902515172958374e-06,6.491887347692681942e-07,-6.688845246571872849e-07,5.932616531367784773e-08,-5.918223564549407456e-07,-6.055775543245545123e-07,-1.853488527103763772e-07,-3.004585096277878620e-07,-1.306321678384847473e-06,-1.600276959834445734e-06,9.663500577516970225e-07,-6.112020969339937437e-07,5.970171059743734077e-07,8.581338306612451561e-07,1.697385073384793941e-06,4.637522010852990206e-07,-5.774539886260754429e-07,-5.513228416020865552e-07,1.431795340067765210e-07,-1.699811633670833544e-07,4.403141247166786343e-07,1.242061102857405785e-07,-1.794654053810518235e-06,-5.195948347136436496e-07,-1.807320586522109807e-06,1.936123680934542790e-06,1.990511719895948772e-07,1.762715896802546922e-06,-8.445397270406829193e-07,8.509811013936996460e-03,-1.283018290996551514e-02,5.911245476454496384e-03,1.842214539647102356e-02,-9.130843915045261383e-03,-1.372929010540246964e-02,5.311128683388233185e-03,-1.629056595265865326e-02,5.699534900486469269e-03,7.582002785056829453e-03,1.973855942487716675e-01,-9.403131902217864990e-03,-6.025733891874551773e-04,-6.713654380291700363e-03,1.528594829142093658e-02,-6.853314582258462906e-03,9.836722165346145630e-03,1.374677754938602448e-02,-1.344778761267662048e-02,-5.925587844103574753e-03,-5.735205020755529404e-03,-1.410841383039951324e-02,-9.022071026265621185e-03,-6.114746443927288055e-03,7.158432621508836746e-03,-9.965311735868453979e-03,5.653548054397106171e-03,1.020598411560058594e-02,1.194029208272695541e-02,1.121799461543560028e-02,-5.133164813742041588e-04,6.517143454402685165e-03,6.099055334925651550e-02,6.519477348774671555e-03,1.623772899620234966e-03,6.266149226576089859e-03
1.057127633430354763e-06,-2.284047155853841105e-07,-2.226329343102406710e-08,-6.638246645707113203e-07,2.119232362929324154e-07,4.544214675661351066e-07,-1.150126536231255159e-06,8.768736137199084624e-08,-1.226586618940928020e-06,4.290989750188600738e-07,-1.986248179264293867e-07,-3.681332145788474008e-07,3.295113515378034208e-07,-6.176328781748452457e-08,6.605965836570248939e-07,2.535441367967905535e-08,2.885734602386946790e-07,8.639458570769420476e-08,-6.730218728989711963e-07,-6.993695365054009017e-07,1.861779566070254077e-07,-2.560279881436144933e-06,-3.292906392005079397e-09,-1.845382655574212549e-07,-2.416124971205135807e-07,8.393704575837546145e-08,-1.166036938116121746e-07,-3.279460258909239201e-07,-1.453373812410063692e-07,3.535602388637926197e-07,3.296861450508004054e-07,3.390608682707352273e-08,3.463528059910458978e-07,5.120787136547733098e-07,-5.870611516911594663e-07,2.669763148333004210e-07,-1.583551871590316296e-03,9.029397740960121155e-03,2.285069786012172699e-03,2.418637974187731743e-03,4.160461947321891785e-02,1.454511471092700958e-02,-3.365484625101089478e-02,7.154735270887613297e-03,1.248983899131417274e-03,-5.369781702756881714e-02,5.050989333540201187e-03,2.872388344258069992e-03,6.982805207371711731e-03,-1.812874106690287590e-03,-2.828577533364295959e-02,-2.216010354459285736e-03,-2.535380795598030090e-02,-3.288040682673454285e-02,1.986286044120788574e-02,-1.323028234764933586e-03,-1.187798567116260529e-03,3.669551014900207520e-02,3.754068166017532349e-03,-1.336693880148231983e-03,-5.003446713089942932e-02,2.232322655618190765e-02,1.480438397265970707e-03,-4.704789072275161743e-02,-1.470062229782342911e-02,-2.446646802127361298e-02,-6.126120686531066895e-03,-8.623144822195172310e-04,5.342260934412479401e-03,2.380545949563384056e-03,5.843832157552242279e-03,2.897240919992327690e-03
-1.841190595541775110e-07,-1.077457227438571863e-06,-6.436560511247080285e-07,1.214400640492385719e-06,-2.402947396618060338e-09,5.757004259976383764e-07,2.782894057418161537e-07,-4.860534019712758891e-08,-1.192997274301887956e-06,1.077818410522013437e-06,1.099567612072860356e-06,-6.467444109148345888e-07,4.355810290235240245e-07,9.190995342578389682e-07,1.853268827289866749e-07,-1.061238663169206120e-06,1.710761381445990992e-07,2.432802546081802575e-07,-4.101666206679510651e-07,6.487423043211038021e-09,-1.521895114819926675e-06,-7.618280051246983930e-07,-1.779264948709169403e-07,-3.205752534540806664e-07,6.540643937569257105e-08,-2.983988451887853444e-07,1.260375768197263824e-07,-1.508287596152513288e-06,-1.407046624990471173e-06,3.979117195740400348e-07,5.305449235493142623e-08,6.803342103012255393e-07,4.983809844816278201e-07,-2.789197651509311981e-06,7.190964765868557151e-07,-9.270118539461691398e-07,-4.611654207110404968e-02,4.135692724958062172e-04,-4.174515977501869202e-02,-4.897586628794670105e-02,6.827327609062194824e-02,5.286716669797897339e-02,-1.760431216098368168e-03,9.534065611660480499e-04,-5.819072574377059937e-02,-7.271321117877960205e-02,1.004571933299303055e-02,5.155196785926818848e-02,-1.470209844410419464e-02,3.833059221506118774e-02,-5.418150499463081360e-02,3.658853843808174133e-02,2.136270888149738312e-02,-5.449981614947319031e-02,2.769766561686992645e-02,4.542265459895133972e-02,4.936853051185607910e-02,6.481266021728515625e-02,8.580373250879347324e-04,4.360077902674674988e-02,4.888778552412986755e-02,-2.271161042153835297e-02,-4.916007444262504578e-02,-6.441853940486907959e-02,-6.435951683670282364e-03,-6.292841583490371704e-02,2.589862793684005737e-02,-7.017504423856735229e-02,-6.609585881233215332e-02,-3.862088173627853394e-02,-2.758216671645641327e-02,-3.924848511815071106e-02
2.082171448591907392e-07,1.044385044224327430e-06,-4.457122315670858370e-07,2.698438272830117057e-08,5.927325119614579307e-08,3.475821870324580232e-07,4.147816312638497038e-08,-2.730764059322154935e-08,-4.209204576000047382e-07,2.838053205778123811e-06,-7.807216206856537610e-08,-2.665573788362962659e-07,-9.627071761997285648e-08,8.657938792566710617e-07,-4.791431962303249747e-08,-5.238611038294038735e-07,2.156195080260658870e-07,2.094468243285518838e-07,4.237784025917790132e-07,-2.670059302545269020e-07,-4.036094480852625566e-08,-7.524729994656809140e-08,-1.212948887996390113e-07,-5.591512035607593134e-07,-5.560212912314455025e-07,-3.932572667508793529e-07,2.203137796641385648e-07,-9.845671229413710535e-07,2.534068528348143445e-07,1.060064391822379548e-08,-2.831109213730087504e-07,8.663020025778678246e-07,3.282598726173091563e-08,-1.294128082918177824e-06,-6.853979925836028997e-07,3.382475313173927134e-07,-7.216550409793853760e-02,-5.704902485013008118e-02,-8.189210295677185059e-02,-3.815319389104843140e-02,6.364613026380538940e-02,4.970244318246841431e-02,-1.166470050811767578e-01,-6.052703410387039185e-02,-8.407561480998992920e-02,-7.917973399162292480e-02,-2.460518628358840942e-01,7.346446812152862549e-02,8.342599123716354370e-02,7.871089130640029907e-02,-3.142162039875984192e-02,7.756436616182327271e-02,7.911908626556396484e-02,-4.984251037240028381e-02,2.885924093425273895e-02,8.235467225313186646e-02,8.257826417684555054e-02,4.984886571764945984e-02,-4.696005582809448242e-02,8.170752972364425659e-02,8.015882223844528198e-02,-7.682411372661590576e-02,-8.366288244724273682e-02,-7.436895370483398438e-02,-2.378908358514308929e-02,8.586746454238891602e-02,-8.630310744047164917e-02,-8.378713577985763550e-02,1.303305570036172867e-02,-8.073984086513519287e-02,1.994621455669403076e-01,-8.141063898801803589e-02
3.618319510678702500e-07,-1.251128622925534728e-07,3.313211891509126872e-07,1.827888240768515971e-07,-8.631192827124323230e-08,-1.454529012789862463e-07,-5.363726245377620216e-07,-3.917846314038797573e-08,1.904113418049746542e-07,-6.213062988535966724e-07,7.884323736107035074e-07,6.852342835372837726e-07,1.845841381964419270e-07,-1.520149055522779236e-07,-1.051705069698982697e-07,6.365748106418323005e-08,4.046056005790887866e-07,-1.706411438817667658e-07,5.181965079259498452e-08,-2.775922496311977739e-07,8.999587919333862374e-08,-5.384940493513568072e-09,8.893595193626424589e-09,-2.080528958003924345e-07,-1.901773458712341380e-07,-6.134464314300203114e-08,3.205607868039805908e-07,4.598993541549134534e-07,-1.160165563618420492e-08,4.965819471181021072e-07,1.009368091331452888e-07,-4.852648203268472571e-07,1.823520392463251483e-07,2.684462003799126251e-07,1.997451306579023367e-07,3.975534923483792227e-07,-1.993514597415924072e-03,1.128448639065027237e-02,5.119356792420148849e-04,-8.827745332382619381e-04,-8.138138800859451294e-02,3.047053702175617218e-02,5.528425332158803940e-03,1.477087102830410004e-02,-1.690179487923160195e-04,8.461148291826248169e-02,-7.957202382385730743e-03,2.784330165013670921e-03,-8.351355791091918945e-03,-3.756702644750475883e-03,6.057652086019515991e-02,-4.013062920421361923e-03,-7.980177178978919983e-04,5.723990872502326965e-02,-1.610302552580833435e-02,-1.805562525987625122e-03,-7.503138622269034386e-04,-6.468416750431060791e-02,7.610084954649209976e-03,-2.613529795780777931e-03,-8.687721565365791321e-03,6.466746563091874123e-04,9.213130688294768333e-04,7.508365064859390259e-02,-3.612092463299632072e-03,-2.821331727318465710e-04,1.039088889956474304e-02,2.303702494828030467e-04,-1.242694794200360775e-03,4.955268814228475094e-04,-2.756257541477680206e-02,1.068393583409488201e-03
7.432418414055064204e-08,1.092511865863343701e-06,8.667445854371180758e-07,5.972437122636620188e-08,5.479479270320553042e-08,4.607757659869093914e-07,-2.135468264441442443e-07,-2.313431224365558592e-07,3.618985374487238005e-06,-7.028850177448475733e-07,2.753944272626540624e-07,-1.062911906046792865e-06,-2.057295631630040589e-07,-1.021453044813824818e-06,-1.568875859447871335e-06,5.701988925466139335e-07,2.236104990060994169e-07,-2.488949064627377084e-07,3.889077220264880452e-07,1.071483524128780118e-08,2.415335984551347792e-06,-2.098139248118968681e-06,-1.873229962257028092e-06,6.308472393357078545e-07,3.004465156664082315e-07,-8.179474519920404418e-08,1.675271619205886964e-07,1.333880277343268972e-06,4.554347469820640981e-06,-1.083071765606291592e-06,6.632970439568453003e-07,1.186296913147089072e-06,-5.857332325831521302e-07,-6.161322971820482053e-07,5.983553208466219075e-09,-1.647487465561425779e-06,2.622115192934870720e-03,-4.807388037443161011e-02,1.107059791684150696e-02,-7.564214989542961121e-03,-1.200520154088735580e-02,-1.897325273603200912e-03,2.935985848307609558e-02,-2.341846190392971039e-02,3.870251402258872986e-02,1.232003886252641678e-02,1.393394321203231812e-01,-8.575461804866790771e-03,-1.089617609977722168e-03,-1.985962036997079849e-03,1.541655976325273514e-02,-5.061008268967270851e-04,2.686630561947822571e-02,1.603763923048973083e-02,-2.460937760770320892e-02,-1.201219297945499420e-02,-1.894509047269821167e-02,-1.280122157186269760e-02,-1.066370680928230286e-02,-9.130805730819702148e-03,-5.716350674629211426e-02,-1.258693262934684753e-02,1.858723536133766174e-02,1.731554046273231506e-02,3.887734189629554749e-02,6.907698512077331543e-02,-1.307159196585416794e-02,7.059192657470703125e-02,4.950777441263198853e-02,3.833540715277194977e-03,1.095180958509445190e-02,6.032253149896860123e-03
-6.892364581290166825e-07,5.753754521720111370e-07,-1.016406486087362282e-06,1.055779321745831112e-07,5.980824653306626715e-07,-1.144808152275800239e-06,1.585418090144230518e-07,-1.874156851044972427e-06,-1.759121460054302588e-06,1.055615143741306383e-06,7.264706596288306173e-07,1.332464194092608523e-06,1.122681624110555276e-06,1.155631139226898085e-06,-5.348654497083771275e-08,-3.145438313367776573e-06,-3.780151871524140006e-07,5.611686901829671115e-07,-5.454310212371638045e-07,-2.403931773642398184e-07,6.192920523062639404e-07,2.460187488395604305e-06,4.377549430500948802e-06,1.505119087141792988e-07,-1.034756778039991332e-07,-2.787005826121458085e-07,-7.544473987763922196e-07,-5.225235213401902001e-07,-6.669461072306148708e-07,-3.550344445102382451e-07,-3.800840602252719691e-07,1.316646631721596350e-07,-2.478538476680114400e-07,-3.018400093424133956e-06,-1.277697947443812154e-06,2.680422994671971537e-06,-3.688319586217403412e-03,7.412549166474491358e-05,-1.502580824308097363e-03,1.056117489933967590e-01,9.836594574153423309e-03,-1.868714578449726105e-02,-1.009389907121658325e-01,-1.293517556041479111e-02,-4.425043298397213221e-04,-9.424283169209957123e-03,1.130869239568710327e-01,3.117894753813743591e-03,5.096524953842163086e-02,2.669927896931767464e-03,-1.226325612515211105e-02,2.655941760167479515e-03,8.818399161100387573e-03,-1.193786971271038055e-02,1.370040699839591980e-02,2.329284558072686195e-03,2.053227741271257401e-03,8.354830555617809296e-03,1.543209655210375786e-03,2.542479429394006729e-03,8.647750318050384521e-02,-5.176753271371126175e-03,-1.687448355369269848e-03,-1.296054944396018982e-02,-1.068520843982696533e-01,1.013687252998352051e-02,-3.527575358748435974e-02,-2.384192077443003654e-03,3.848616778850555420e-02,-1.515211304649710655e-03,4.173190519213676453e-02,-1.385678071528673172e-03
-1.134286886639301883e-08,-8.119673680084815715e-07,2.875723907891369890e-07,1.124459458878845908e-07,-6.539131192084823851e-08,-1.145219457043822331e-07,-5.883889002689102199e-07,1.689964648221575771e-07,4.750834534661407815e-07,-6.096872198213532101e-07,1.670813247756086639e-07,-6.168154413899173960e-07,1.765311452572859707e-07,4.062592893205874134e-07,-1.711451247388140473e-08,7.366048180301731918e-07,-4.841799068344698753e-07,-5.247698453558768961e-08,1.095310864229759318e-08,2.358129336244019214e-07,2.576079225491412217e-07,-2.815113191445561824e-07,-1.449052433599717915e-07,8.564909137476206524e-08,8.971211684638547013e-08,6.232375540093926247e-07,-4.647603191187954508e-09,1.107614025386283174e-06,1.567431127114105038e-07,1.563581086827525723e-08,2.820762290411948925e-07,-2.132536707222243422e-07,-4.776826045826965128e-08,3.084492732341459487e-07,3.070653065151418559e-07,1.100952204069471918e-06,3.243735060095787048e-02,-8.367330580949783325e-02,-5.566010251641273499e-03,8.605586737394332886e-02,-8.501193672418594360e-02,-7.282386720180511475e-02,6.960703060030937195e-03,-8.301818370819091797e-02,-5.001999437808990479e-03,8.913134783506393433e-02,2.232629433274269104e-02,-4.231706261634826660e-02,-8.145518600940704346e-03,3.003815189003944397e-03,6.603452563285827637e-02,1.605898258276283741e-03,4.332550242543220520e-02,7.506472617387771606e-02,-5.964810773730278015e-02,5.738184787333011627e-03,5.608519539237022400e-03,-7.644713670015335083e-02,-7.100182771682739258e-02,5.677260924130678177e-03,2.325439453125000000e-02,-6.036856025457382202e-02,-5.412004422396421432e-03,8.512108027935028076e-02,3.066996857523918152e-02,2.511710114777088165e-02,4.657403565943241119e-03,-4.673041403293609619e-03,2.966606803238391876e-02,-5.734260659664869308e-03,4.520155955106019974e-03,-5.653413943946361542e-03
1.410831895753972276e-08,-2.440510904477832810e-08,4.050782109743522597e-08,3.738258840257913107e-07,-1.887476202000470948e-07,-5.401013254413555842e-07,2.759207120561768534e-07,-4.117811513992819528e-08,1.121230184253363404e-07,-5.007055960959405638e-07,1.821506430133013055e-07,-4.524577335018875601e-08,-5.515335033123847097e-08,2.110254797571542440e-07,2.789977031625312520e-07,-1.198109771394229028e-07,4.681270837636475335e-08,-1.050631439625249186e-07,-5.401598173193633556e-07,-2.270915047120070085e-07,2.233688292108126916e-07,5.474356044032901991e-07,-8.963458242305932799e-08,1.380560288311016848e-08,8.028678166738245636e-08,7.451455985574284568e-08,-2.248308703656221041e-07,1.078052946468233131e-06,8.697436015836501610e-08,-3.286943126568075968e-07,-1.687923258941737004e-07,-1.493126120521992561e-07,7.038251936819506227e-08,7.361015263995795976e-08,1.608828057442224235e-07,2.405749057743378216e-07,2.087853290140628815e-02,-1.783521845936775208e-02,2.186629921197891235e-02,4.073442891240119934e-02,-1.102504059672355652e-01,-3.590339049696922302e-02,1.417491026222705841e-02,-2.054315991699695587e-02,2.969189547002315521e-02,1.103094592690467834e-01,3.414755314588546753e-02,-2.241241186857223511e-02,-4.347070585936307907e-03,-2.422898262739181519e-02,9.490277618169784546e-02,-2.382957004010677338e-02,2.786600962281227112e-03,9.637455642223358154e-02,-5.755117535591125488e-02,-2.725453488528728485e-02,-2.733800373971462250e-02,-1.024233028292655945e-01,-2.592123486101627350e-02,-2.638796903192996979e-02,1.156967431306838989e-01,-2.686152700334787369e-03,2.670175395905971527e-02,9.956148266792297363e-02,1.828473992645740509e-02,-8.277910761535167694e-03,3.916877321898937225e-03,3.523324802517890930e-02,5.158969666808843613e-03,2.579590119421482086e-02,-6.013543810695409775e-03,2.518801577389240265e-02
4.799724138138117269e-07,9.964919911453762325e-08,7.072463290569430683e-07,3.586012837786256569e-07,-2.928986475581041304e-07,-4.884240638602932449e-07,2.790171649280637212e-08,-1.348637681530817645e-07,-3.273024447025818517e-07,8.140044656101963483e-07,-3.919805635632656049e-07,1.003518974584949319e-07,1.040335462221264606e-08,-3.116159632554627024e-07,-5.229206934131980233e-08,-1.779917369049144327e-07,3.275910955835570348e-07,3.712338809691573260e-07,4.474586319247464417e-07,-1.019292170667540631e-07,-3.290715540060773492e-07,4.159006721238256432e-07,-1.775190305863816320e-08,4.807644700122182257e-07,-4.904243269265862182e-07,4.671196904837415786e-07,8.491283551848027855e-07,-3.680872850964078680e-07,1.107446436776626797e-07,1.608270281394652557e-06,1.558211266683429130e-07,9.811624295252840966e-07,-3.789419338318111841e-07,-6.085990094106819015e-07,-2.793092050978884799e-07,-8.887599278750712983e-08,1.297592651098966599e-02,1.195955090224742889e-02,6.940693128854036331e-03,1.816326007246971130e-02,7.993614673614501953e-02,-1.491264533251523972e-02,9.161931462585926056e-03,4.422076977789402008e-03,6.991282105445861816e-03,-7.657591253519058228e-02,6.854184716939926147e-02,-1.230527460575103760e-02,-8.473876863718032837e-03,-8.592234924435615540e-03,-7.405966520309448242e-02,-8.792434819042682648e-03,-1.645843125879764557e-02,-7.042233645915985107e-02,3.378732874989509583e-02,-7.162937428802251816e-03,-6.644035689532756805e-03,7.738256454467773438e-02,-5.031791515648365021e-03,-7.433999795466661453e-03,-2.534811943769454956e-02,1.387644559144973755e-02,6.466193124651908875e-03,-7.008514553308486938e-02,-1.291183056309819221e-03,8.069105097092688084e-04,6.458330433815717697e-03,1.247417554259300232e-02,2.819821005687117577e-03,6.161449011415243149e-03,-7.236848585307598114e-03,6.115985568612813950e-03
2.289167241542600095e-06,3.686930085677886382e-07,-1.785577268265114981e-07,-6.924327777824146324e-08,-5.744360009884985629e-07,-9.600341854820726439e-07,6.061006274649116676e-07,-2.426033631763857557e-07,1.540171297165215947e-06,-3.076373644717023126e-08,-1.151084120465384331e-06,6.974532880121842027e-07,1.251655135092732962e-07,-4.188389368664502399e-07,-2.490509984909294872e-07,1.531714701741293538e-06,5.507945957106130663e-07,-7.601228162457118742e-07,4.941199449604027905e-07,-8.520743222106830217e-07,4.913682118967699353e-07,4.196359384422976291e-07,-1.117192255151167046e-06,5.791117132503131870e-07,1.896227246334092342e-07,-2.075718015248639858e-07,4.347445496932778042e-07,1.978425643756054342e-06,9.975722150556975976e-07,-4.039356440443953034e-07,-3.475574317235441413e-07,-5.827747031617036555e-07,-2.509561909391777590e-07,-1.075791402627146454e-07,-4.323638780334704279e-09,8.885873512554098852e-07,1.448054611682891846e-02,2.561511285603046417e-02,3.376612812280654907e-02,-1.183041334152221680e-01,-8.545663207769393921e-02,1.078527197241783142e-01,8.293789625167846680e-02,4.661702737212181091e-02,3.943878039717674255e-02,8.595797419548034668e-02,-2.349677085876464844e-01,-1.960079185664653778e-03,-3.120184503495693207e-02,-3.338023275136947632e-02,8.443329483270645142e-02,-3.249146044254302979e-02,1.322912983596324921e-02,8.358408510684967041e-02,-7.060817629098892212e-02,-3.661771118640899658e-02,-4.001114144921302795e-02,-8.236087113618850708e-02,4.160199314355850220e-02,-3.595925867557525635e-02,-1.813474111258983612e-02,1.314766891300678253e-02,3.919935598969459534e-02,8.711941540241241455e-02,1.027208045125007629e-01,1.473018527030944824e-01,4.032409284263849258e-03,7.539325952529907227e-02,1.214347332715988159e-01,3.244363516569137573e-02,-4.907658789306879044e-03,3.305235877633094788e-02
6.543731387864681892e-07,1.025360120365803596e-06,2.225240223197033629e-07,-4.218138371925306274e-07,-1.306722481331235031e-07,-5.204929607316444162e-07,9.000571026263060048e-07,3.748623100818804232e-07,-4.671964006774942391e-07,-2.528856555272795958e-07,-2.784125001653592335e-07,2.207569167467227089e-07,-1.386727745966709335e-07,2.829419258887355682e-07,-1.218290435645030811e-06,8.420395261055091396e-07,5.884651841370214242e-07,2.919966668457618653e-08,-2.055508758758151089e-07,-3.489687827595844283e-08,5.790757739987384412e-08,-1.239567950506170746e-06,-4.865262894782063086e-07,1.172071932842300157e-07,-5.995167953187774401e-07,-1.039266180669073947e-06,5.416275143943494186e-07,-5.140200300957076252e-07,4.187590434412413742e-07,2.659801623394741910e-07,1.313307166128652170e-06,-1.527367430753656663e-06,-2.923331294368836097e-06,-8.425780038123775739e-07,2.686591642486746423e-07,-1.444776444259332493e-06,3.255440294742584229e-02,5.632857605814933777e-02,1.491577131673693657e-03,5.886637419462203979e-02,7.728748023509979248e-02,-5.874001607298851013e-02,-3.226412693038582802e-03,3.839511796832084656e-02,6.635666941292583942e-04,-7.414090633392333984e-02,3.460853174328804016e-02,-3.034413047134876251e-02,-1.317150425165891647e-02,-1.464463025331497192e-02,-6.755440682172775269e-02,-1.921116746962070465e-02,-9.568666107952594757e-03,-6.293690204620361328e-02,1.284940075129270554e-02,-2.410714980214834213e-03,-1.028541359119117260e-03,7.167827337980270386e-02,5.383007228374481201e-03,-3.165005939081311226e-03,-8.737850189208984375e-02,-2.177878050133585930e-03,1.057349960319697857e-03,-6.577982008457183838e-02,-2.309187129139900208e-02,-1.791791245341300964e-02,2.561580203473567963e-02,-8.846467826515436172e-04,-1.290582213550806046e-02,3.626355435699224472e-03,-4.105969518423080444e-02,2.934587653726339340e-03
2.450523481911659474e-07,1.088276704308555054e-07,-3.838195539174193982e-07,-2.780827799142571166e-07,1.566994797030929476e-06,-1.125931703427340835e-06,4.622571339041314786e-07,-8.561167987863882445e-07,-1.814534471122897230e-06,6.211896561580942944e-07,-8.206504809038506210e-09,-1.253480263585515786e-06,6.318078931144555099e-07,-5.467777555168140680e-07,-4.338534438375063473e-07,-1.284433324144629296e-06,-1.134227431975887157e-06,-1.416593818248657044e-06,2.822588953677040990e-07,-4.729943441361683654e-07,-5.883103995074634440e-07,-1.550875481370894704e-06,1.421957449565525167e-06,-3.842907574380660662e-07,-5.706712045139283873e-07,9.967556025003432296e-08,3.007596660609124228e-07,-7.018993528618011624e-07,-1.653592789807589725e-06,2.789743803077726625e-06,9.089794872352285893e-08,-1.661884653003653511e-06,-1.254140329365327489e-06,-4.058891533986752620e-07,-1.850119588198140264e-06,2.266249111926299520e-06,-2.190908975899219513e-02,3.210358787328004837e-03,-4.775680135935544968e-03,5.803630920127034187e-04,-1.865115948021411896e-03,1.723744906485080719e-02,-2.649819478392601013e-02,2.684844424948096275e-03,5.723615759052336216e-04,4.657725337892770767e-03,-2.746576443314552307e-02,1.967856287956237793e-02,2.977703511714935303e-02,8.544766344130039215e-03,-3.409276017919182777e-03,7.429221644997596741e-03,-1.100740954279899597e-02,-4.949110094457864761e-03,8.805197663605213165e-03,8.663639426231384277e-03,7.294882554560899734e-03,3.661178052425384521e-03,4.905408248305320740e-03,9.034766815602779388e-03,3.648709878325462341e-02,1.037178095430135727e-02,-5.023536272346973419e-03,3.303402045276015997e-04,-3.163750469684600830e-02,2.606641128659248352e-02,-3.216515108942985535e-02,1.048551290296018124e-03,1.177666615694761276e-02,-2.856092527508735657e-03,3.824132680892944336e-02,-4.880668595433235168e-03
-1.476239617659302894e-06,-8.978421419669757597e-07,-3.382273234819876961e-06,-1.038069513015216216e-06,-2.521856856674276059e-07,8.985702493191638496e-07,-4.179148049843206536e-07,2.022300805037957616e-06,1.732744522087159567e-06,-8.285630315185699146e-07,-8.671816544847388286e-07,6.328053245852061082e-07,-4.174420098479458829e-07,-5.882532718715083320e-07,1.593916749698109925e-06,3.234150369735289132e-08,6.643088568125676829e-07,-1.445305883862602059e-07,-2.057022811641218141e-06,-1.697025311386823887e-07,2.180214778491063043e-06,-2.167277557418856304e-07,-1.340481844636087772e-06,2.922828912232944276e-07,4.905160153612087015e-07,5.262966240593414113e-08,-4.553662336093111662e-07,1.977741021619294770e-06,1.037220158650598023e-06,-8.724205713406263385e-07,5.761538091064721812e-08,-1.687032948893829598e-07,-1.181312086373509374e-06,-5.673984446730173659e-07,-8.172792718141863588e-07,3.078614838614157634e-07,7.883481681346893311e-03,1.474161865189671516e-03,5.435081664472818375e-03,2.625626698136329651e-02,-3.283100947737693787e-02,-1.406807079911231995e-02,-1.696524396538734436e-02,5.809841677546501160e-04,1.369035057723522186e-02,3.280713036656379700e-02,-1.496412903070449829e-01,-7.921858690679073334e-03,2.427140437066555023e-02,-5.252758041024208069e-03,3.070207126438617706e-02,-4.579949192702770233e-03,1.425802614539861679e-02,3.181818500161170959e-02,-2.715196833014488220e-02,-5.389448255300521851e-03,-6.960890255868434906e-03,-3.345951065421104431e-02,-1.907480065710842609e-03,-5.424550734460353851e-03,-5.588601902127265930e-02,-9.120980277657508850e-03,6.953391246497631073e-03,3.059818223118782043e-02,5.385990720242261887e-03,1.122435331344604492e-01,-2.825061976909637451e-02,3.306163102388381958e-02,1.242141798138618469e-01,3.287710715085268021e-03,6.705927848815917969e-02,4.503963515162467957e-03
3.269432681918260641e-06,1.313371740252478048e-07,1.290895170313888229e-06,-5.275175567476253491e-07,-1.412088977303938009e-06,3.288831294412375428e-06,-6.427248422369302716e-07,1.781781179488461930e-06,2.127419094222204876e-07,-1.743639757023629500e-07,-1.401466988681931980e-06,-2.409215994703117758e-06,-3.146186884350754553e-07,-1.192086529044900090e-06,2.714200491027440876e-07,2.137315732397837564e-06,1.757707082106207963e-06,-2.738980953154168674e-08,-3.899069440649327589e-07,-1.534948296466609463e-06,-8.231157266891386826e-07,-1.912179641294642352e-06,-6.565740022779209539e-07,3.772211698560568038e-07,8.301289540213474538e-07,4.328939269271359080e-07,-1.066651655889927497e-08,1.221518459715298377e-06,5.091072239338245708e-07,1.677757381912670098e-06,2.665880629137973301e-06,1.596884544596832711e-06,-7.032115831862029154e-07,1.100290205613418948e-07,-1.419510113009891938e-06,9.509051892564457376e-07,1.146461116150021553e-03,-2.653511241078376770e-03,-4.748042847495526075e-04,6.854872335679829121e-04,4.154719412326812744e-03,1.226214412599802017e-02,1.681748544797301292e-03,-2.762943971902132034e-03,-1.912615989567711949e-04,-4.302240442484617233e-03,-2.300427109003067017e-02,-1.163974869996309280e-03,-2.727888524532318115e-03,-7.196795195341110229e-05,-2.158776856958866119e-03,-2.506911550881341100e-05,3.441018052399158478e-03,-3.392040496692061424e-03,-1.886551501229405403e-03,-2.838121986314945389e-07,1.022539654513821006e-04,3.925097640603780746e-03,-2.201328054070472717e-03,-4.535786501946859062e-05,-6.430406589061021805e-03,-2.975119976326823235e-03,-1.890700950752943754e-04,-2.675892785191535950e-03,2.128498395904898643e-03,-4.158754833042621613e-03,3.002502955496311188e-03,2.996652910951524973e-04,-4.510306753218173981e-03,-4.243864386808127165e-04,-2.211547223851084709e-03,-4.011455166619271040e-04
2.866933641598734539e-07,1.710164525547952508e-07,-5.939978109381627291e-07,-6.846141786809312180e-07,-5.359656274350754757e-09,-1.665882678025809582e-06,-7.101052119651285466e-07,-4.029764966162474593e-07,-1.621108935978554655e-06,5.937046125836786814e-07,-1.531849306957155932e-06,1.987028639405252761e-07,4.993633524463803042e-07,-1.726036771287908778e-06,5.569065706367837265e-07,-1.704487658571451902e-06,-1.224946686306793708e-07,-2.697942420581966871e-07,9.012782129502738826e-07,-2.045616867007993278e-07,9.608798023919007392e-08,1.479792217651265673e-06,-3.783269448831561022e-07,1.061020157067105174e-06,4.483922850795352133e-07,-3.784356863434368279e-07,-8.242454185847236658e-08,-1.453706886422878597e-06,-1.085700418457236083e-08,1.322391199209960178e-06,1.364587802754613222e-07,-1.821289004055870464e-07,-4.734522747185110347e-07,-1.497352968726772815e-06,-5.795997708446520846e-07,-4.213193562918604584e-07,-2.481268346309661865e-02,-2.365327440202236176e-02,-2.994311042129993439e-02,8.880273438990116119e-03,6.615670025348663330e-02,5.011897534132003784e-02,-9.040370583534240723e-02,-2.735341712832450867e-02,-2.912954613566398621e-02,-6.346907466650009155e-02,-2.446405291557312012e-01,2.697316557168960571e-02,4.581617936491966248e-02,2.300111949443817139e-02,-6.339329481124877930e-02,2.302844822406768799e-02,5.685003846883773804e-02,-6.554234772920608521e-02,5.474041774868965149e-02,2.379893697798252106e-02,2.569534257054328918e-02,6.482535600662231445e-02,-1.131387520581483841e-02,2.404109761118888855e-02,4.892344772815704346e-02,-5.111653357744216919e-02,-2.611255832016468048e-02,-5.990512296557426453e-02,-7.570885866880416870e-02,4.332826286554336548e-02,-4.116976261138916016e-02,-3.599352017045021057e-02,7.113266037777066231e-04,-2.466251701116561890e-02,5.295527726411819458e-02,-2.508964575827121735e-02
1.057194296549823775e-07,-1.928007833384981495e-07,-6.592749173250922468e-07,-2.585042579994478729e-07,2.691604663596081082e-07,-8.569065812480403110e-08,9.271908396613071091e-08,3.079512396197969792e-07,3.429996979775751242e-07,-6.495483830804005265e-07,2.078195961985329632e-07,2.542572872243908932e-07,-9.505856723990291357e-08,-3.044854679501440842e-07,-1.731814478489468456e-07,-4.837630740439635701e-07,3.750923838197195437e-07,5.227192900747468229e-07,6.466083277700818144e-07,-5.884721758775413036e-07,7.815754656803619582e-07,-6.313358653642353602e-07,-3.468414888629922643e-07,1.560576556869364140e-08,-8.934230066870441078e-08,1.354011374132824130e-07,-1.332169574652652955e-07,-3.301313995507371146e-07,-4.924354470858816057e-07,-1.803752809337311191e-07,5.894800025885160721e-08,1.096863400107395137e-07,9.271127510146470740e-07,-2.599838069272664143e-07,-7.744277041865643696e-08,1.303550192233160487e-07,-1.112386733293533325e-01,-1.589593738317489624e-01,-1.550017595291137695e-01,1.085629984736442566e-01,5.105062201619148254e-02,-6.737959384918212891e-02,-2.976214885711669922e-01,-1.822445839643478394e-01,-1.611576527357101440e-01,-6.320420652627944946e-02,-5.189097523689270020e-01,1.048584580421447754e-01,2.225690335035324097e-01,1.225277334451675415e-01,-4.787023738026618958e-02,1.217939853668212891e-01,1.280125081539154053e-01,-4.937332123517990112e-02,7.619482278823852539e-02,1.343626081943511963e-01,1.488033980131149292e-01,4.815902933478355408e-02,-9.431655704975128174e-02,1.329390704631805420e-01,4.928225651383399963e-03,-1.664814800024032593e-01,-1.476443111896514893e-01,-7.580408453941345215e-02,-1.736863553524017334e-01,1.331378370523452759e-01,-2.057646960020065308e-01,-1.907611787319183350e-01,1.776433140039443970e-01,-1.323957592248916626e-01,3.549647033214569092e-01,-1.343430429697036743e-01
4.395226824271958321e-06,4.330502463290031301e-07,1.478656486142426729e-06,2.209386138929403387e-06,-7.448621630601337529e-08,-1.917265848305760301e-07,1.338262336503248662e-06,-8.985442718767444603e-07,-4.213985448586754501e-06,7.340262300203903578e-07,-8.156482067533943336e-08,-6.451415970332163852e-07,2.921741497630137019e-06,6.144283020148577634e-07,2.443653329464723356e-06,-3.123518581560347229e-06,-5.509896823241433594e-07,5.927761890234251041e-07,-4.757147848977183457e-07,-1.062642354554554913e-06,3.847355571906518890e-07,1.143402641901047900e-06,1.569693608871602919e-06,-4.220632092710729921e-07,7.975077664923446719e-08,-3.097894477832596749e-06,3.340087744163611205e-07,-4.643060947273625061e-06,-1.043995098370942287e-06,1.940575060643823235e-07,-2.873863991226244252e-07,1.270907091566186864e-06,1.662648060118954163e-06,-1.248449621016334277e-06,4.358960552508506225e-07,1.270701432076748461e-06,-1.113167479634284973e-01,1.655485481023788452e-02,-5.712688714265823364e-02,-1.547046303749084473e-01,-6.374686956405639648e-02,8.377875387668609619e-02,-3.633111948147416115e-03,2.335660159587860107e-02,-5.442540720105171204e-02,6.354889273643493652e-02,-1.168665126897394657e-03,1.148926541209220886e-01,1.509686408098787069e-04,7.037641853094100952e-02,6.054307147860527039e-02,7.259847968816757202e-02,4.940890707075595856e-03,5.490311980247497559e-02,-3.285441547632217407e-02,6.136488541960716248e-02,5.743917450308799744e-02,-5.718861147761344910e-02,3.661439940333366394e-02,6.379196792840957642e-02,7.312355190515518188e-02,-3.859864780679345131e-03,-5.596690997481346130e-02,6.274855136871337891e-02,-8.666993118822574615e-03,-5.785503890365362167e-03,-4.573763289954513311e-04,-5.005200207233428955e-02,-2.187427319586277008e-02,-6.149993836879730225e-02,7.984426338225603104e-04,-5.974662676453590393e-02
-1.032705867487493379e-07,-3.075576415767500293e-08,8.947132101866372977e-08,-2.316552070169564104e-07,-8.285672947749844752e-08,-8.877043455868260935e-08,7.066885387985166744e-08,2.617603378496369260e-08,-1.203853514653019374e-07,-3.067422937874653144e-07,-3.047558436719555175e-07,1.501487076893681660e-07,2.170337864981775056e-07,-1.373960287764930399e-07,-9.295371938833341119e-08,-4.695933171205979306e-07,1.466012804485217202e-07,2.556007245857472299e-07,3.670111539122444810e-07,-5.021437132768369338e-08,2.427815957162238192e-07,-9.317500371253117919e-08,4.791459673469944391e-08,-1.661238968608813593e-07,-1.330427039647474885e-07,2.944368873158964561e-07,-9.316010185500545049e-09,6.525293372305895900e-08,7.353644804197756457e-08,1.182028075419339075e-08,1.391119752724989667e-07,-9.128006439595992560e-08,-2.851842140216831467e-08,-2.855095004861141206e-08,-1.512039347062454908e-07,-9.818399604455407825e-08,-2.778813708573579788e-03,3.213642537593841553e-02,9.833587100729346275e-04,1.250304840505123138e-02,1.636385023593902588e-01,4.755913279950618744e-03,-4.431700333952903748e-02,3.675068542361259460e-02,1.010441337712109089e-03,-1.698319911956787109e-01,6.288424879312515259e-02,3.226601751521229744e-03,2.744469046592712402e-02,-5.068649770691990852e-04,-1.511623263359069824e-01,-4.916574107483029366e-04,-1.463257940486073494e-03,-1.544532179832458496e-01,1.348337382078170776e-01,-1.184005290269851685e-03,-1.127791008912026882e-03,1.594623625278472900e-01,2.655847184360027313e-02,-1.088377437554299831e-03,-1.204944495111703873e-02,1.793465926311910152e-03,1.112854806706309319e-03,-1.662809699773788452e-01,-7.446099817752838135e-02,9.165902622044086456e-03,-2.389950864017009735e-02,9.964376658899709582e-05,2.657219581305980682e-02,1.331351581029593945e-03,2.325314469635486603e-02,1.312233624048531055e-03
1.958452685357769951e-06,-6.708030468871584162e-07,-8.929314390115905553e-07,-2.347555891901720315e-06,-1.440092773918877356e-06,9.800424294326148811e-08,3.603713594202417880e-07,1.253789719157794025e-06,4.703841113951057196e-06,-2.694708030048786895e-07,-4.130988315864669858e-07,1.746257794366101734e-06,2.381884911528686644e-07,1.590149594221657026e-07,-9.738190698271864676e-08,2.024731884375796653e-06,9.928129429681575857e-07,1.034149022416386288e-06,1.068972778739407659e-06,-1.174176190943398979e-06,9.943890972863300703e-07,-2.859818323486251757e-06,-3.282648776803398505e-06,-3.401259363045028294e-08,4.302142428969091270e-07,3.564476401152205653e-06,2.784112780318537261e-07,2.382342700002482161e-06,4.992639333067927510e-07,2.166712391726832720e-07,-1.059156261362659279e-06,2.048374653895734809e-06,-8.774820798862492666e-07,3.084781155848759227e-06,7.090897469197443570e-08,-3.802886340054101311e-06,2.770394645631313324e-02,9.726804494857788086e-02,6.580291688442230225e-02,7.872112095355987549e-02,-4.393071308732032776e-02,-8.475643582642078400e-03,6.188685446977615356e-02,9.050861001014709473e-02,6.231456995010375977e-02,5.807074904441833496e-02,-8.337391167879104614e-02,-1.538972370326519012e-02,-5.712340772151947021e-02,-3.462031111121177673e-02,3.960176929831504822e-02,-3.372577577829360962e-02,-6.595208495855331421e-02,4.168174415826797485e-02,-4.972703754901885986e-02,-4.320328310132026672e-02,-5.119590088725090027e-02,-4.359197989106178284e-02,3.512417897582054138e-02,-4.335292056202888489e-02,-2.983908951282501221e-01,7.428012043237686157e-02,5.536676570773124695e-02,6.058505550026893616e-02,-1.955133490264415741e-02,6.511392071843147278e-03,7.032318413257598877e-02,7.576503604650497437e-02,2.980475872755050659e-02,3.611014783382415771e-02,-9.002054482698440552e-02,4.165889695286750793e-02
1.999809910557814874e-06,5.275444436847465113e-07,2.248456496545259142e-07,-5.182600659736635862e-08,-9.781603012015693821e-07,7.923162570477870759e-08,3.596760507207363844e-07,-1.122723602975383983e-07,-2.051613591902423650e-06,-1.271651399292750284e-06,-4.501537773649033625e-07,7.095046328231546795e-08,4.686969532485818490e-07,2.427507524771499448e-06,1.566698301758151501e-06,6.673908501397818327e-07,-9.931516160577302799e-07,5.599221140073495917e-07,-4.133426045882515609e-09,-1.907483948571098153e-07,-9.204789535033341963e-07,3.198345268629054772e-07,7.673793334106449038e-07,-5.844117367814760655e-07,-1.639734392711034161e-07,5.083443284092936665e-07,-4.085488569671724690e-07,4.791065180143050384e-07,3.774947465728928364e-09,-8.974384968496451620e-07,1.167802778923032747e-07,1.637246924701685202e-07,-9.644680858400533907e-07,4.379238305318722269e-07,7.958268497532117181e-07,2.821422242504922906e-07,-1.199323963373899460e-02,4.516702145338058472e-03,-9.121714159846305847e-03,-5.506578832864761353e-02,-8.060530573129653931e-02,4.176282137632369995e-02,9.395540505647659302e-02,6.513532251119613647e-03,-1.343024708330631256e-02,7.370645552873611450e-02,1.131299436092376709e-01,1.508073229342699051e-02,-9.699255973100662231e-02,1.007649209350347519e-02,8.993029594421386719e-02,9.994467720389366150e-03,2.205078303813934326e-02,8.117430657148361206e-02,-7.212620228528976440e-02,1.070861611515283585e-02,1.154696382582187653e-02,-7.666695117950439453e-02,3.105564741417765617e-03,1.031016558408737183e-02,-8.007215708494186401e-02,-1.398500055074691772e-02,-1.148134097456932068e-02,7.242230325937271118e-02,3.422883898019790649e-02,-1.840792410075664520e-02,8.971951156854629517e-02,-1.171445660293102264e-02,-1.284123305231332779e-02,-1.166720688343048096e-02,-8.063101023435592651e-02,-1.081505604088306427e-02
