-8.645967394113540649e-02
-9.639441221952438354e-02
-3.193975239992141724e-02
-2.031742632389068604e-01
-1.946821063756942749e-01
-2.415532022714614868e-01
-4.683122038841247559e-01
-2.098231613636016846e-01
-3.099163174629211426e-01
-1.577701233327388763e-02
-3.454141616821289062e-01
-3.563667833805084229e-01
-1.448863446712493896e-01
-1.571889668703079224e-01
-3.966636657714843750e-01
-3.393718302249908447e-01
-5.554638504981994629e-01
-1.902974098920822144e-01
7.805564999580383301e-02
4.101998507976531982e-01
2.385793924331665039e-01
3.662307262420654297e-01
6.646719574928283691e-01
3.535768985748291016e-01
4.312342107295989990e-01
5.318355560302734375e-01
1.964883655309677124e-01
1.184983849525451660e-01
1.385398805141448975e-01
4.057313203811645508e-01
7.571628093719482422e-01
5.118294954299926758e-01
1.236789375543594360e-01
2.343708574771881104e-01
1.352598518133163452e-01
7.890775799751281738e-01
-9.044383466243743896e-02
-8.560068160295486450e-02
-3.717775922268629074e-03
8.856293745338916779e-03
-1.555528258904814720e-03
-2.204576283693313599e-01
6.267787516117095947e-02
5.158781632781028748e-02
-1.489066630601882935e-01
2.628052532672882080e-01
3.682180494070053101e-02
1.456455886363983154e-01
-3.516339883208274841e-02
7.560780504718422890e-04
-3.699833154678344727e-01
-1.005395054817199707e-01
5.179681256413459778e-02
4.441858828067779541e-02
6.256512831896543503e-03
2.350195646286010742e-01
-2.065235227346420288e-01
-1.350697362795472145e-03
6.627723574638366699e-02
1.924550086259841919e-01
6.065471470355987549e-02
1.245955973863601685e-01
1.954774372279644012e-02
3.701342344284057617e-01
8.554990403354167938e-03
2.912815511226654053e-01
4.998153820633888245e-02
4.675285518169403076e-02
3.612379729747772217e-02
1.353478729724884033e-01
-9.786076843738555908e-02
1.098327189683914185e-01
