6.648465955549909268e-08
1.624205261468887329e-01
3.291102824732661247e-03
-2.632189466389434074e-10
1.247319057583808899e-01
-1.393842399120330811e-01
8.467707601766960579e-08
4.065224601390582393e-08
1.112811265358004675e-08
1.849599480628967285e-01
1.948924660682678223e-01
-1.862504888094917987e-07
1.355300694704055786e-01
3.847471177577972412e-01
3.679293314462483977e-08
6.819576025009155273e-02
3.328061699867248535e-01
5.525305122137069702e-02
2.679871022701263428e-01
4.001198306013975525e-08
-4.427590027944461326e-08
-2.170018547076324467e-07
-9.442221937661088305e-08
2.833989858627319336e-01
3.055118327210948337e-07
-7.989432662725448608e-03
2.984173893928527832e-01
2.622776627540588379e-01
-9.320862659478734713e-08
-5.088032395406116848e-08
2.452321499586105347e-01
1.559158861637115479e-01
2.284945249557495117e-01
-1.822485131697249017e-07
7.309562060981988907e-03
2.018865927766455570e-07
2.232349514961242676e-01
2.253776043653488159e-01
2.107849752519541653e-07
2.463787794113159180e-01
1.907102671339089284e-07
5.160059407353401184e-02
1.759824925784414518e-07
2.781330235302448273e-02
6.085646525025367737e-02
2.198837995529174805e-01
1.866532713174819946e-01
1.363681292332330486e-07
-2.557810319103737129e-07
-2.155535412384779193e-07
3.235405898749377229e-08
-6.304482980112879886e-08
2.359547913074493408e-01
-1.592397689819335938e-01
-1.379258094402757706e-07
2.440314888954162598e-01
8.861818909645080566e-02
-2.369480682773428271e-07
1.866121266402842593e-07
4.226037859916687012e-02
-8.542875207240285818e-08
2.475370168685913086e-01
7.771670595957402838e-08
6.838394739361319807e-08
