-1.391866989433765411e-02,-5.757161974906921387e-01,1.988767087459564209e-01,1.390838623046875000e-01,1.096515655517578125e-01,9.595154225826263428e-02,8.387595415115356445e-02,6.155104190111160278e-02,3.076753020286560059e-02,1.136315241456031799e-02,8.115885779261589050e-03,1.623933017253875732e-02,2.929238788783550262e-02,9.031004272401332855e-03,-2.264422830194234848e-03,-5.650123953819274902e-02,-6.218807026743888855e-02,-2.485505789518356323e-01,-8.203624188899993896e-02,-5.412758886814117432e-02,-1.834345161914825439e-01
8.316444605588912964e-02,-7.519460916519165039e-01,7.682220637798309326e-02,2.895045466721057892e-02,9.249077178537845612e-03,3.771904855966567993e-03,-4.463397199288010597e-04,-7.073837332427501678e-03,-2.057906612753868103e-02,-2.428551390767097473e-02,-1.231184415519237518e-02,7.079554721713066101e-03,3.597810864448547363e-02,3.834487497806549072e-02,6.094932928681373596e-02,2.757493592798709869e-02,5.387555435299873352e-02,-1.445555090904235840e-01,1.050541996955871582e-01,1.774499267339706421e-01,2.079113945364952087e-02
4.072877019643783569e-02,-8.244434595108032227e-01,9.255840629339218140e-02,4.313311353325843811e-02,2.175310626626014709e-02,1.537920627743005753e-02,1.020650193095207214e-02,2.356029115617275238e-03,-9.998825378715991974e-03,-1.302227471023797989e-02,7.379546295851469040e-04,2.228194102644920349e-02,5.388846993446350098e-02,5.770090967416763306e-02,8.480481058359146118e-02,5.423947051167488098e-02,8.544108271598815918e-02,-1.128302067518234253e-01,1.440488249063491821e-01,2.210881114006042480e-01,1.318605691194534302e-01
5.373876914381980896e-02,-8.020903468132019043e-01,9.737949073314666748e-02,4.751607403159141541e-02,2.526079118251800537e-02,1.830887794494628906e-02,1.336738932877779007e-02,4.477337468415498734e-03,-9.287395514547824860e-03,-1.303158886730670929e-02,-1.902702206280082464e-04,2.053103223443031311e-02,5.156364664435386658e-02,5.334892868995666504e-02,7.964502274990081787e-02,4.820242151618003845e-02,7.882913202047348022e-02,-1.201938614249229431e-01,1.357092708349227905e-01,2.117573916912078857e-01,1.134906485676765442e-01
-1.224616765975952148e-01,-2.572174668312072754e-01,1.411300897598266602e-01,1.107961833477020264e-01,8.538016676902770996e-02,6.314242631196975708e-02,4.368221759796142578e-02,1.875886507332324982e-02,-2.189080463722348213e-03,-3.578582406044006348e-02,-5.983353778719902039e-02,-7.890838384628295898e-02,-9.060685336589813232e-02,-1.017559841275215149e-01,-1.047165170311927795e-01,-1.281658113002777100e-01,-1.475318372249603271e-01,-2.208565622568130493e-01,-1.962167918682098389e-01,-2.094224840402603149e-01,7.721323519945144653e-02
4.657355695962905884e-02,-8.140690326690673828e-01,9.986574947834014893e-02,4.909099265933036804e-02,2.721086330711841583e-02,1.981461048126220703e-02,1.401916146278381348e-02,5.242022220045328140e-03,-8.403410203754901886e-03,-1.169161405414342880e-02,6.299694650806486607e-04,2.111923322081565857e-02,5.228535830974578857e-02,5.518003180623054504e-02,8.170478790998458862e-02,4.999038949608802795e-02,8.118731528520584106e-02,-1.185959056019783020e-01,1.388897001743316650e-01,2.144809663295745850e-01,1.177829429507255554e-01
6.526218354701995850e-02,-6.700129508972167969e-01,9.155776351690292358e-02,3.858317807316780090e-02,1.305840257555246353e-02,3.743446897715330124e-03,-3.520192811265587807e-03,-1.268901210278272629e-02,-2.659574337303638458e-02,-2.843988873064517975e-02,-1.156059093773365021e-02,1.389784086495637894e-02,5.251874402165412903e-02,6.464533507823944092e-02,1.003348380327224731e-01,7.559282332658767700e-02,1.098627895116806030e-01,-8.681923896074295044e-02,1.693446785211563110e-01,2.441243678331375122e-01,1.809464767575263977e-02
-2.098719775676727295e-01,6.421737074851989746e-01,-1.125129163265228271e-01,-8.142872899770736694e-02,-6.086697801947593689e-02,-4.627128317952156067e-02,-3.893079608678817749e-02,-3.527311980724334717e-02,-3.338328003883361816e-02,-3.832543641328811646e-02,-4.480048269033432007e-02,-4.984445124864578247e-02,-5.267312377691268921e-02,-4.920822009444236755e-02,-5.010968074202537537e-02,-4.594247415661811829e-02,-5.542018264532089233e-02,-1.628677360713481903e-02,-1.015236228704452515e-01,-1.445774137973785400e-01,3.414568901062011719e-01
6.080931425094604492e-02,-6.100939512252807617e-01,1.285901069641113281e-01,7.553412765264511108e-02,5.014371126890182495e-02,4.003179445862770081e-02,3.106701374053955078e-02,1.948715560138225555e-02,2.846924820914864540e-03,-3.113093320280313492e-03,7.365324068814516068e-03,2.571673691272735596e-02,5.246622115373611450e-02,5.150150507688522339e-02,7.508455961942672729e-02,4.002359509468078613e-02,6.703491508960723877e-02,-1.341985464096069336e-01,1.215644180774688721e-01,1.962293982505798340e-01,-2.868193015456199646e-02
9.561137855052947998e-02,4.528533816337585449e-01,-1.283215880393981934e-01,-8.438566327095031738e-02,-6.461227685213088989e-02,-6.425109505653381348e-02,-6.126840040087699890e-02,-5.032092705368995667e-02,-3.808257728815078735e-02,-3.068516217172145844e-02,-4.228422045707702637e-02,-5.827401205897331238e-02,-8.172436058521270752e-02,-7.029706239700317383e-02,-7.495319098234176636e-02,-1.935046724975109100e-02,-2.836686186492443085e-02,1.884844601154327393e-01,-4.927138611674308777e-02,-1.101876944303512573e-01,-4.588640853762626648e-02
3.760659322142601013e-02,7.123093605041503906e-01,-7.331363856792449951e-02,-3.255281597375869751e-02,-1.903687231242656708e-02,-2.048630639910697937e-02,-2.261414192616939545e-02,-2.005134522914886475e-02,-1.484180800616741180e-02,-1.561551075428724289e-02,-3.222826123237609863e-02,-5.454916507005691528e-02,-7.930709421634674072e-02,-7.360406219959259033e-02,-8.423037081956863403e-02,-3.884168714284896851e-02,-5.079245567321777344e-02,1.476978361606597900e-01,-8.487325161695480347e-02,-1.499449461698532104e-01,1.961181638762354851e-03
5.855127237737178802e-03,-7.035906910896301270e-01,7.806064188480377197e-02,3.126603737473487854e-02,1.474796887487173080e-02,1.843043603003025055e-02,1.993665099143981934e-02,1.654504425823688507e-02,5.047966260462999344e-03,2.371415728703141212e-03,1.810274459421634674e-02,4.123277217149734497e-02,7.506851106882095337e-02,7.731086015701293945e-02,1.090149208903312683e-01,6.917294114828109741e-02,9.957186877727508545e-02,-1.308971196413040161e-01,1.529438346624374390e-01,2.365663498640060425e-01,7.379302382469177246e-02
6.223961338400840759e-02,-7.613494992256164551e-01,1.073728054761886597e-01,5.694616585969924927e-02,3.452792018651962280e-02,2.737152203917503357e-02,2.105739340186119080e-02,1.173913478851318359e-02,-1.694995677098631859e-03,-6.155828479677438736e-03,5.753804929554462433e-03,2.515781670808792114e-02,5.557852238416671753e-02,5.673319846391677856e-02,8.171943575143814087e-02,4.955808818340301514e-02,7.832950353622436523e-02,-1.202159002423286438e-01,1.343963891267776489e-01,2.106697708368301392e-01,7.735379040241241455e-02
1.576920785009860992e-02,8.359009027481079102e-01,1.064709271304309368e-03,3.283475711941719055e-02,3.621472418308258057e-02,2.327037043869495392e-02,1.045761257410049438e-02,4.933550953865051270e-04,-2.782107796519994736e-03,-1.592679508030414581e-02,-4.395799338817596436e-02,-7.710344344377517700e-02,-1.124290972948074341e-01,-1.127770543098449707e-01,-1.226446926593780518e-01,-8.134277164936065674e-02,-9.676101803779602051e-02,9.636875987052917480e-02,-1.362335830926895142e-01,-2.039877474308013916e-01,-1.090855449438095093e-01
1.144255418330430984e-02,7.621525526046752930e-01,-9.211535006761550903e-02,-4.740674421191215515e-02,-3.225295245647430420e-02,-3.068222664296627045e-02,-2.944030985236167908e-02,-2.520657144486904144e-02,-1.449715904891490936e-02,-1.371223013848066330e-02,-2.833217009902000427e-02,-4.656956344842910767e-02,-7.103887945413589478e-02,-5.910177901387214661e-02,-6.291575729846954346e-02,-1.269115880131721497e-02,-2.304067276418209076e-02,1.772513836622238159e-01,-4.900733754038810730e-02,-1.125401407480239868e-01,-2.310350984334945679e-01
7.645421661436557770e-03,4.424173384904861450e-03,-1.750751137733459473e-01,-1.353111118078231812e-01,-1.249384805560112000e-01,-1.260986924171447754e-01,-1.239023581147193909e-01,-1.131129786372184753e-01,-9.296645969152450562e-02,-7.789975404739379883e-02,-7.801597565412521362e-02,-8.484960347414016724e-02,-9.143593907356262207e-02,-6.268452107906341553e-02,-3.291628509759902954e-02,2.524637244641780853e-02,4.051639512181282043e-02,1.916460096836090088e-01,6.467965990304946899e-02,4.263786971569061279e-02,5.362803339958190918e-01
