-4.076786339282989502e-03,-1.227277144789695740e-02,3.244567289948463440e-02,1.793841016478836536e-03,4.501522984355688095e-03,-2.283791452646255493e-02,-1.217357907444238663e-02,-2.098338445648550987e-03,-2.394610270857810974e-02,3.298125788569450378e-02,3.658420871943235397e-03,3.390965238213539124e-02,-1.559238694608211517e-02,-1.272494345903396606e-02,1.682596048340201378e-03,-1.867336407303810120e-02
-1.042943261563777924e-02,-4.991219844669103622e-03,1.183264539577066898e-03,5.007501225918531418e-03,-6.344680878100916743e-05,2.041139872744679451e-03,7.769418880343437195e-03,-3.926411271095275879e-03,-1.374095008941367269e-04,-7.521932013332843781e-03,2.816032152622938156e-03,5.137700587511062622e-03,-1.068992633372545242e-02,-1.806749030947685242e-03,1.107970019802451134e-03,2.244758186861872673e-03
-2.750689350068569183e-02,-3.015980422496795654e-01,8.099721074104309082e-01,5.499200895428657532e-02,1.074275374412536621e-01,-5.590542554855346680e-01,-3.127891719341278076e-01,-1.049866527318954468e-01,-5.508310794830322266e-01,8.068168163299560547e-01,1.146488413214683533e-01,8.553577661514282227e-01,-3.928754031658172607e-01,-3.463063836097717285e-01,3.211103007197380066e-02,-4.625632762908935547e-01
-1.714976727962493896e-01,-3.647217899560928345e-02,1.288588275201618671e-03,-1.639245077967643738e-02,-3.204738348722457886e-02,4.737513139843940735e-03,4.795992001891136169e-02,-2.080518007278442383e-01,9.203262743540108204e-04,-4.152239300310611725e-03,4.169252887368202209e-02,-4.800185561180114746e-03,1.465110201388597488e-02,-2.583358809351921082e-02,5.423993244767189026e-02,-1.011096313595771790e-02
